440 50
学 2.4190185 0.44040802 1.4856819 0.6273862 0.45855674 -2.167451 -0.2666365 2.0500352 -3.3323205 -2.3616686 -0.523741 1.1099627 -2.6742673 0.98128766 -3.356469 -0.3485811 -1.7431146 -0.27235296 -1.0300823 -1.9348091 0.33418557 -2.2204726 0.43036732 -1.4514753 1.2557391 -0.34561092 3.948796 -1.6555827 -1.6427678 -1.1317194 -4.123772 0.12287179 -0.14159003 -1.6821977 1.1334394 1.5054654 3.2189188 -1.2321439 -0.34028718 -4.237561 -2.0149012 0.44881722 0.0038668918 0.25995907 -0.5415281 -0.07416429 -0.41786397 2.6649196 0.36152005 1.5039345
课 0.36097237 3.830113 -4.5181985 -1.946218 0.81998634 -3.737851 4.24799 0.32470182 -4.431222 1.061548 -2.5349007 1.2391059 0.58108217 -2.7380896 -1.2386372 0.6723691 -1.0147618 2.4888535 0.12697382 0.58363974 3.7272727 -2.1696603 0.5555939 -2.2318137 -2.3600018 -0.71977156 7.9274483 0.7133508 1.266342 -1.0913094 0.7926838 -0.16131605 -0.92844164 0.55063796 -1.0025617 1.5267421 0.2398386 1.651703 0.26306933 -1.3558806 -0.5752828 0.90910375 -1.0742296 1.0904483 1.6068215 4.432146 -0.96120614 3.9657629 -3.7483873 0.70325214
中 1.8071117 1.823323 5.093573 0.17218357 -0.40814155 1.2402397 -1.0617341 -0.094121456 -4.7066426 -0.46644956 -2.7028456 -0.61643314 -2.5066972 0.16694802 -1.3708943 1.0698959 2.678387 -4.944044 -1.2519649 0.04466122 -0.15778328 -2.0805438 1.6824337 -0.7648705 -0.59886587 2.0593343 -2.4740496 0.38303033 3.1417897 1.0769447 -1.7361785 0.5199895 -2.4855673 -4.478023 1.8830876 -2.486221 2.0434732 -1.0119076 3.0466003 -0.6735683 -2.7439623 -1.753872 -2.8009582 0.428383 3.3954134 3.552076 2.6626265 -0.10472074 -1.5567029 1.6669307
审 3.044476 0.69362515 3.1704733 2.9764917 3.1749635 -0.84946793 0.36490098 5.432578 -1.6932983 4.917869 1.7907336 3.2947834 1.840347 -3.4877985 -1.9833351 2.849548 0.616529 -1.2507808 -1.4301517 1.778209 -4.3622518 1.2695924 -0.063138746 1.4868479 1.3833591 1.3663241 2.5885897 -3.1055384 -0.605658 3.7433898 3.4040303 -0.98411745 6.5546327 0.11834244 -0.6568849 0.5850374 2.1077664 -4.4573946 3.5787303 -2.4873233 4.407591 1.7206291 -0.45958185 2.492563 -4.534007 2.1230726 0.35973904 -1.5530668 -3.3051238 0.4971454
培 1.1003668 -1.1406654 -2.8883162 -4.176166 -3.0810175 1.6332554 2.793053 0.18005082 -2.3332357 -6.3847785 -5.1155796 3.6753047 3.3015802 -2.6725123 -0.94482607 -2.0546398 2.139051 0.7117671 -3.4367287 -2.5993135 1.8634257 -5.1884127 -1.4734231 0.930979 0.024391348 1.4223574 4.4823804 1.5381444 -1.7387334 -2.6320817 6.5848403 -1.0716691 0.14540118 -3.69368 -3.7424173 1.1610831 2.85082 0.3806406 1.180082 -0.5303583 -0.5143267 2.152983 2.568292 -2.2149768 1.9553938 3.2729886 5.057025 0.48235336 -0.3117086 -3.4434311
养 -3.5074444 1.4284577 -3.3085515 -3.1051035 -1.6792629 0.7329247 0.43296903 -0.85852224 -0.82476693 -5.366621 -2.8930404 -0.59976476 4.0785136 1.2537214 -3.5649397 3.1779988 6.770392 0.6099917 -3.1841583 -2.6407163 2.0781577 -4.5716314 2.9432175 0.14826046 -1.147882 2.173299 5.707344 3.404389 0.2681542 -4.483421 3.8773518 -2.2230806 -3.4122293 0.94618446 -0.5766222 -2.7820835 -3.8531291 1.561777 -2.3423803 -2.664839 0.24856131 2.6452878 3.6128602 -2.1810067 1.3833143 1.5782654 4.2255125 2.7039473 1.3155318 -3.0030773
提 -2.5507264 1.3244692 2.0887315 0.6118223 -3.602941 -2.7700586 0.3833778 1.8747152 -1.3839629 1.0348248 4.6500335 -0.5608762 2.618876 -0.5409806 4.6132236 -3.209361 4.3783355 -2.3137028 -0.23018445 -0.87957186 0.51478386 -2.0502658 0.9418679 -1.8747765 -1.8067051 5.33293 1.3616021 -2.0317066 -5.648784 4.207086 -1.0896829 1.5920659 2.2990258 1.2782669 -2.522216 -2.6918886 1.8475736 -2.9324064 -0.07165472 -4.1345663 -1.2278141 -0.51058686 -1.0761938 -2.0511308 0.99104404 -0.18468845 2.9814715 -1.6716288 -4.296741 -1.975658
论 1.1303903 0.32712346 3.3550427 -4.506834 -1.7280205 -0.024254456 -4.91829 -0.18085067 3.403888 3.0606697 2.670645 -1.3502876 -2.558001 -1.7571545 0.85809714 2.002604 0.21474999 1.6208726 5.1045184 -3.8258705 -1.4248023 -2.4009192 2.7442605 0.62176025 2.8773773 -2.6302104 -0.5071756 -1.2465267 -3.962394 -2.0950313 -2.329032 -1.8033594 5.960205 6.989098 -0.85635203 -0.03614501 3.9523518 -2.3678997 -0.827441 -3.5354917 2.441138 -0.5501006 -4.0768948 0.89749396 2.490889 1.7548995 1.402306 -0.32836303 -3.4082344 -1.8193073
文 -0.83350545 1.267099 3.189054 -2.4893367 -3.7920852 -0.67267543 -1.6313454 -0.3606268 1.397442 8.823744 1.9385133 -0.48673674 1.1571879 -0.25405794 2.3044243 2.3522828 -1.2492896 1.0717419 -0.34885713 -1.7732046 -5.333775 2.9639304 2.34636 0.9044322 -1.5283772 0.18830684 0.9874602 0.2139834 -3.8243158 1.5516462 2.165678 4.3771687 4.358133 -0.33264852 5.193836 0.28395972 0.76562893 1.1301042 0.549968 -5.596155 -0.21176253 -4.707335 0.4511211 2.5176022 1.6736346 -2.1138546 3.8699267 3.016439 -1.6798613 -0.52140975
导 0.17134744 4.2754555 -1.6700385 -1.9094301 4.662172 -3.320969 -5.96477 -0.9135024 -0.40421215 -3.2973745 2.762722 -3.1888325 1.4876847 0.17920667 -3.3691163 3.9426627 3.767369 -4.718049 -0.032665282 1.8200116 -4.0850396 3.385793 -1.6390978 2.8095334 -1.3479239 4.3855104 0.75649166 -1.3166947 1.278966 0.5149535 -1.7520661 -2.2536538 -2.0315838 1.4356459 -3.648251 -3.963575 -1.4074992 2.4963825 -0.13848358 0.72203 0.7762528 -2.4196103 0.38693434 0.9349622 -1.6512709 -0.21548633 2.1798537 -1.2410744 1.5913777 -1.6352894
方 -1.1716785 -0.99544036 -7.631834 -3.3936808 -4.36915 -0.73445356 5.0166187 -1.2569294 1.9455752 -2.0995781 -6.4398813 -2.7052956 1.0256842 -3.9895735 -1.1202849 -2.5895216 3.8226943 -1.3346583 -0.86597127 0.78544676 0.08527952 -4.3986745 3.0495548 0.94615406 -3.1247902 3.7782502 2.149527 -0.5802516 -4.3534136 -3.3183386 3.4001408 -0.15225169 -2.9545386 -3.6714962 -0.40906736 -1.9084996 -0.676616 0.13685381 1.2886947 -3.838838 -1.6538838 2.7808433 0.23793314 -5.8322415 -0.8372896 0.68074554 1.52362 1.2231405 2.1552622 -0.6863459
交 -2.0589292 -2.6081023 4.359669 2.5473151 0.52389807 -3.9888082 0.63888097 -0.4082827 2.8253582 0.51866156 1.1359379 -2.4526384 0.4773533 -1.4819921 0.23103498 3.7101603 2.2816012 -0.96396846 -0.5755225 -4.071847 1.1285475 3.4676232 1.4388353 1.9770432 -1.6128995 5.161475 -1.9550616 -2.2818336 -3.7635558 0.30956218 1.6531222 -2.1208587 3.7156985 -5.1390924 -0.6043138 -4.4170637 0.23455097 2.1684523 4.650123 -1.3958831 -0.09423846 5.535009 0.28493527 0.6974182 -1.8044698 1.9122052 5.2967196 -2.7788196 -1.2224528 1.2000278
案 0.7178929 -2.3723729 -3.083125 -3.445408 1.5933398 0.084421836 0.75953656 -0.4128071 -0.5421143 0.2367501 -1.9554118 0.7693181 5.4809275 -4.1640954 -2.240293 -1.7117432 6.3080654 3.524173 0.8939587 -5.7003675 1.2103059 -5.13023 -0.5820154 0.01795016 -0.3901116 1.4385458 0.8937879 -1.7506149 -0.48264334 -1.1294626 5.573837 3.5295842 -3.5245318 -3.9573927 -0.07589936 -2.1300378 -5.9241257 1.3339506 2.7885487 -2.204197 0.9823149 3.507225 1.6018876 -7.986474 0.6785789 2.6012044 1.7889698 2.703012 0.2959687 -3.5120752
师 0.65494406 1.5617754 -0.4009631 1.6364285 0.8571531 -3.0861933 -6.5786943 0.5824153 -1.0616332 -6.2873893 3.4943645 -2.0134444 1.1905636 -2.3700395 -0.48953643 0.79620016 -1.3408911 -4.0334177 -0.58288956 1.2266595 -3.8456576 4.0881505 0.38981643 0.5696706 -0.261198 -0.7052355 0.2766555 -1.2431961 -1.4101508 1.0071753 1.8196706 -2.471084 -1.3373178 -0.5947151 -4.3221054 0.93305355 3.7050974 -0.23398753 1.7115377 3.2998455 -1.4320395 -5.7032633 0.30486512 -1.5828155 -3.7237008 0.39902684 2.493041 -2.677642 -1.8046006 0.43860376
统 0.72119325 4.670547 3.219737 -0.14204763 -0.03460773 3.8960621 1.2121702 3.6769137 1.6726595 3.0935314 -0.5318368 0.4275778 5.501873 -1.797139 -1.0370568 1.4237624 -0.8376805 -2.3159096 0.8954289 2.3078375 -3.6330483 4.625725 0.1283128 -3.6756983 -4.3953934 1.5215526 1.014054 -1.5497737 -3.0808883 0.1652089 -2.75466 -2.5541768 3.2773643 -3.7038548 -1.9032445 0.69395524 0.65570986 -4.597548 -1.4309074 -3.5527966 1.4474844 2.5568347 -0.8140107 -3.4151099 -3.9995716 3.760801 0.2585988 -1.870557 -0.23598108 -3.4400702
分 -1.5671426 -1.2813927 -2.4580011 -2.2499626 1.8131578 4.757989 1.9853357 1.9720428 -5.7717047 0.289687 -0.5524028 2.3052645 1.0544657 -2.9305673 -6.1875477 -0.3946195 -3.5362263 -0.74055463 4.967054 -3.6873517 0.458554 0.66204935 2.036367 -6.3246603 -1.488714 0.61707747 3.3539221 -1.1954902 -2.115794 -4.255971 1.5342195 -0.31421432 -2.1223953 1.1818854 -0.8051263 1.0064758 1.2094262 0.17823784 0.5361252 -1.960113 -4.556532 -4.93122 -0.0044812714 0.9731963 1.3409895 0.05770437 0.56402475 0.46406913 0.19930302 1.879384
业 -6.072332 4.5192485 6.9974284 0.8359674 5.935039 2.4343412 1.7910857 -2.0473611 -2.9271674 -1.2162205 3.5972095 3.556155 0.7704333 3.5043612 -0.8127643 0.5091959 -3.7251618 -2.4045694 -5.1521997 0.066293 -3.4510908 -1.5207454 4.231914 1.0667505 3.6345925 2.0275333 0.38027343 0.85065633 -0.9716979 -1.5352687 -2.4184067 -3.49286 5.107208 0.4289726 -2.9815109 2.5683782 0.50764483 5.3788843 -2.83021 -0.5685564 -0.10057174 -0.48282334 0.77346367 4.0253024 -3.9835513 2.5923946 0.03891992 4.103884 -2.2310388 -2.0751789
请 2.0429661 3.3395257 -2.3084168 -1.3605899 -0.79426026 -3.4587724 2.1100829 1.2941868 -1.9317689 -1.6802175 0.5968797 -1.1759531 5.0352383 -2.8792617 -1.6886208 -0.30950105 -4.175035 3.7660491 -1.7984755 2.5422528 -4.062515 -5.78429 -0.6461451 3.8641713 -1.8209904 0.2720798 -2.7367947 -1.2027011 1.7269726 -1.4285473 1.748357 -2.0457873 2.4719863 0.38125935 6.41065 -0.2713039 0.33782002 2.655418 -3.2254233 2.687173 1.7159616 -3.084843 -3.517038 -0.10718812 1.0499854 -3.1586635 2.9629858 1.6033987 -3.0490408 -1.730987
表 -0.31259674 -0.4093822 -5.3855352 -4.2788324 4.656531 3.4180043 -4.550326 -3.4813986 -2.9942427 -1.7590799 4.100136 2.5511072 1.1583971 -3.771341 6.5621057 0.2355298 -1.8132308 -2.308034 -3.3519971 -3.6797378 0.768633 2.6231446 4.966804 2.0760942 3.4603212 -2.5030873 2.4525678 -1.2487065 -4.256579 -1.6654928 0.086260155 0.38114533 2.703184 4.1685276 3.5474641 -0.23340051 -0.6810961 0.85140455 -0.41361946 0.9552505 4.954157 1.1841434 5.394383 0.4595458 -2.117342 0.02587569 -0.33005506 -1.4286294 0.028969523 1.4112405
程 -3.04968 4.4614882 -4.9689274 -5.575295 -0.74056214 -5.9302254 2.8667972 1.1637074 -1.606151 0.9722355 -1.372566 -0.05186956 -0.51253295 -0.4876738 -0.41022488 -5.9781003 -1.1222509 -0.55448073 1.6058685 -2.0201187 3.377495 -0.2382774 -1.678154 -1.9694678 2.8168395 0.7555607 4.02672 3.9780917 4.9539833 -2.9823778 1.0615672 -3.3877661 0.19739184 -1.6533109 -2.2680337 2.644832 -1.79343 -2.6062958 2.4729967 -3.3944821 -2.320066 3.1710415 0.05591947 2.0691137 0.72602224 2.284801 -1.5697219 2.5908964 -0.9101959 0.6465878
生 3.6483617 -3.1157942 5.5930624 -2.216014 1.9545858 -4.788282 -0.29803845 5.3307633 -3.5213642 -2.011744 2.4877665 0.10004579 6.714104 -1.1507965 0.89453334 -1.8371153 3.8813312 2.5453794 5.165084 -2.477187 -0.34348145 -1.1240392 -6.053298 -0.7009417 -3.9294624 -0.25990805 -3.2027378 -5.636575 4.3356085 4.1857877 -4.7862887 -0.11920737 1.8944302 2.6233478 1.4146743 2.337342 -2.574368 3.3333461 2.6185153 2.7660298 -1.1019661 -2.3161533 -0.40121502 -0.93335253 -0.8297691 -0.18709221 -0.7862094 1.7159268 -1.2978204 4.040658
校 1.7074696 -1.3855966 -0.07880873 1.0389106 -3.5470388 1.8728997 0.87483966 2.9147606 2.3666298 0.32651284 -2.3700504 3.7358322 0.2280712 2.7962394 -2.2409353 1.681807 -1.7553866 -5.3787513 -2.4037724 -0.4091836 -2.3955243 5.6303453 -3.4661427 1.4537174 -1.368324 1.4448391 0.6025605 -3.4499142 -0.6797997 -2.2852142 2.8802633 1.9804211 1.5924511 6.4272943 -3.950505 4.3475485 -3.2637491 -4.2196803 0.91472197 -1.3223153 3.1605494 2.7969797 2.8653038 3.6232002 -4.270807 -1.6009135 0.94566864 1.1311424 0.6943967 0.95697355
院 5.862218 -1.42074 1.2837168 1.6373179 4.76581 -2.1893883 -0.24326205 1.6004232 -1.7447727 -0.62471056 2.0182233 -1.250447 -1.3422766 -1.1042057 -0.14756359 -2.6152413 -1.0372905 -3.2087517 5.7160435 -0.1719261 -5.3121367 -0.08324847 2.1396658 0.03166699 -5.7597985 3.10019 -2.1369574 0.9874942 0.19444619 -1.9240904 2.4515638 -0.73256624 3.6361437 2.7451825 1.6871202 3.144043 3.5921767 -3.7584486 -5.4266057 -2.036107 -2.143544 -1.7243856 0.96716434 5.7640038 1.1037445 -0.13254867 -1.2930633 3.8054354 2.7526183 0.54191864
系 0.20731647 1.5033845 1.1766871 5.30074 1.5367328 -3.292348 -0.53865564 4.287653 3.8341749 -0.401727 1.8033402 -0.13509798 0.49740845 -4.415966 -2.3877614 -0.31382868 3.0268567 -3.3814523 0.4310856 1.470637 -5.786841 2.2443793 5.0333924 -4.409364 -4.230988 7.415128 1.5978369 0.21103667 -3.0986795 -4.1433654 0.45738432 0.8937618 3.2228448 -4.082432 -1.4182664 -1.4923515 -0.44143543 -4.8570223 -0.2235914 -0.5098822 -1.1049273 -1.1332668 0.37444538 -0.8050194 -1.2274904 1.165288 -0.6288282 1.7990906 -3.2924306 -5.5339293
修 0.076490834 -1.5534475 -1.9789636 -1.4687701 -0.31347096 1.4357748 1.7930275 7.8739076 0.8216426 -3.0418193 -1.6633129 -3.4075832 -0.5576848 -0.7576464 -4.305751 -3.577607 0.29872286 -1.1420822 3.790897 -1.7104188 0.21550158 -1.3734589 0.51484853 5.235358 -2.8296795 -0.93483835 -1.3450999 -0.77548116 -1.2172173 0.7304737 4.5527534 -2.0122702 1.2593293 0.75358224 1.1918926 0.39257163 -5.840391 -2.2852557 2.8599317 -4.8777194 -3.5621321 0.23074251 -5.011024 0.28454584 1.8945061 -0.1356041 4.4203763 2.837105 -3.0651104 0.7781718
毕 2.6754491 6.493756 0.51571655 -1.3296126 5.8136744 0.72983575 -1.7708856 1.3064327 2.2639146 0.63993025 -2.0110388 0.8391436 1.7187524 1.3332621 2.2928886 -2.3491957 -6.2043476 0.0002959101 -4.3946695 -0.1613038 -4.5518174 1.686421 -0.39805436 -0.9240365 -1.1721888 4.4180946 2.0535066 -4.801268 -1.9119486 0.62859416 -2.0417674 0.071444675 5.1981673 1.804871 -3.170386 -4.1478367 7.302484 2.60324 3.3490045 0.71318316 1.1991299 -3.5870893 -1.2609417 -0.39699444 -4.970466 3.9256186 -2.0151725 2.042547 3.1735861 -0.15494232
期 -4.1118703 1.5209728 -0.31965783 -0.60370106 -2.294039 -1.5636853 -1.2108271 -1.4130033 -4.3255744 -1.6685585 -2.6569653 4.3858867 1.1251572 -0.16343732 2.9394557 1.8534085 3.626774 -0.2709984 8.09691 5.033812 -2.0395117 3.1916225 1.1275998 -0.908338 -0.7430238 3.667551 -2.4402099 -8.004513 -1.104127 -0.49753603 -2.6002686 -0.43804628 1.3207624 -2.312882 -1.8748523 -0.10658141 1.5534497 -2.337492 -1.7046306 -3.1199982 0.060067087 -2.9212346 0.4478901 3.8623528 -1.0669066 -3.8658326 -1.0685668 -3.4829655 2.9059243 2.236903
选 3.9556036 1.9631256 -1.1335369 1.1532856 2.1804218 2.0278146 7.6456957 -1.5805105 -2.1965404 1.5224978 -0.8674826 4.8016496 4.5532947 1.0495831 -0.33545664 0.31697017 0.76027876 3.2642949 -0.18087883 -2.270942 2.395757 1.2660818 -0.43454438 -6.936031 0.5298546 3.57995 5.7613244 1.6503164 0.4922117 1.8539026 2.0893223 -4.732993 -3.2049952 0.51934224 2.8935049 0.042223822 2.8610144 0.16250362 4.247017 0.43137798 0.662504 3.0509334 4.3733788 3.1708598 0.45966652 3.0057843 3.5137951 5.068798 3.9290648 0.058038965
研 1.4558774 3.2871938 -0.6107473 -8.827548 -0.38077977 -1.0770798 1.1872232 0.541005 2.1669245 -2.8032916 -1.7261443 -7.6967926 0.49750867 0.32310528 -0.6597036 3.8850596 2.7857296 -4.6404896 1.8433447 -0.76699567 2.3277953 1.1962582 -2.6469967 -3.5227768 -3.0084455 1.7263753 4.1601768 -1.5165641 -0.037949722 -1.0884888 -7.662614 0.447572 2.7744708 0.44521633 4.7196574 -0.9032617 -0.011455608 0.95312506 -0.5635109 3.240926 2.6281688 0.662577 1.578097 4.856911 -0.72049373 -1.624641 0.25718346 1.0409898 -0.4902239 6.5801396
一 -2.2226968 -1.518328 2.460118 -2.8203754 -0.4079281 -2.5938213 1.9698043 -4.2575884 -2.7937415 2.6533723 -0.1858414 -0.6124827 -2.2828243 3.107947 -2.7871945 -2.8253117 0.7889882 1.4105499 2.0297177 6.1240873 0.50995684 -0.11617164 2.1404781 2.8428853 -1.0725058 5.31523 -4.109562 -6.575071 -4.098629 1.3535053 0.039447747 7.408677 4.4253416 3.6602945 -0.8287131 2.8459675 5.133407 -0.8405435 0.82943547 -1.8408552 3.1028423 1.1327195 -1.970775 0.9230014 -6.0594425 -2.3196297 -1.2999921 2.26522 -3.9983664 4.185693
会 -5.4374886 -2.920853 0.78395873 0.99983394 2.2606225 3.0969636 -0.514655 2.9810917 -2.6412344 -1.5926297 -1.3216254 -1.2249281 -2.206789 0.11204436 -0.49386013 -0.35625532 -3.05263 -3.3377385 -4.0017867 -0.07075817 -1.9678942 1.9958863 -6.52861 1.9229438 0.9800585 0.7611105 3.4334424 -0.18852971 0.19645418 -3.953271 2.7907636 2.163459 7.012735 0.9094052 -0.70920056 5.0772285 4.5777836 -3.5618143 -0.6709964 -1.1526961 2.3483071 -0.7182122 -1.367629 -1.8480756 -0.29054058 2.4479108 1.8711784 -3.7023892 -0.30933386 0.15288253
发 -0.11560036 -1.708305 0.36661556 -2.5833604 2.7138212 -2.3058238 2.0322165 0.57766473 -2.0448284 3.3961058 -3.663471 -5.291036 1.3381556 -5.221066 2.4528089 2.396824 -5.8095427 4.1417084 -2.234579 3.4433174 -4.298668 3.052928 -0.64422166 4.241101 1.6344498 0.041821834 -0.072680034 -0.97299486 -3.4642513 -3.3143263 -5.282217 0.13892429 5.0428324 0.56661814 0.571149 -1.5793821 -4.8789473 -2.3212981 1.4715327 8.233638 -4.47645 3.0267472 -5.351329 9.301821 -1.2246236 1.3598797 3.08209 2.3302016 0.7339744 -0.08252334
前 -2.5987227 -0.89470977 -0.46551585 4.261084 4.2542977 2.6937163 -7.0024385 5.6227775 2.6705132 -1.257777 3.9481573 -4.3555803 -2.1648557 2.8893178 0.3087058 -0.4313633 -2.1167176 -2.8792229 2.0708082 -1.2579988 -0.15038201 -1.9948518 -3.1767662 1.1849626 -1.368776 1.5214885 0.3397282 -6.410678 2.0905619 -1.8202279 -0.45196578 -0.037833434 3.065435 -2.698888 1.1018208 3.9899738 -0.22200768 -2.710038 -0.38713333 -7.788958 -1.1143589 -0.8847977 2.3034706 5.6201377 1.7293546 2.0359683 2.143258 0.51302344 5.2794867 -0.97063476
时 -0.0421645 -0.721653 0.2594479 2.1167116 3.292542 5.500348 -4.4051538 3.516808 0.6476045 5.060231 4.2498984 -2.0635555 -1.6006742 -3.4550254 0.45895624 1.4636068 1.5501138 2.2924306 1.0044299 -2.3743274 -3.7353752 5.0281954 -4.268172 -2.9533684 0.77422816 6.000502 1.5390108 -3.1483922 0.33135158 -5.54646 -0.6881685 1.0781015 5.152037 0.86837757 -3.4158926 -0.29465306 -2.0622437 -0.15753384 -6.976177 -0.75677085 1.4483613 2.2787683 -0.2950207 -1.9509546 0.8446821 -0.31008208 -4.6912117 1.815687 0.79145557 1.220553
专 0.032712363 -5.3476214 2.1230037 -5.148706 2.4135096 -2.1115618 -2.2957742 3.2211006 5.0514946 6.786738 -4.8070536 -0.58618087 1.1167845 1.0380509 3.0176547 -0.055134296 0.36444587 -1.5877596 0.57744473 0.18644166 -0.45123303 -1.2740453 -3.8553634 -3.13081 9.507823 1.9953455 6.898238 -3.5376518 -5.408519 -2.5393932 -1.1419805 2.9340706 -3.1823258 4.8831663 3.0858655 1.5367229 -3.4433174 -0.68036324 -6.8686767 -2.576376 3.9782221 -3.0441854 2.76927 1.3728989 -0.7597345 3.185827 0.36520848 -3.3972533 -0.6477018 1.615971
答 2.2377481 6.055357 -0.909056 -2.27756 -0.14905183 -0.015645802 -4.2115693 0.48667386 2.683071 1.6085082 -3.517633 0.40152642 3.3691685 -0.09571703 -2.3491387 1.1027982 -0.09832243 0.85910773 7.093364 -6.319133 -2.558172 0.5673078 -2.049207 2.830515 -0.49011856 9.959208 -0.74811256 3.2643692 -5.257619 4.995969 0.02678867 -0.7146673 2.692493 -1.2528492 4.059937 -2.5462635 7.02333 4.1096673 1.9492886 2.882019 4.3738885 -1.6535581 2.814299 -1.4633377 2.8744032 1.1511465 1.1179628 -3.1715813 -3.0441973 -0.096237324
计 3.0045254 -3.0765703 -4.875052 2.3230236 0.5975501 -4.5922294 5.844662 -0.04123622 1.9071751 -0.6470204 -7.1748724 2.1623237 0.54746217 2.9020076 -4.4452257 -4.1073365 6.520929 4.8822885 4.066035 -0.45708954 1.972971 -1.7955922 -2.9577599 -4.843651 0.7080137 3.2262566 6.4223666 -1.3761644 -0.28469506 3.3432457 1.6302619 3.938763 -1.859316 0.53184366 -2.7967668 -3.8877158 0.49447086 3.4938323 -5.762884 -3.9899979 -6.8953166 -4.0788317 2.6830938 0.517711 2.5007374 0.3553167 0.38220984 -0.21234328 3.8100984 -2.1882958
成 -2.3795033 -9.005681 0.38089612 -1.9801425 1.8946855 -0.7471691 4.4410186 -0.9019248 -0.4037775 0.18769595 -3.0537584 6.576604 2.6189048 2.8041322 0.14248139 2.1131294 -0.13291915 -1.2929536 4.356228 3.4291656 7.564187 -3.9341767 -0.021634117 2.654413 5.5679917 -1.1135933 -7.8587055 -0.10127823 -2.5395935 -8.624289 -4.1147723 4.488083 0.51160175 -1.3659391 -0.13155532 -4.873466 1.2450651 -1.4462247 0.030539338 -3.8546124 2.2935677 1.295129 4.356422 -0.6371132 -1.24581 -1.6354389 1.7860739 -1.2767143 -0.01965152 1.8164729
告 4.498664 3.5768192 -0.05702758 1.237887 -4.5369916 -6.650834 -3.9431489 -1.6549339 4.0589075 1.731625 -3.3863044 0.12916876 0.6273233 -1.4383157 1.2081704 2.1792593 5.3611827 1.9729688 -2.3566647 -1.5449724 -4.10887 3.583913 -1.3728461 0.35056964 -0.7256023 -1.0737189 -4.7814484 -2.8611994 10.537606 3.2089107 -1.4129494 -2.5611653 -0.30522656 -0.7308008 -0.17698605 4.798813 1.3166375 -1.7212181 -8.706603 -4.0325108 -1.7293389 -1.1560584 -4.779164 4.941789 -1.8656077 0.151712 1.2293657 -2.3992305 -3.8398893 -7.666675
盲 -5.826062 1.7865188 -1.0572459 -1.7181926 -5.6801853 3.0681078 -4.314427 6.6234183 0.8653935 -0.60411334 2.422589 -0.01606227 -4.163084 -1.897281 -1.1987884 6.6385317 -5.578805 -5.7303267 -5.3407135 4.1166406 -2.8707674 4.278877 0.48932472 5.3914313 -1.5486345 6.631817 2.9032207 2.4621348 -0.850998 1.9303385 3.4040866 -1.4568499 2.6183128 -0.62845147 -0.5454029 -2.3098123 1.6396464 -3.5844307 -2.2291734 -2.4744482 4.659611 5.123636 -2.1621273 5.619042 -2.665951 1.520367 -1.8335965 2.2565405 -0.64876807 1.5145544
间 4.886122 4.935075 1.1600224 2.8768904 0.9746152 1.6027602 -3.0067177 3.9317715 0.67422163 2.901612 2.3026073 -1.3626006 -2.8071167 1.1859366 -0.25134814 1.5112118 0.04898056 1.4869176 -2.0499635 6.4213753 -3.1656878 3.5288992 -0.91600853 -0.4668585 -2.7873435 0.4220334 2.6041675 -1.8685977 -4.2769074 -7.4220257 1.5905641 -1.7362438 8.139487 0.89957464 0.5096888 2.613696 0.48722565 2.209534 -4.275877 -0.7896761 -0.3561911 2.6820638 -4.517774 -1.4239053 -0.8558489 -7.989611 -2.1243584 -2.0598502 2.9145508 2.6979847
辩 -1.4888133 0.5322463 -1.2763792 1.2901014 -0.6393065 6.099128 -0.73766667 -0.81354797 -0.41611424 -0.4166375 2.511255 3.5350986 5.2095556 -1.6493156 -0.844275 2.9222095 0.11852429 2.201936 6.8982325 -6.0502977 -3.3215704 -0.7221169 3.1857657 3.064776 -1.2133526 9.617757 -3.3457675 4.1375117 0.3939316 4.8878064 -1.4442433 1.2146095 3.2059937 -0.6239889 -1.1220754 1.5149102 3.5941236 5.484545 -3.096492 4.0684695 1.7007318 -1.1958745 1.6335431 3.3638568 3.4735928 1.1550994 4.322062 -4.333985 -7.015155 -1.4440001
报 -0.10887138 2.2747474 -1.5912224 -1.3762641 -1.0891906 -6.1160946 -3.1658673 0.5054951 -1.4356443 -0.8057385 0.39692247 2.9149466 -0.42770797 1.8238983 -2.0147831 -0.07301322 0.14886555 -0.86546683 -0.95389235 -0.12090912 -4.28265 3.3373392 -2.645359 -5.406674 5.246698 -0.20238344 -8.365756 0.013913335 6.7750244 -0.7482557 -1.5336901 -8.783927 3.6414163 0.057448275 3.3061335 -0.8454416 1.4916422 -3.5833845 -8.701758 0.4620834 -0.754503 -0.18579708 -4.8561854 -0.21582778 0.6304338 -3.2317677 -2.5965886 -4.082104 -9.04702 -7.0254025
术 -4.554246 3.3451931 -1.9057273 -4.08837 -1.9263779 0.31801617 1.6334229 3.822924 -2.4999642 -2.9277902 -1.5130308 4.9750123 -4.441957 -1.1409954 -2.597375 -2.2676384 4.1635475 -2.923796 3.638437 3.3690252 2.6173706 -7.2031207 -2.8349102 -2.5588677 1.4525044 -4.068978 -3.2201986 4.041615 -3.4204395 3.799562 2.1487093 -1.742192 -1.9748578 -0.075251855 -1.4237651 1.5586265 1.2897592 4.2668443 -0.847992 -2.2427046 5.478003 -1.1147586 1.6837584 -7.0876336 -2.139989 -1.903423 2.2161503 4.265914 1.5271461 2.992864
可 1.8164208 4.4087415 1.3488907 1.3972846 3.2402728 -2.5733664 0.4962328 2.2188048 -2.9273288 -1.0529878 -1.5676291 0.26240295 3.172388 1.7630146 0.6829629 4.2819386 -2.770878 -6.1352315 4.26663 0.32661435 2.8794274 -2.8309798 -3.96353 -5.445979 0.9927687 4.7491775 -5.266056 -7.9394836 -1.0134276 -2.3090692 -0.08911366 3.3047602 -2.6293097 -1.5233253 -0.46669197 2.7619152 1.7625984 -0.09914418 -0.5856237 -2.607089 -1.4047616 5.0884705 0.27094963 -5.025734 -2.3603854 0.49712175 5.3452034 -0.07720109 3.7216187 -3.8180997
究 1.4667145 -1.1352721 -4.4636326 0.19456938 -0.3320527 2.1794808 0.012340395 -1.7975106 1.4684124 -6.8265467 -4.8164015 -6.798778 3.7837923 -1.8043522 3.894626 -2.7751372 -5.0740714 -0.7269441 4.388318 -0.9615123 -0.4089919 0.7444771 -3.2799807 -5.961261 -5.9392605 2.502489 -3.2780333 -3.3043017 0.89912874 1.9771771 -4.454242 2.3469105 4.5681953 -1.0664954 4.1222324 4.4046216 5.9739017 1.957985 5.903384 2.0683415 -0.65482855 6.677154 -4.1861567 3.5666769 0.898528 -0.29210895 1.0143352 -1.6369437 -2.3987858 6.581426
查 2.8936276 -1.7981972 6.7004876 -3.4599984 -0.3306605 -1.4579804 -2.5686684 1.5108665 1.1494685 -3.9522169 -0.755652 1.6464053 4.8050666 8.060766 5.0606503 3.140923 4.325767 -3.5924 4.09647 -3.5845842 -0.10627064 -2.5755577 -0.009858016 -4.614632 -0.70491695 3.2872965 2.979626 -2.3018758 1.6213293 -1.0268134 6.3815427 1.1518021 1.0172373 -2.352771 -2.5804875 0.16449776 7.681351 -3.3568072 -4.386633 1.5653913 -2.843158 6.497447 -3.2222402 1.038509 2.0567017 -0.78370404 -1.5339953 0.62315035 2.8928783 -0.7773968
教 2.5053253 -6.262462 -2.3462617 1.9423577 -3.8907702 2.2703123 3.8647811 -1.9240475 3.1379523 -0.114028625 3.6852226 1.4347428 -1.0252076 4.960486 3.6034944 3.0242503 1.922257 -4.826113 -0.25523725 6.6192636 0.22045228 -0.19223368 0.4844101 -9.6261425 1.8746393 -0.7675996 3.1860054 3.1821983 0.6662685 1.6853759 -6.1597586 -2.9805806 -3.4889972 5.107951 1.842487 3.6580184 -2.3340085 7.2224965 1.8181276 0.24188814 3.8325357 -0.8220846 -0.058837872 4.432248 -3.7764418 3.0943396 -1.496272 4.3539014 -2.2726645 2.1276543
作 -0.63293976 1.8192085 4.6924853 0.7816616 0.26391664 0.5211902 -1.7875643 0.773851 -5.466066 -0.49651554 -4.4365544 -2.901787 -1.9445896 -5.1082873 -3.8691504 1.5773367 -0.6305794 -0.14917806 -3.7161868 1.8804951 0.87151825 1.5189837 -2.4544325 -3.0476623 -5.76366 0.40938622 -4.6160693 -0.2737244 2.076464 -3.371153 -0.42484248 2.0094037 5.042201 5.17692 -1.540984 -3.5103805 0.038373552 -3.1947157 6.474733 -7.000112 -1.8496007 2.562081 -1.2313596 -1.1901047 2.7324975 -0.47518885 4.5364604 0.08904448 0.12610997 1.3122205
硕 4.4502015 2.2879593 3.9138865 0.97120816 7.920015 -0.6043881 1.7809731 -0.4041291 -1.2037398 -1.9052848 -0.27555567 -0.6928351 -3.466117 2.603083 -0.19314122 -6.2800665 -4.5074253 -2.2445092 -0.5297106 0.7150787 -1.0858306 -8.29063 1.130097 -1.8916081 1.5814084 1.8499653 -1.51184 1.6069446 -3.7703962 0.57536817 3.8385668 2.8688433 -1.3180068 1.6555094 -2.1449049 4.0038176 -1.7442693 1.0590376 3.2759955 1.193294 -1.2476513 -3.4060714 -1.1195345 -4.065965 -1.9664721 -3.8787246 4.6826444 -1.6276127 3.6656237 -5.2867613
核 -0.27398935 -3.2632418 -0.81453377 -2.6069384 1.5800625 -1.1274765 -2.1758096 -2.2972555 -2.3862886 4.5819187 -0.5440183 0.46987063 -1.7966238 4.528245 -5.8577223 3.7560487 0.3093298 0.84896255 -7.0450664 -2.4762015 -5.649758 1.3499519 1.3057622 -6.4214787 -6.0148335 2.2686853 2.066502 -4.178147 -0.5155626 3.6010904 3.1733446 0.12334522 1.1364833 0.12851991 4.791171 6.3062816 2.1116822 -0.17055434 3.7055166 -3.4699783 -1.3373995 -0.34220928 -1.6662393 -4.3759685 -5.366254 -5.8357434 -0.43215272 -3.3105533 5.5147758 -2.3340974
问 2.7044315 -1.1226346 -3.0171041 -0.85582125 -0.052711178 -6.8690767 -3.6633546 -0.31187302 -5.638185 3.4088013 7.9139466 -4.3241134 0.6569032 -4.128201 0.4521674 2.5620213 -4.950585 0.7863317 0.026023824 2.6350112 -0.7832358 -7.2403865 -6.2867966 -0.93085176 -3.1854722 1.0472823 -0.51550627 6.1492195 0.14055568 -1.3617729 -1.6498477 3.2057917 -1.2980145 0.7208316 -0.41024277 4.7869887 5.126811 9.448866 0.89865816 2.571256 -5.788036 0.5774807 0.7772198 3.572087 -2.4258611 0.9032079 -1.7294012 -0.24027467 5.823779 -3.5945969
划 -0.34667066 1.9597692 -5.3543468 -0.1324815 0.055324133 3.6183486 5.389652 -5.530307 -1.7760643 -2.1668658 -5.929862 3.547414 3.0549722 -1.4745804 -8.979113 -2.9832196 8.324285 -0.29527387 5.773624 -0.72205186 3.5371711 -4.4357996 -2.0464256 0.5383638 -2.5456216 -4.4866714 1.1179643 -0.012431519 0.42150015 5.8641744 2.9996936 2.582937 -4.5119042 3.3800907 -3.4757848 5.3278766 2.6436682 1.0252136 -3.7806916 1.9025962 -1.5532866 4.739199 -0.62867105 0.5870886 -1.2273122 1.4752622 0.5190541 1.4186178 6.4075665 -5.040743
动 -7.249732 -3.2112782 -1.7061235 -0.15677398 -4.0529866 -1.1197233 -2.7946653 5.479063 -3.7083387 -3.2453544 -2.7037206 -1.0226938 -1.5018609 -0.10087474 0.15967107 -2.391703 6.922351 -1.8363445 3.0167754 -2.42853 -1.026026 1.5378218 -2.2654252 -0.9930921 3.878859 -5.043452 1.1792622 -5.336686 -4.3459187 -4.182085 -3.2419453 0.8296683 3.3102787 4.135954 0.089684166 -0.8460473 -0.027905228 4.9819064 4.235509 0.7678189 -0.7171578 2.233028 -5.976794 -5.3064117 -0.11257971 0.33833677 7.1061378 5.454744 1.0991814 7.465036
出 2.2303345 -2.0706942 -6.965247 2.8180492 0.65208733 3.955787 -3.005748 -2.1948757 -1.1541433 2.9068558 -0.29109585 -0.9478049 2.551126 -0.3737868 -5.756992 -1.17849 -1.6625124 -3.3765833 -0.72489125 -1.1575965 -4.3753138 4.066591 4.470109 1.3141181 1.1982621 1.0945059 -7.241832 2.0158029 -0.86774457 0.45409176 0.40957016 2.057544 2.8484914 -1.6544018 -6.267443 0.018247422 -0.20081247 -0.9256246 -0.7822903 -3.733903 -4.836656 3.3014758 1.8875477 -3.191717 -4.819574 3.300186 0.9930725 -4.671854 -6.2387204 1.0029039
实 0.5860323 -0.9136398 -0.6361925 -7.0852547 -1.1665314 -1.752055 3.2201881 -1.956734 3.7753763 3.376491 -6.1156473 0.11844979 1.0061752 1.331072 -0.25507557 -6.514792 -2.2510455 0.4568235 -1.0315044 0.58315504 -1.836646 6.8253284 -0.96104103 -2.2292542 1.1178586 -6.152877 -1.5162481 3.6218193 -2.585354 -6.927433 4.953801 -2.6949208 0.36435574 2.2943273 8.888736 -1.794338 0.32940587 -1.4035606 3.5281138 4.872416 5.4041505 -1.2606126 3.9455981 -5.2094874 -2.141557 2.8575919 -5.1572256 4.148421 -8.012393 -1.4127471
外 0.72102886 1.049729 2.5942209 1.642002 -0.9302125 2.2327242 -1.3431195 0.07747836 5.1582212 -3.4984543 -4.5825887 2.945796 -3.1692283 1.3576536 -6.5483365 2.232497 0.32760102 -5.6355524 0.67095226 2.011993 8.305797 2.2393115 -1.5265824 -0.81282294 -1.8328539 -5.4017105 -5.93518 2.90813 -6.7398934 2.5855746 6.898091 5.638023 4.9882984 1.4524302 0.09440779 -0.90752876 -0.17317234 -3.8312078 -2.7420464 -4.050358 -0.2914199 3.219283 2.0277283 -4.1109014 0.57345945 -2.8347268 -1.0141953 -0.5653323 -0.5270844 -0.046331875
项 2.625333 -5.9974427 -0.83267134 -0.16810998 5.4406724 -0.92952055 -1.7707876 -2.0190957 -0.26492128 -0.52878654 2.061247 -2.076447 1.0415264 -6.901418 -0.803117 -0.9815125 -6.5901027 -3.0391545 2.787233 1.8020413 -0.7676337 -3.6322913 3.450935 -0.35076255 -3.0500858 -5.1194944 4.15217 0.93357086 0.9667629 1.1309341 0.40553185 -1.3358232 -6.1353197 0.5042764 -1.7622021 -2.1840172 -0.9154898 -3.7175672 -3.1436064 -2.9015923 9.709575 2.1079984 -2.1495051 -0.18991992 -1.8725139 -2.6209407 -2.6594133 -3.9555058 -2.8046439 -0.4881999
绩 1.8407729 -7.240269 3.0704343 -1.1414723 3.1505468 1.2983539 0.97509456 2.700061 -4.728682 2.8672934 -0.9027663 -2.304283 1.3529682 3.9540808 3.183558 -5.028762 4.714982 -7.001991 1.0981369 1.7250696 4.39159 -6.58051 -2.1580083 3.4466307 2.4573126 -1.2575597 -6.8325443 4.0366344 -5.9338694 -4.9307446 -3.2851603 -1.7102618 -7.0376987 5.292456 -2.59958 -2.7735481 -1.687646 -8.746563 -1.0148484 0.1547484 -3.7343822 0.8329711 2.8175213 -3.123326 2.158723 0.79610777 -0.5437192 6.776206 -2.4324613 -0.6577967
料 -3.9936168 3.3023326 0.30203888 6.718622 3.5389147 1.5007292 -3.5438614 7.3338437 3.3087697 0.1687363 3.3442981 -1.7764478 1.3883607 0.4653943 5.7511773 -3.7606952 -1.0660527 3.0723267 -1.6519347 -1.6543944 -3.27486 0.8685926 -2.5260355 -1.1556872 -5.1642323 -1.5453361 -3.222336 2.9486723 -7.0898876 3.481125 -5.991971 -3.4039524 0.85795105 -2.9165862 1.8120341 -2.0374315 2.8345385 2.2828584 1.0152774 -2.0720758 0.4833121 2.0036418 0.8819287 5.8402967 -0.08910708 -3.633416 6.275339 -2.4289105 -6.0974298 -1.21848
材 -3.8273377 0.31047124 -2.064993 7.363413 -1.6630632 0.3191032 -2.7755897 6.41314 1.5446428 -3.2845516 0.714526 -4.9558725 -3.1691272 0.6379143 3.8939261 -4.8491344 -0.7089192 -0.88073474 -0.77365184 -3.1882086 -1.6034527 -3.3868244 -2.0032392 2.294277 -1.1046101 3.0052958 -2.6302032 -3.2595317 -8.895339 -2.2246256 -0.04881498 1.5294319 3.4942772 -4.615421 -1.1500894 -2.245892 5.5287285 1.6198019 -0.27023467 2.7510822 -1.7054654 -5.2528963 1.9324832 5.179742 -0.619616 -1.2014273 4.0104213 1.6760085 -7.752433 3.1188207
改 -2.2297084 5.5415864 1.2143852 2.0110424 -3.889484 -1.3744777 -7.3046703 -0.13232961 1.621408 2.1408677 4.692931 1.4403944 1.7041488 -4.797424 -3.997174 -0.47180524 0.520026 -3.429995 4.344175 0.24072815 2.9987018 -1.5424548 3.3636072 4.592419 4.855849 2.5164437 -2.831633 -0.9332042 -4.7517805 1.8883318 0.16318817 4.1893086 -1.8507011 -5.5419507 -0.3065012 1.1230953 1.9261194 -0.33307874 2.6902432 -10.393555 -2.7522566 6.8098702 1.5598499 0.5333698 1.8567345 4.19542 0.5647088 4.7274065 -4.099566 -2.97526
科 -0.7715959 0.31878054 0.78101504 -0.2926672 5.198284 -2.5104141 -1.4168108 -4.47671 4.657398 -3.2239027 1.188077 -0.54666567 4.7607255 -1.7308971 2.2447438 1.354388 4.09338 1.4585801 0.39148068 -0.86221874 -4.624234 -3.6040761 3.9536695 -9.284352 -1.6805439 -0.3491512 -0.4214942 0.83115274 5.833095 7.96445 3.6077666 3.3255599 3.9901168 -2.1110435 3.0686958 2.9115732 -1.1184559 -4.3004436 5.228708 -3.6876123 6.193895 -4.43646 3.4042947 0.29227814 -2.16199 -0.26589853 0.6701549 7.359476 -0.536878 3.879539
开 3.1302063 0.89324605 5.945442 -0.5902904 2.4494774 1.4964356 -5.8770623 2.0560484 -3.919112 7.037372 2.5149927 5.465205 0.29462042 -1.3716164 3.5048208 -1.3455875 1.9185195 -0.34869805 4.9698687 2.7256799 2.4329228 2.8340766 -0.15195636 0.9338186 4.107398 3.4904761 -5.18099 -7.0387363 -0.52946955 0.24754053 -0.8794287 -2.213255 3.5313656 -1.2045164 -1.939569 4.271513 0.09339524 5.56029 6.966435 3.7348669 -2.9390163 1.3996603 -6.7628937 -3.4027014 2.9836867 -3.1513758 1.6934872 5.3303275 5.6238794 0.22674945
活 0.29985496 -3.0189526 -6.8170657 -7.737881 -3.9207685 -2.25346 2.3184137 1.953232 1.3383876 -2.7510931 -0.8388229 7.726748 -6.6796722 -1.1653291 -0.9533069 2.3612354 6.5757456 -3.1401036 3.9012008 -5.417816 -2.7056513 -4.921829 2.4148622 -6.2939997 -0.48737565 -8.223236 -3.5947802 -2.1425405 2.5634544 -5.8095226 1.7607002 -6.2714524 -2.341962 4.3012238 -0.48424223 -1.3287317 3.1191678 4.352957 -0.9300368 -0.9789861 0.40584886 5.4232206 -3.6266127 -8.249507 4.7102427 2.2779653 1.0865598 2.2903671 -2.163926 -0.617348
践 -2.025082 -4.978424 -0.7465122 -2.5684543 5.3048997 -4.0012755 -0.45037833 -2.5804138 7.0607977 2.6699965 -6.352127 -0.24039091 -0.90595895 -0.781177 1.4307784 1.509338 0.10498912 -8.246656 -1.7688996 0.07083681 2.896093 4.1975946 3.1226752 0.08372145 3.588754 -0.16160768 2.2868607 1.7254707 -0.35407326 -7.180932 8.628045 2.2638028 -1.9666158 1.258748 3.7956893 3.347538 1.9903933 -1.0109988 0.9399816 8.999978 1.017224 2.4791398 1.6923895 -2.9092364 0.47651333 -2.9814644 -6.498781 9.361291 0.8364353 3.5594285
里 1.8571885 3.0432942 3.7044134 2.9119892 -2.6834013 -0.46671984 2.212101 0.36080378 -5.2729692 0.30721653 -3.1710286 -1.5463067 -3.6358235 4.787605 -4.262276 1.1478266 -1.9505261 -2.6950667 4.8298984 1.9823098 1.1073786 -7.8328834 -4.245227 4.280284 3.7497888 -1.9477404 5.5354586 -0.31368136 -0.62264276 -1.637606 1.8500173 4.216127 -3.0518308 0.5965796 0.6875626 4.8986454 -1.319558 2.797505 4.3904614 2.4939327 -6.1335697 -0.15389474 6.792555 0.35906878 7.844165 -2.7773905 -0.9255306 0.57636046 -0.85853934 -7.8675513
送 -4.2347517 3.1246576 3.2771347 -0.19734906 1.4903066 1.7744579 -2.5316498 6.211443 -0.2848443 4.033783 1.8103154 -2.922721 -5.755248 1.0515782 -1.2757891 0.17721748 4.8670893 -3.9017234 -0.5093408 -2.2021182 -4.5788345 0.25665292 0.34104872 -0.5027088 -4.534566 0.4448178 0.6565548 3.6869562 -3.3458025 2.1187084 1.2045773 2.2627394 6.4100165 -0.98915285 1.874649 3.3861248 5.454655 -3.7375991 1.3874784 4.446287 3.7768214 4.877357 -2.5028226 -0.40388274 -10.163024 3.8336127 -2.4762242 -2.6945395 5.9388247 1.0922447
通 1.2844005 -1.4851127 0.869635 -0.009773068 -1.2833594 -5.7370715 -7.421726 4.30921 0.18564592 2.4456897 -2.0706737 1.840614 -1.3660483 3.5182104 -4.119288 -3.588312 -1.4683459 2.272893 1.5235695 3.0303576 2.6085377 3.3936572 2.7234004 -5.725917 -4.3847446 -2.584748 0.01452126 -0.9612587 -0.41275993 0.035757616 -6.1734214 -3.4979956 4.4347925 -0.8629221 1.1227994 10.540984 -3.8665054 -2.2506363 0.15407336 2.6108885 -2.8134787 4.221892 8.200447 1.2175469 1.1957722 4.9857965 -0.20498091 -3.5274196 -3.5825686 3.3496213
操 -4.890505 0.8978617 3.253304 0.18105693 0.66064084 -4.057432 2.8419251 2.3970475 5.8019915 2.487992 3.606173 2.4944913 -1.4573145 -6.6879764 -9.634655 1.2290517 0.8770036 -5.696128 -4.135285 5.564511 2.585318 -1.9085565 -3.4755344 -1.1709496 -7.422229 3.259796 -1.1926249 -3.6745896 -2.7326515 0.17898358 1.1421274 2.907516 3.3018827 4.143088 -8.50668 3.310735 -5.5887084 0.6794829 -1.7201092 -4.5833836 1.1891791 1.3925987 -6.816666 -2.7105 -3.3315828 8.62234 3.0867064 -6.330977 2.655932 2.665052
大 -6.519335 0.8618071 -0.65400726 -1.3045721 -9.31016 1.412213 5.4046946 -2.1427908 2.0221941 -7.042656 9.544878 2.3037958 4.2267475 1.2461885 1.6916062 -3.6322105 -3.4150138 -0.62697196 1.9018908 5.175774 1.0875738 1.880742 -7.1362896 -2.274486 -4.1963468 3.1692524 4.155038 -0.6590315 -1.5503443 -0.88922626 0.33318937 1.8950154 1.6257108 0.09408009 4.7343287 1.4884309 3.1841183 -4.7653484 -0.764866 -4.680211 -2.9742832 -3.9238138 -0.077078566 -0.38454938 7.025179 -2.9427216 -5.2418013 4.756465 5.5268664 0.9199771
字 2.1234295 3.3441699 -1.1812356 0.65208536 2.845954 -0.1284953 -0.36213332 -2.682345 1.0805432 -5.5806947 6.7693796 -1.5574251 -0.43470058 -6.360111 -2.951039 7.321486 0.108359806 -0.35914648 -0.35656893 -2.7466497 -7.5430946 4.2626324 -4.9457765 -0.28857931 -1.126559 -5.362463 -3.6725187 -11.598293 0.73541176 0.20245387 -1.2161071 -2.7822218 -0.047473036 -0.22227207 -3.8810322 -5.267483 5.707331 -3.714848 -1.7568069 -0.011556009 3.0039759 1.8177321 -5.828755 -5.196123 -2.164233 -0.509145 2.9452116 4.4011097 -0.14509904 -2.906452
单 1.3604016 1.3964056 -5.2062902 -2.9832432 1.0491053 4.174877 0.48644578 -2.61142 4.7578526 0.1629132 3.8061652 -2.009423 -0.38842535 -4.1860323 5.894385 11.476594 6.8390517 8.050496 -4.365472 -4.558691 -1.2160311 -5.540917 -2.3634524 7.7827873 3.4598565 4.296199 -1.7216727 -0.67327166 0.51274973 1.8873168 -3.6320531 -0.34575176 1.7972 -3.885579 3.3679519 3.3185985 7.1083117 -2.6391573 -0.4828105 -2.5775251 -3.1374655 2.8870027 1.4411917 -0.0893115 0.8032032 -3.0627615 -6.8610735 7.089626 1.1500722 2.3439949
到 -2.3790212 0.20315586 -6.4790726 -3.330736 1.6483779 -4.4444375 5.311784 1.7263241 -1.4105128 -3.2389727 6.53925 -4.526975 -4.449882 -5.6198707 0.29659098 -2.884764 3.7751553 -0.14691268 3.8007474 5.636964 3.1971488 -1.0213003 1.5838768 -2.550347 1.0298284 -3.982697 3.3212197 -3.289755 -0.75486887 -3.007143 0.35752743 -3.5670168 6.4844923 -10.334159 3.8765316 -0.9973928 0.117608175 8.978277 0.23482843 -4.633164 -1.2752106 4.3088255 2.2995799 0.07877213 0.462999 3.1953437 5.1759005 -1.5748036 -2.9216936 1.8092617
不 -2.2592907 1.7947406 9.387341 -9.092696 -0.71421844 -3.633967 4.047066 -4.6005826 -4.816943 -3.160298 -1.864932 1.3678176 -0.020233475 1.139495 4.5912724 0.81285954 2.6079366 8.446914 1.3856399 -0.49677637 -1.9866985 2.0487509 2.9192526 -3.7435853 -5.732455 -0.5676695 -5.074999 -3.2177413 -4.6833606 -4.048681 -0.59900004 4.447727 -7.949984 3.422831 -4.1214304 -6.4910336 -3.0324824 -0.24958624 1.5125583 6.038874 -5.2054787 -0.79319316 0.6445663 1.3198793 -3.9757953 -1.5325948 2.5611587 -3.974627 -0.87591034 -2.4326603
内 3.5923846 -7.745156 -3.432121 2.9278796 -0.8148618 -0.8668675 -6.1388173 -5.333676 0.5935575 -0.49209636 -3.7513456 -0.8706296 2.4427285 3.1100817 -0.7609398 5.6065817 -7.42039 -1.2971951 -9.098662 4.7075686 -0.3286059 -3.2835093 5.51749 -0.33270636 8.400729 2.6754708 -1.9173104 -6.0368476 -4.1814566 3.1363833 7.613992 -1.2277097 -1.9218053 0.77998394 0.50971866 3.9065049 0.22648081 -7.854446 0.7045089 -6.870993 -7.922019 3.9543633 -6.940413 -3.5449312 -1.8847588 -6.5183363 -3.2542925 0.75377667 2.2444243 5.726196
未 -10.67448 -3.5654492 4.700829 -1.2035716 -0.03705275 -1.5775042 -4.325611 4.517682 4.893351 -6.4066434 1.4948138 2.9141648 1.0343993 2.6089404 -2.851059 -3.9076538 0.38102314 -0.35496366 1.4512675 3.822582 -2.7660348 4.7464757 -6.2302675 -1.670323 -1.0410119 2.4195912 -4.28749 -3.4548821 5.1758776 0.7141107 0.17535804 4.2815166 1.8501704 5.0058227 0.20127651 -1.2114207 2.1763127 1.3040466 2.90139 -5.270412 1.0411006 4.6250906 0.3696539 3.2929106 -2.2534025 -0.79347885 1.0128182 -1.2734957 4.6699276 -6.4673758
题 -0.9241744 2.054476 5.832882 -0.45544714 0.34324065 -4.2733216 -0.06431658 -1.5311962 -4.451497 6.456986 -2.3451421 1.0003808 -4.3248816 -3.0711176 5.6319637 -1.5478249 -1.2836486 1.8454181 5.174446 4.787634 4.6053276 8.115163 1.2490122 1.595936 -1.6529989 7.354531 -2.6581862 5.39034 -2.384725 8.32232 -1.3538941 -1.8090953 4.8972487 -0.0210798 -2.8493302 -4.8002143 0.403597 5.3842287 -2.5044124 -3.0719604 -0.32179892 -0.94296587 -5.0055056 2.6075602 -2.2161748 1.1945575 -0.86923313 -10.294064 3.1529665 8.225045
质 -2.1836536 4.7090745 -2.1708508 1.4427749 -0.6814096 1.3035543 -2.1648011 -6.3447857 -4.9871163 -4.4874983 -1.5487123 -3.6750188 -3.1281312 -3.5726655 3.3735993 -5.3229403 8.058818 -7.925658 -2.0739198 -2.5419965 1.0151817 8.755088 2.7922251 3.42813 -3.0084727 6.5151954 -3.2218685 -3.9349148 0.74569273 1.6541411 -6.1122227 -6.3840604 -4.058084 -0.3628099 0.7017027 0.8690326 -3.5939634 -0.9765935 -2.7001042 5.013275 3.7050056 3.91364 2.2779863 -2.361954 1.460122 -2.0356367 5.3093452 -0.6634841 -3.402371 -4.0636196
名 6.7996454 1.5196182 6.456779 3.9942153 1.8707495 2.845864 -2.9750328 -1.6963049 3.0951548 -5.488425 1.4495927 -2.4491105 0.003186914 4.993854 3.3548918 -4.3831644 4.3502855 -1.6160429 5.648088 2.0495548 7.0729103 0.84810823 -0.30779257 3.438505 3.6024482 3.4410405 -2.8619988 5.6804085 -8.208378 1.1997168 -0.7431662 -4.0722365 -5.1849275 2.8801937 4.0021625 7.5529485 1.8031166 -0.086764045 1.187005 4.7490764 -10.301184 -5.51144 0.37929648 -5.513153 7.8672614 3.229491 3.4660347 5.102308 4.629152 -0.726561
记 -2.6365244 -4.5052686 -0.6432357 -5.74334 3.6292667 -4.681553 -3.7794917 -1.1631254 2.9940104 6.534429 3.7131798 -2.2857955 -0.6554327 1.933152 0.33214805 -0.16670187 -6.943446 -1.2046947 -7.773621 5.860012 2.6488256 0.19838789 4.7317476 -7.6148763 1.5448043 -4.5824666 3.835251 11.352706 -3.122635 -0.52271336 -1.5948738 -5.7977657 -2.4735613 -3.5708854 -0.8947664 -6.5178347 6.3644686 3.2878659 3.9119608 -3.8165636 1.5800096 2.3662689 -5.3371563 -6.894616 -3.8957267 -0.4375099 -2.5752225 6.0951204 -0.29539338 4.8925805
上 -3.6948206 5.0337014 -0.4239616 -1.024827 -0.55360526 0.5699835 2.895312 3.2555106 -1.1944869 -0.42242205 -4.094546 2.4100919 1.9704885 -2.0983489 -2.23989 -2.7098181 1.585409 -0.16682447 -5.012091 7.4981456 -1.8658131 2.0516462 4.4659233 7.7878065 -11.201517 -0.084623374 -2.7003844 -2.6007059 2.4945726 0.75727373 2.8046505 -2.0580795 -5.2202044 0.43496758 2.6393342 1.9463243 0.02010035 -0.22662611 -1.2754158 -2.6641245 -2.6002076 4.9583883 7.1030254 -9.078111 5.3334227 -7.6479936 0.056422938 -2.3240418 -5.136637 -0.39427158
签 -0.53890723 2.5882862 0.18091132 -1.5013491 0.19559965 -5.021056 2.1882324 -3.9672968 2.0417812 0.94604987 1.9154623 -9.993532 1.5861214 -0.74961007 -1.0108986 1.3880596 1.2350894 3.7897286 1.8875599 0.29533765 -9.104732 7.3523316 -11.605578 -5.7863374 4.956439 0.8599067 0.71673703 0.899953 4.5612445 0.17314024 2.8351562 -0.5218751 -4.2311034 -1.4369918 -1.8073506 -0.7610864 -1.886887 -1.1395309 -2.4690785 -5.9256244 1.9286993 -3.7717814 7.077988 -6.291858 -1.4974058 1.7809526 6.6671877 -2.8629131 -4.541433 -0.49047482
情 2.2972581 3.9930668 -2.047296 3.1540055 -6.491696 -5.995227 1.6571287 3.655374 -2.48526 -2.0268755 3.93099 -0.512665 -4.269175 -0.42252746 -1.1348127 -8.38186 -5.2278037 -2.9964404 4.1994967 0.45741883 1.7420721 -0.009883874 3.3340087 -5.6898503 -1.4871758 -1.2039207 3.8909793 6.0374355 -0.37083286 1.8232759 1.956052 4.054849 -3.2622313 -8.6255 -3.3706582 -0.9969963 -4.7273517 5.27126 -9.850591 3.8265994 -4.549578 3.6397064 1.4519985 -4.9114985 -1.7829494 10.614961 0.25732526 -2.6243117 -2.0278957 -3.650955
登 2.8949378 -6.6997795 -2.9708986 1.9145622 3.6305172 -7.465893 4.154323 2.3483527 -0.6675362 3.3077633 3.5385585 4.110712 -0.7917924 -7.8268394 -4.1232905 -2.4170809 -1.5960435 1.7233875 -5.841573 2.9108346 0.33211002 -4.2735815 1.0716778 -1.472731 3.711944 -5.413845 4.8760247 4.863957 1.2963383 0.26496935 1.4837424 -2.165121 1.9615998 0.41207385 0.26030716 -10.546114 -3.3590353 4.128912 2.9024324 -0.4984826 4.802737 -2.4783418 -4.995508 -0.3690075 -0.84902203 -0.48667878 -5.670941 14.144212 -5.066957 3.2386997
同 0.3344025 -2.4596884 -3.9837823 0.3721584 5.542075 4.9412746 -1.1410823 5.6375647 6.4823327 4.927743 6.678909 -2.719873 -4.059265 -0.6003876 4.594965 -1.9438009 -6.515261 -1.7212248 6.27627 -3.1571212 -5.490426 -0.03891924 -1.5271037 2.5298119 0.4940337 3.7864273 -8.228797 -1.365666 0.9970824 2.7098129 -4.3754354 5.3855104 -4.440504 -1.9806423 -6.8201632 -3.2851617 -9.359166 -1.2034545 2.8580914 -2.656246 5.435369 1.1724578 -1.0200144 -4.225716 2.0569074 -1.3273153 4.713471 8.27165 -5.240672 2.811134
见 -0.8684191 3.5749102 0.5198168 0.46165687 1.5487512 -2.7593882 -0.32495257 -5.485432 1.8572202 2.6495762 -0.8424297 1.4924612 5.818708 2.752312 1.3114257 1.931938 0.5777916 5.6187634 -2.5107732 -9.931318 -5.969423 1.5754703 -2.688056 -0.3869375 -5.141047 -5.9800463 1.7120653 -4.179478 9.342144 -5.6414733 0.7805765 -1.4148127 6.192499 -1.7799462 -6.0859365 -3.1369545 3.2156618 3.368051 -8.37109 -0.44024298 4.693232 -0.13823494 1.6898757 -2.3346486 3.0045178 -0.20162652 0.6478803 -1.5845952 -3.7100947 2.3991845
年 2.7982328 1.3111619 1.3754557 4.5560775 0.34411398 2.55329 2.0530565 -1.4794699 3.31477 6.7101893 -0.33298674 -7.7789564 -4.0511575 5.3707623 -3.602555 -4.959273 3.8312793 -7.535457 4.1707196 -0.5772632 5.116789 -10.902044 -1.0554377 -0.9658191 -4.0086155 -4.0409436 -4.264165 0.3833927 -0.117197044 1.0827792 0.10096463 -4.309077 -0.12000239 1.7879659 -3.2433965 -2.0370839 1.2732065 0.78808796 -1.8612646 1.47147 1.4287543 -1.4332155 -1.105264 -8.17322 1.731215 9.930151 1.8156923 0.97212416 3.1868446 -7.5422955
位 -6.7928176 -4.455019 1.9584063 -2.1804273 -0.4899931 1.9546025 7.0239162 -1.989234 2.9046676 -1.6733916 2.8751197 4.2559123 -1.4085602 -5.180004 2.4726849 1.2012032 -6.3959875 -6.80663 5.940247 -3.952622 -2.300403 -2.5364597 0.17812613 -2.0312364 0.57993865 1.2882473 -4.60575 8.036383 -0.10599726 -0.17236382 -5.9481635 -1.4135231 -3.8621995 -3.8277023 -0.4128097 9.695954 1.8580625 -4.4593697 -4.593386 0.7599996 1.8284905 -6.393785 3.6889606 5.79991 -4.7636867 -4.2613015 -0.081348136 0.41450086 8.362706 0.7145042
写 -4.0885262 -4.9119344 0.40339157 1.1371568 1.7703841 -0.7789707 -3.1946578 -0.584206 -3.9866846 -2.7255466 5.602207 -2.043711 7.0383835 -4.3858137 1.8044527 2.822345 -5.677012 0.8641918 5.206863 5.5943704 -0.9688572 -0.9568287 -0.17666586 6.370672 2.676443 2.4155228 -2.7311735 -3.7820935 -3.5742264 -1.0160782 1.2424314 -2.2350242 -6.2960234 5.077235 7.8413076 -5.283101 1.9798986 3.807548 -0.9296049 0.9722314 1.2021582 -2.81727 2.6973717 3.4829829 0.58699244 -0.42505553 -2.4879808 1.6830895 -0.69988275 -0.021354362
门 4.530792 -0.58412075 -4.381901 -5.969971 8.10182 -5.8991885 3.1559708 1.0182191 3.885798 7.095704 2.2968056 1.5158691 1.4831321 4.9643335 -1.1333188 -1.6281132 -3.853382 1.5103873 3.7581346 5.102643 5.830236 1.7468716 0.40416312 3.6222289 1.7522086 -5.574179 0.96322507 0.42727247 0.51564556 -6.647963 0.030692915 -3.4661663 -6.538559 0.16940267 0.33273658 0.78591835 -0.8344172 3.7564416 2.4430594 6.696863 -1.5847225 4.7826085 -6.8986125 -1.3952097 -4.1046696 9.933455 -5.3555126 3.7789173 0.17009318 1.9105803
况 2.3870745 6.3442073 -1.8204174 -1.598302 -9.406919 2.9044595 1.4111295 1.96596 1.580486 1.7431755 3.6611853 -4.159237 -3.6439242 4.278782 7.509944 -0.72052747 -1.0725852 -2.6262867 3.0119758 3.436326 -0.461813 -0.83432513 -0.17072217 -4.8678913 2.5946307 -5.535255 6.5676293 -7.1952963 -4.279104 4.881256 5.2070675 -3.310096 -8.562146 -1.2274352 3.274627 -0.030609528 -1.0896974 5.1987224 1.9572302 0.36461717 3.585957 5.172875 4.313418 -0.8735464 0.9424553 6.114215 6.5924854 6.4739013 -3.6910486 -8.725903
关 -6.375118 4.963481 10.311764 3.571952 -2.0000992 -2.4713523 -1.7538471 0.43010044 2.1365883 8.627652 -2.3214607 -4.1712613 2.5024714 -3.8336654 7.6386437 -6.307283 0.012518928 3.6813033 -3.7221172 -5.7664204 -0.053881653 -6.7001033 -0.9195576 7.551556 6.969538 -5.4984384 -2.6872103 -1.2889212 1.9850171 -3.0533512 -5.709415 2.8030035 -3.047881 3.747643 -0.9725319 1.4869744 -0.24685507 -7.0939326 3.590966 -2.5922468 3.496533 0.11960084 -4.384106 1.5882174 -7.634852 -7.6404595 3.6245549 4.395802 13.710885 7.5068464
入 -7.7607203 -0.5097451 -5.3743653 1.7145246 3.1410675 -3.8147368 -2.9197888 3.1279166 -8.866341 -0.5997477 6.009537 4.2177014 -4.059458 -3.408529 3.104436 -1.492645 1.7668073 -1.1989951 -2.2533152 8.586316 -1.7739513 1.0374235 0.41296616 -0.7426487 -9.467759 -7.7016726 8.840478 -0.18833086 1.6262071 0.42388514 5.299056 -4.5789304 -1.4070178 -8.866641 -1.624094 -10.31342 -2.4188354 -1.0221237 3.5766177 -1.4681499 1.3912927 1.8924876 -3.593403 0.77445865 4.3970857 -0.16794084 -1.0614922 1.3096673 10.914861 -3.0921357
知 3.3764262 -3.5033252 0.5651497 -1.1785926 0.7789558 7.1517453 3.9514425 -9.479604 -0.034655392 6.8900237 2.842778 2.6220875 4.096037 -6.038621 -8.635063 -4.1275077 -0.39130536 -4.727743 -1.9115741 -1.6635193 5.8593545 2.6308804 2.1485198 -9.88167 -4.9933043 4.857032 -2.067732 -7.0490694 2.4588368 -2.1660178 -5.206076 -7.4935966 7.8425884 -5.2905664 -1.8792559 6.0225163 2.6270459 -1.1422877 -4.550684 1.4659997 2.617732 0.021557676 1.8929892 8.041629 -0.5693612 2.607191 -3.1406274 1.2482946 -1.5536245 -3.587205
信 -7.258884 -4.083795 -0.67290515 2.7332947 1.6110231 0.5408587 4.0937214 0.59189105 -1.0424422 3.3958595 -1.5278444 -1.3808415 2.7725973 -3.2351596 -0.8383372 0.35200387 -7.4969234 -6.2308207 -0.40624455 -2.506327 -5.0869937 1.8273662 -5.134443 2.0024974 -0.6649587 -10.568748 2.671644 -3.2715309 5.3561316 3.8648279 -2.1307983 5.1238165 1.8893486 -6.100597 5.672968 -5.4481316 -5.323481 7.0303655 0.31371257 -1.2744726 -8.644713 -4.514436 -8.10573 6.8322825 2.4225025 0.51939005 -6.4468093 2.9014938 3.8210294 -5.779318
相 0.40463993 4.3543625 4.184384 -1.3932338 1.2768734 1.9506596 -9.091003 3.585816 3.4293182 3.2436512 -6.8530107 1.6184078 2.3653715 -6.004321 -1.7604202 0.35581326 -12.4326 7.4992304 -4.114227 -1.9603741 6.358564 -10.144748 1.9303156 2.759106 5.4686847 0.90746796 -0.90898424 4.6763487 -6.4260297 -6.5062222 2.085287 -1.2438415 1.0823865 -8.29263 -2.7005537 -0.56829405 -2.3532212 3.2762716 -4.8387794 -3.6134744 8.536553 -5.8688397 -0.3935491 1.4211813 0.17271228 -10.189865 5.0507407 0.8593375 -5.8361816 -1.2721663
评 0.5210311 -3.8600307 -4.3912063 -5.9151545 6.7830215 4.568218 -0.41336802 6.58136 10.374658 -0.8824328 -0.63578033 3.9865189 -1.1861264 3.6502342 2.0197217 1.9666525 0.68518054 -5.7922826 -3.838384 -1.1279076 3.6989987 2.011601 0.5773663 7.490304 -2.118805 0.7628691 -1.5234678 6.365322 -6.749847 2.661829 3.6386814 3.0448124 1.991629 -4.007476 -6.4328218 -0.27076888 1.5497196 -2.7913759 -4.447495 0.3158466 2.6636791 -5.134824 0.093521774 4.976651 -9.652768 0.9366875 -1.7296038 -0.012340692 -2.7999759 -1.8234327
纸 -0.034192555 6.5116997 -4.5350657 0.33154312 -6.0720744 -1.4292774 1.4923903 3.3547645 0.04584344 4.07159 0.21575327 1.5063394 -6.927495 -4.5796857 2.5892608 -2.188699 1.3688325 -2.4459972 -8.874764 1.1871642 3.4409633 4.7028804 1.2744462 -0.74183935 0.5294152 3.833659 -2.5158868 -10.625041 0.28739947 1.3221775 0.26017922 -1.083411 -1.6214236 -4.7106905 1.2531031 -4.567697 -1.1791015 -2.084842 -5.748147 5.0997353 -4.018181 0.77581084 5.289895 -7.999396 4.396762 9.277179 5.220726 -2.284398 -2.9435728 -1.1903315
申 0.5679515 -4.2981186 -0.03873389 4.1124206 -1.3771936 -5.4226747 -9.917171 -2.4942234 0.4439492 1.2677271 4.5692 1.8287853 0.9557059 -1.4272791 3.4292598 -4.6891747 5.870006 2.5810795 3.6752498 -0.4297299 -9.969214 -3.074092 -1.7909634 1.4784042 4.253239 5.341607 -7.4884906 3.5496922 -10.752703 7.403644 2.664219 -0.31248102 -5.4966516 -1.0624844 3.429878 -2.4861128 3.965628 5.0774174 -3.5597012 3.8290687 2.2137656 2.339469 0.5935469 -0.29132593 3.6125083 0.8634683 4.2396235 1.1725699 -4.74901 -0.3872288
定 0.2145146 3.9528127 -6.143713 -0.635625 1.2822412 -6.3207746 2.4274397 -4.0593934 -5.4544625 13.0101595 2.4720092 5.2234917 6.887075 1.4915137 -2.5561826 4.1022115 -3.3579626 -5.226312 -3.911075 12.289907 -1.8849087 0.7166943 1.212144 -4.3519125 0.8900392 -4.698244 3.2048657 -0.83246356 -0.3279071 -0.57337296 -1.3396364 1.0514082 -5.858392 -3.3184016 -1.7082946 -6.020303 0.13621481 -0.07705671 5.7994447 -1.5089757 -3.84479 -0.001582159 3.3599508 -2.7226357 0.9149606 3.3717303 -0.8523844 4.6554155 0.41212732 -5.175821
刊 -6.4168043 4.4075933 12.163425 -0.433219 2.8821723 2.1761124 -1.446652 2.249678 5.5535555 8.386682 1.022532 -0.33140922 0.53964293 -10.701923 -4.984803 -4.833228 0.28177992 0.27952513 -1.0460835 -2.3350632 5.255349 -1.8903313 -5.624981 2.2628465 1.1624334 -2.331559 1.3933151 -4.844777 -5.052423 4.2844462 0.15005273 -2.4101145 2.0891776 -2.4410934 -3.14535 0.22737204 3.220899 1.9648215 -3.7618701 2.387364 5.982903 -5.6430883 6.6479945 4.113586 -0.42624125 -5.7447705 -0.8169532 2.6469555 0.9983594 0.060917713
做 4.8272886 1.7341917 1.9172988 -3.1799157 -0.024399852 -0.42492944 1.8882718 1.7890031 -2.0418565 1.8353254 5.4392705 7.47546 0.088567905 6.99887 -1.1102397 3.6442523 -1.6511786 -1.1924675 -7.1950626 7.2942724 -1.5451657 -8.225239 3.8179924 -5.4900694 -5.1606574 -0.8866049 -6.980348 -0.57697374 -2.8914437 2.9775383 1.5780828 8.358744 2.52996 -0.25551814 -2.8768942 -1.1747261 -9.055443 -2.6445398 6.4353085 -1.1852794 -2.8011513 5.344458 -0.824502 1.5683918 -2.3912306 -0.3419445 2.9677196 -0.11988706 -2.0397823 -0.60426337
设 -2.4020417 10.076798 2.2824612 -2.2443485 2.869295 -3.8784995 -4.429998 -0.3921722 0.011811103 -1.2090783 0.49477044 -6.297578 -2.3868387 -1.0605625 -3.6556716 2.0602143 4.783719 1.3073275 7.9825644 7.309301 -5.399129 1.1511296 1.5802203 3.397552 -6.657084 -13.279304 -5.8516574 9.718507 4.1037793 -4.962307 2.2199926 1.818688 3.87927 -0.69287777 -2.9220605 1.9508928 2.7150087 -0.8286924 4.480691 -1.8991584 -4.2193146 1.1606935 1.0142211 -5.653393 3.225544 -0.8895294 6.1687927 -1.7700968 1.7404234 2.918975
号 1.9365566 8.921428 -5.642488 2.7916474 -4.2926965 1.1968948 -1.3663542 -2.1735685 2.0333965 0.22335082 -1.8918691 2.1639786 2.5061815 -1.90041 -4.5292764 -2.642666 2.542133 -0.869726 3.0365503 3.9655979 6.9742885 0.5536998 -13.005186 -3.8808367 -0.8063131 -1.6243192 -2.66468 -0.5325572 -4.9149113 -4.4480667 1.8004227 -3.192625 -5.5389857 3.0995264 3.3074071 5.5694923 -5.12885 7.0838485 7.34544 0.59380734 1.8674811 2.7985094 1.7173312 6.3403454 4.520168 3.0685003 -0.34602445 3.1303208 -3.1736739 2.247849
士 2.0230217 -2.5851784 -2.3271987 -1.7407995 3.3004205 -7.6789565 8.322855 1.4772784 -1.0433936 1.0285376 -2.3446047 -2.9425771 -4.5585427 5.9767413 0.57339627 2.6920588 -7.22605 -4.2981205 -6.760382 4.059945 -2.495746 -0.7828381 8.33578 -2.024344 -4.82561 0.276263 4.107155 2.4503813 -2.9896894 1.9324579 -8.120499 5.218847 -3.2575274 4.3618746 3.3935044 -10.824279 -3.298806 1.0784794 -2.4352605 -1.4169571 -0.5697619 -4.447305 2.4001818 -4.452417 -2.2227645 -15.019046 3.1291425 1.5370133 -2.008506 -0.87834895
指 -3.9989781 -2.830095 4.3919992 1.5003933 -2.1680114 -3.0253932 -2.2367656 -8.507534 -0.39652848 -14.775157 1.5645646 -1.0300568 8.856396 -2.5735211 -2.7908444 2.901812 2.257121 2.1511333 -2.2815454 -1.46866 -10.509773 3.9790282 -4.4434514 6.2113447 -0.97343427 -0.9588853 1.5741129 -7.9890194 0.14731856 -0.67602366 0.36826012 1.2649561 2.069814 2.9613907 7.303619 4.5902104 5.2200494 1.9167373 4.775581 -4.6690397 -4.788627 -1.7697208 1.6247491 -5.329881 -1.1866509 2.955974 -4.773881 -1.3962867 4.366289 1.652724
必 -3.488825 0.104972646 -4.927091 2.8930585 -11.257903 1.6552118 0.829717 -7.414741 2.785144 1.5877908 7.978312 -3.141136 -1.1702111 -13.843376 0.9365485 1.6530312 2.1472802 2.6060772 -2.0895038 -9.28602 7.014147 -3.8674524 2.7311077 0.02611631 -4.139933 -7.401231 4.7741456 1.3501048 -2.070325 1.0766896 3.5826068 1.1008033 -3.5580726 -0.6095855 -6.813682 -1.0771599 2.248285 5.582997 -3.1812468 -3.3651648 5.683246 -0.44087607 8.388302 0.9058587 -4.0181046 -0.26022142 5.5165644 -3.9014792 0.8572246 -5.405983
级 -1.9137802 -0.12036698 0.8056071 -4.2925735 -3.953447 2.5638833 7.5016236 -2.6359482 -2.5880783 -5.078194 -4.2778163 1.0547451 -9.195558 4.4387026 -4.692435 1.1639367 1.0079364 1.0636765 1.1095223 6.919841 -3.2701597 -6.477601 -1.5723219 2.9406657 -9.184573 -3.3976922 -5.9651923 -4.830073 3.0729425 -6.013837 -2.9259756 8.079234 1.4833311 -1.2174398 3.6638565 -1.6083908 -11.824794 -4.5735416 4.6580186 0.6781934 3.0575278 -3.1421986 -1.1818041 -0.9828022 -0.82254535 6.3437014 -1.4398113 -8.543548 3.1217477 -7.528997
规 -0.060407538 -5.353664 -7.3608594 -3.5696518 -0.85095173 7.4989376 -4.82086 0.10076597 5.5378027 4.9327636 -1.3310343 4.470324 -3.3271868 -6.929935 2.0628178 -1.6874261 0.09438772 -4.4500303 5.988111 -7.535677 2.4118912 6.385344 3.3314643 -3.3414025 -3.06189 0.050851196 -3.133908 -6.846393 -9.185509 1.2275629 2.497562 0.22031385 -5.839147 -2.9331853 -5.9785643 -9.10708 0.9733522 -6.9416184 3.3262973 -6.4965267 2.3632233 -1.3697389 2.9778311 4.751879 5.4162216 1.9888532 5.3153634 -3.5055442 -3.9484382 3.6860669
务 2.2208803 -3.8777483 -1.8177645 3.365666 -3.8600004 3.8788452 -2.9888837 -0.11272039 -2.776235 -2.809931 2.4733243 1.0479972 8.714301 2.905528 3.4382281 8.02582 -5.4537587 6.2344112 7.4915714 5.302359 3.8051622 -0.9129082 1.4689363 -0.29056773 -5.413205 2.9923005 0.6807937 3.8234644 -0.8550383 7.044877 -16.89277 -1.0944513 -3.4753373 -0.07872873 1.0610683 -4.921984 -1.1182275 3.0353532 5.6953864 0.78759235 5.3726172 5.497131 -1.6401365 -1.8089007 -5.020416 -7.75486 -7.059989 7.0646143 6.9997745 -5.2528906
理 -8.670354 0.04958971 0.30618155 -1.6008021 6.480903 3.6660564 1.9886838 4.424497 -1.0988929 -1.6256751 -6.0003247 3.0159843 3.6863475 0.09529037 4.390292 -0.5305949 2.939031 -9.254851 2.2729163 1.3681065 -4.4853263 -2.0311136 2.0151322 -4.5651746 -5.6990976 4.013087 0.46088013 6.3576884 6.9002867 -9.805169 -2.5860875 8.334321 4.370794 -4.932675 4.321607 0.018938791 -7.2379274 8.601854 5.013648 -0.66570234 -0.2874476 1.3446414 -1.9227465 -6.776264 4.561658 1.9560684 -1.087451 -2.0927708 3.2250462 -2.4912407
电 13.483478 -4.94988 -3.6255617 0.6860941 -0.24038 -3.8535886 7.0592737 0.59614307 8.337878 -5.6667657 3.5828173 2.469045 -3.1412966 1.3950464 3.477049 2.6065412 -4.126956 3.7063634 4.9568815 5.5037904 4.760482 1.8438349 2.9855776 -6.719889 -5.797165 4.8376675 -2.468365 5.7633495 -0.76604897 -7.3579097 -4.104493 -1.7824738 0.09349888 0.29106465 -1.8289298 0.35953757 -4.057715 2.7612355 -0.66286135 0.047235124 -3.371801 -6.5044823 -1.3112422 1.6847949 1.2190676 -7.7431455 0.83265096 2.242732 -1.9398763 -6.7297554
公 2.4514384 -3.2165916 1.0448706 -5.659455 -1.6031984 -3.3387992 -0.30054042 -3.2639036 -3.8522828 4.802543 -1.960327 -0.96017545 -4.512366 -5.500005 2.4331279 -8.9422455 0.59135246 -2.5922925 -6.89641 -2.5221853 -4.6437297 -0.5908373 -1.4675624 -1.7798455 6.4996347 5.2218623 2.1779761 14.439126 -0.08465151 -0.30154163 -4.921302 1.1933041 14.163827 -2.6937654 -6.151821 0.95151854 -3.923327 -1.214569 -7.8071437 -3.7334502 -0.3317998 4.000929 -6.4113193 -4.169558 1.4494954 -1.9576939 -1.658065 -0.5890259 1.6575648 7.4813614
下 -0.35994303 1.8716263 -0.6658324 1.0702678 -2.8010497 -1.8919731 2.4509723 -0.03960158 -5.028526 -1.4436826 9.713412 -8.600718 -2.9875724 3.392063 5.090277 5.369151 -9.072643 -6.581188 0.21188806 1.331977 -1.7729543 -1.9394106 -3.0997164 -3.2416968 -2.355394 -7.340173 5.1475616 -1.0343137 6.8301773 -3.2384512 3.3063705 4.3750787 6.7914286 3.658586 3.9984882 -4.747031 -2.0816932 -1.4800973 7.788646 -8.46832 0.42685318 3.962065 3.9253983 8.694266 -1.8832803 2.8612535 -1.4350393 -6.731627 1.4122838 -2.3804824
响 -1.2452437 -0.23798408 8.110333 0.43106863 2.8980696 5.5679917 -3.5072472 -0.08408848 -5.190643 -0.30814525 -1.2192521 -5.5560374 -2.127928 0.43793362 2.060102 -1.1188685 8.350994 4.116575 -0.2983355 4.549248 -3.5331802 0.8912372 2.8808074 -9.71604 0.76021314 1.0274781 3.0210385 -3.3494198 -2.0367975 -4.301382 4.577152 -1.4128587 -1.6574216 -0.41449603 5.6569967 -2.821961 4.630521 -2.646567 -4.7572045 0.5325941 -6.395978 -1.2348045 -3.2922318 -3.8488925 4.361786 2.8352656 8.804904 -4.49274 10.7327795 -1.8059996
影 -3.9821382 3.0909636 -5.805838 5.332511 6.1055136 2.7637315 -4.105518 -4.504988 -6.207693 3.558359 -4.644768 -3.3451712 -8.045417 2.4416502 2.2785456 1.3601669 7.2335806 10.098617 -4.5193014 7.388728 -0.2443501 -3.9907367 1.5862237 -5.328192 -1.115468 -1.0547551 -5.846172 -6.5787735 -0.21093039 0.5158696 -3.53488 1.2707326 4.662003 -0.1891794 0.29019624 -3.7319283 1.6774818 -0.1694188 2.3850935 1.0354968 -2.1796942 5.374411 7.5050793 -1.251465 0.8688858 0.48190308 -4.073783 3.6892838 -1.2588403 -3.4712288
此 -4.3000703 2.8598983 -1.9848449 -1.6395549 -2.669844 2.6294086 2.7695582 2.4265091 -10.030369 -1.9292676 -0.019674376 3.8523405 -7.514075 9.12574 -2.1477745 -5.6356936 -4.152794 1.7242558 1.4662225 -9.8433895 -3.548521 -4.545203 -3.8164423 -5.910741 -1.9342651 -0.46394974 4.3573914 2.889852 -9.030142 1.0173585 -1.9626523 -2.6624432 2.4938784 1.4728477 -4.453719 -0.3117569 -4.645695 -10.345802 -0.71424437 4.8517933 -1.8918343 8.925533 0.044762217 2.2692697 0.2137112 5.2501016 -3.9866536 -1.4360038 2.1993587 -3.481594
认 5.4433556 -6.1137576 5.1319685 -3.5479517 4.5189433 -1.2476984 4.668503 -7.1132917 -10.635251 -12.239932 3.447719 0.665864 4.87031 6.7348757 3.9454508 0.5746664 1.9430827 -2.94937 -2.4753118 -8.677095 -5.8698044 0.49489048 -3.7982516 -4.2806177 1.379975 6.665991 -2.9633193 -2.1785834 -3.881523 0.65370256 1.5094053 -7.5262294 -2.6872597 5.994339 1.5747697 -1.0288852 2.8986118 4.082722 -2.7542436 -10.065714 -2.1865616 -1.7610729 -4.42321 2.373559 -4.3268657 -0.86280537 6.233878 2.148984 -1.225326 3.3051567
格 -0.53011394 -0.31394392 -2.2643695 2.7044568 -9.850958 4.142545 -3.6751611 1.8929803 3.4498122 6.7684946 -1.9520618 2.6870635 -5.410587 -2.4004335 -4.886596 -7.9819317 3.5404918 1.2305403 -2.8195148 1.9693756 -8.362047 -2.0711193 -4.3955083 -0.0752316 0.76072377 -7.678028 -0.8450919 3.5724916 2.1157725 -7.34217 -5.646552 4.400825 -2.9428995 -0.059420343 -6.7901487 5.262798 -6.7362227 -3.1230757 4.406592 0.8348632 -5.005596 -6.7897797 -8.954581 4.3277364 -0.7659132 2.6420612 -4.0455494 -10.799173 -1.4693311 -0.051537123
常 -1.6528131 -1.794291 -1.5653232 12.017534 -3.1854436 -2.1862965 -2.8708742 -2.1565537 7.517047 5.393032 0.29936713 -3.6211073 -2.8379145 0.5104397 1.248371 4.8541346 -4.6315236 -6.8641696 1.8695089 -8.363165 -0.4298172 2.2675304 2.9734244 6.492324 -6.874553 -1.3969646 -0.324372 0.74980533 -2.5862758 5.8021846 -3.1943896 1.4130653 4.379878 -1.1193135 -5.5569563 -3.8065212 -11.020567 -0.076761365 -3.2693107 -5.5443225 3.8487442 1.1380744 4.359571 0.085339926 1.1361548 1.9469526 -7.1239405 -0.457439 -8.693152 -2.851952
即 1.4807897 5.826488 3.296138 -0.025385438 -3.4466488 6.083268 2.1813138 -2.0569966 -1.0151159 -4.3752956 3.411677 -0.1745689 -2.0068192 0.66453147 -2.9951787 0.9420976 0.49909708 3.9101462 2.5822012 0.56169087 -7.892268 -2.0874794 -10.481431 -6.050401 0.083712354 0.26611722 -7.397116 -2.0152671 -9.218927 -6.028786 5.9457827 2.8751168 -3.2157447 2.7243698 6.824439 5.1356077 -4.7391157 4.972169 2.2203279 -7.0107975 -0.32833126 7.3286614 2.1328 -0.23037018 -1.9851861 6.1232166 -1.3154606 -1.5372802 -3.894496 -2.6011965
三 3.516106 0.64123476 0.70903426 -2.512348 6.0310125 -0.9061291 -3.5640607 2.0772502 1.0506033 1.1378994 -1.5441438 2.7888448 6.655567 3.4540355 4.8618383 -9.479489 3.4197485 -0.49696073 4.7795773 1.7401693 7.2239504 6.186025 3.976242 -3.453213 2.1297755 -10.475398 0.082395025 -1.5959984 1.40564 -4.3639975 2.4633627 -1.488007 1.6907508 -0.2533061 6.804336 16.479652 0.84875965 1.8310783 -3.056524 -1.5043463 -4.823083 -5.1526313 -10.682414 5.73692 -2.1700935 -5.845946 -0.07595614 6.4460874 -5.8837466 4.375454
版 2.3582542 0.12670347 0.18340111 -0.9575105 2.333348 -2.2261047 5.073653 -2.8028452 0.21576743 -1.0553385 3.386743 2.887899 2.1005387 5.4177995 9.790116 -3.7343678 8.038267 -2.2507768 -9.876056 0.15346703 -0.22246465 8.152727 -0.0332015 -4.6839085 -5.766234 8.887635 -6.829329 0.6248812 2.3364744 5.461517 -1.8870401 -1.7191086 2.3937774 -3.1688135 -1.5037162 0.18775412 1.8216485 1.6870824 -3.5036316 2.8059382 -1.3190922 2.4884725 -0.18539993 -1.728587 -3.0673392 -3.552772 4.098478 0.83981824 -8.920364 -6.6677065
询 4.0754013 3.0917156 -7.4263034 -3.7335584 4.0965548 0.890335 4.605877 1.3296002 4.4446335 -8.748229 -0.73146397 3.224404 0.3256275 -0.20392722 4.458952 2.2218199 6.774015 -0.7087781 1.2047272 -5.7222376 2.1952069 0.64297414 4.508781 4.9928203 -3.3506706 1.8159244 4.879362 -6.5507374 13.691968 -3.1865785 10.603317 5.966407 6.658703 -2.3239367 -3.0595062 3.9828846 -0.8588131 8.6958685 -2.0608685 -0.67655694 5.73379 1.3949845 -1.5224905 -4.3268213 -4.40263 -12.139 -1.903332 -6.5822372 -1.4343579 2.9754264
息 1.267974 3.223161 1.6392776 -1.4181848 2.422358 -6.6122456 0.7981417 3.294754 4.2034154 1.4763098 -5.409863 6.026996 -5.0422482 -3.1388996 -2.843738 -4.470605 -2.5126853 -6.643718 -2.8210917 -8.682438 -7.555895 -1.2988348 -4.1265526 4.636794 -4.4527345 -4.8673663 2.5200877 7.008371 -1.5353234 0.34929833 3.2444713 0.24993332 -4.2646565 -6.0787687 4.286442 -0.6527362 0.5673223 3.0943956 3.2463684 1.7000324 3.1902037 2.497944 9.803591 6.4427643 4.4350233 -2.7709773 4.427852 -3.7106469 5.0751376 5.359259
英 8.337072 6.5105486 -9.022856 0.12482931 -1.1754768 1.0009089 -1.9914986 3.7774937 -2.9498613 -6.299727 4.1481915 -3.4725819 6.331683 -0.045425467 -2.8194249 -8.129498 4.8793554 2.017002 9.451225 7.7763667 1.5617071 -5.9289346 6.389079 -1.8131832 5.911287 -6.1134763 4.3976626 3.8357925 1.7644737 -8.2525425 3.9299533 -4.2339005 0.9497814 -1.4744496 0.16573943 0.8337381 2.5968683 -2.9632516 0.8738342 -0.03792638 -6.719943 3.2785976 9.114848 2.8807442 -1.3735952 2.4535525 -1.6839969 -3.6702583 0.85516256 3.4386094
爱 -9.437262 1.20399 -8.92904 -1.1647753 1.2055131 -1.2582939 2.3025591 1.5086626 5.5225625 -6.6902094 0.6161692 2.436527 -8.881538 0.31084368 -1.5893227 -1.7487878 3.041007 2.3686945 -0.36769927 1.0326008 1.2610308 -3.1708488 5.1783023 -5.0595937 -2.849061 1.3842133 1.1738981 -8.14949 -1.8878175 5.277357 -0.6842844 -7.3565283 -3.3795297 1.3957568 0.79864323 2.7156575 -2.8594992 3.3793082 8.180396 2.8325639 -0.9021128 0.58030605 -6.4151983 4.005264 -0.08120032 -1.8350011 -1.0545888 4.7901793 -2.6261234 0.9813245
证 -7.8691545 -3.740357 -1.5616677 6.919116 0.8161105 -3.691313 -0.34952587 -2.9049628 4.5654616 2.9360924 0.25646496 -7.292841 3.4534297 -3.3700333 6.198026 1.1582019 -3.817119 6.6924024 1.362046 -5.5888777 4.69358 -2.6742961 -2.4002354 -4.605858 3.1218889 -1.0219202 -5.7952647 3.158862 -6.2310834 0.6105337 -4.498148 0.39697063 5.980649 -1.5345 4.5480328 0.17132632 -5.85532 -3.3140316 -5.743679 -4.2361703 -3.2511547 -5.7060375 0.08379662 -4.779503 -4.746803 4.391784 -2.6214128 1.5671569 7.0298157 5.130747
博 5.891913 -8.451456 2.8945756 -4.417127 -0.6370543 -1.6649172 3.0253844 -2.8675969 1.7393625 -2.13575 2.3739803 -0.16447295 -5.1269984 -3.828811 1.9506286 1.2170401 -12.557192 -1.9388322 -6.820055 -0.28147146 -3.1260307 -4.3662844 -1.3382108 -7.52062 11.74148 -4.653887 7.539472 -1.7300613 -2.5141814 -3.5155735 1.2688528 -3.5336783 -4.3270707 -5.942058 -0.3827238 -4.164047 3.3424156 -4.1905003 8.564248 8.195482 3.2116108 -5.425303 -0.15576285 -0.19390129 -3.5942898 -1.4826343 -3.3979557 -0.6800429 -0.18762605 -0.68075866
老 -1.5921508 1.9277732 9.134316 -3.1564946 -0.55275756 -2.7500358 0.2765031 -2.1229866 8.408644 -5.6986985 2.854609 4.944254 1.9055647 2.510581 -9.234112 3.537993 4.2663183 -5.407681 -1.1038837 -1.6493863 -9.6642885 4.514234 6.627277 3.857668 9.394734 3.057292 7.612431 2.8954196 -3.4597366 -5.1928654 -3.061692 -3.9349236 -2.5172539 3.7659488 0.9010209 -4.0167394 -5.771971 -7.0536385 0.703903 -6.712817 1.2955909 1.4219346 -4.9391036 -0.6342803 -0.59823185 -8.040393 -3.1805491 -1.772187 0.05030251 2.512422
录 -2.3358305 -0.9080645 2.394896 -4.9529014 1.343371 -1.7773166 -4.212211 -1.4183654 6.4537034 2.5388725 0.093986064 3.4367504 -3.207302 1.3203173 -3.303683 -3.368288 -6.3462334 6.0989184 5.5065002 10.240316 3.9486227 -0.27399555 7.788013 8.686456 7.716745 -0.09038312 0.24586406 -0.28829917 -2.1167307 -7.975921 -2.9023237 5.757462 8.179947 -5.4904675 -8.390092 -5.411674 0.98216075 -1.4058989 2.7947965 3.9502573 1.6721472 -4.7889075 7.8777714 8.050163 -0.07394686 -3.0043223 1.7145356 3.8728464 4.7969604 1.1407695
堂 -6.336864 3.518111 -8.0637665 1.366017 7.3010592 -3.8270352 -4.497857 1.6676755 4.434526 -5.8543344 1.9149148 6.686364 0.21588995 -0.98626924 -1.9086163 -3.4177983 0.9994517 1.139113 3.5397909 -8.1520815 -0.59888417 8.469638 -2.3010569 -5.9084244 -2.1836963 -1.090675 -2.4211323 0.11656172 -1.718416 1.3356477 -0.8500739 -2.6576257 -7.537684 -1.4075761 3.2224107 2.1520765 -5.8270736 -0.1842773 -7.222111 -2.4381406 2.9964654 6.6909156 0.6870824 -5.160051 3.0804975 2.30412 -0.12208472 1.5130552 -4.0745153 9.890131
节 1.1169149 -1.1645424 -1.4837441 0.4592721 -1.5161078 -3.4997315 -8.497223 10.623843 -0.8335221 6.6547055 0.09184495 -0.8697092 -3.5539503 -1.5360307 -3.2416275 -3.5455003 4.870331 -2.0949967 -0.8827713 3.5896168 1.6112313 1.6747103 1.5051402 0.6749376 -0.88565844 10.334302 5.067743 -0.029057954 -3.7476127 -7.982171 -4.297693 1.8206877 -3.1978977 2.403397 -0.33552024 -5.5642176 4.3676243 7.435773 1.0490539 5.7836504 10.586286 1.5803139 0.83857 5.0497127 -4.924279 3.6873906 8.1871395 7.119347 -2.8704824 -4.945665
月 -4.4430075 -3.005748 -7.840509 4.53726 3.6617255 5.3340254 -3.7495368 6.8352065 0.6193765 -1.7455347 2.7135055 2.162397 -1.8047633 -0.43562064 5.0668664 1.9641529 2.9638124 -1.1337228 4.167542 -1.0325263 -5.2400894 5.52442 -3.956765 0.35386917 4.6792083 1.409473 1.1275108 1.8442615 1.0221812 3.251158 1.962291 -0.9806669 2.3818777 -0.24659947 9.268316 -1.7887361 -1.7327514 -0.8793635 -8.904401 -4.571535 3.0109854 -9.193508 -6.6226006 -3.4424222 -1.3984677 4.2078958 -5.678883 2.889721 1.0695508 -10.8645525
包 1.639466 -1.3848313 0.07296583 -7.5977263 -6.2196956 -0.49206838 0.51626825 4.5228424 0.9633488 -1.6007032 -3.8713596 2.5471592 -0.17022072 2.0481858 -0.3306671 6.467587 4.890905 5.149261 1.2297792 1.4392347 -6.6427507 4.2478347 -3.5815914 6.3233933 7.278222 -7.907396 -6.258002 7.5787625 -4.162264 5.402706 -2.1996868 2.7840302 -3.1145031 2.1530948 0.38828364 -1.1337126 1.9920807 9.471201 -0.66842014 0.39200005 -12.16414 8.881543 4.9449844 -1.3111761 -5.9736233 -0.038069375 -4.439286 0.013355724 -3.884127 1.8980314
加 -2.2026148 -6.9915786 3.161562 2.236176 2.7618651 3.4197233 1.892303 -3.118195 -9.659614 6.7022743 -4.095527 -7.038853 -2.6005213 0.24321108 -3.8174036 -1.0221988 3.1428928 -2.3269207 -3.630466 2.8201425 -0.11692795 -0.6163486 -4.754288 4.8785186 -9.775808 -3.4986937 0.2845268 6.370939 -0.013230422 0.4307448 6.84855 0.12097435 -6.520721 -8.83668 5.022856 -0.6796887 -2.9139032 2.090431 1.6495526 -1.7640617 0.5118702 4.141767 5.3534603 2.3480637 1.6897527 -3.4708886 0.4808374 -7.3774066 2.7690465 9.083863
布 4.5556474 -3.896066 -1.5002464 -3.0157325 0.6369425 8.637811 1.3721244 9.895459 4.5331483 4.4491496 -6.2250977 0.58006096 0.123676986 -0.44152483 5.7044435 2.9006324 -2.9797492 -0.62994564 -0.51939005 6.6878395 -2.2386215 -1.9211191 -6.528564 3.8627322 -2.439741 2.908422 -2.263324 -4.3612323 -3.7899616 3.130646 -5.5463033 6.8473864 11.800483 5.438459 -1.5990722 5.1393104 2.4341164 4.8512893 1.9276813 5.566794 1.0225966 3.2377677 2.908297 -1.5255978 -0.11114431 -6.5485587 -2.6668792 2.2748582 1.419245 3.8043818
容 -2.0146775 2.5211542 6.950785 1.0743752 -0.8809355 -4.228175 -2.427941 -7.4951763 2.3607473 0.82836825 -7.237833 0.72705925 5.3432274 -3.846051 2.6891794 6.7125044 -0.39649874 -4.345449 -4.704649 6.0155683 3.839204 -0.67816675 -2.294342 -4.7786694 7.2367086 3.5882668 -8.859246 1.794936 0.95061237 14.647428 5.2712426 -2.7986557 -5.251968 3.3968837 -2.15265 1.2620745 3.6568525 -1.872156 0.4460783 6.382146 3.944898 -0.9155353 6.5339193 2.2011893 -7.354301 -0.82610357 1.0442975 -3.3337913 -0.64665765 -0.23929484
填 2.6071262 -0.708778 5.46845 -5.234679 0.064145364 -0.7559533 -3.7728193 -2.3420146 -3.1648736 5.355616 2.4191804 -6.161637 1.5491513 -3.8911157 -1.7809266 8.45398 -7.6573997 -0.3146388 0.12348462 -2.0788074 3.5133178 1.1738235 -3.6067083 -1.2223951 -1.7175109 -2.0446146 -6.465249 2.4584975 9.753583 -5.4588013 5.0910015 3.2734706 -4.8317266 7.905141 4.99761 -5.0832496 3.841683 7.352012 -4.7516923 0.94871604 4.972619 -0.6764771 -2.789101 -3.7668962 1.7083591 0.5971616 -0.36334366 6.333832 -4.982602 1.9213364
意 4.6563234 3.5774858 4.484731 2.3265305 0.023575446 -1.6239854 -6.957116 -5.905221 0.6124189 3.799419 -1.1826767 -2.1768827 8.172474 9.189708 -1.8714797 -7.790912 0.10786956 1.7599312 4.7484617 1.1203529 -3.561894 4.878858 -3.3398302 -0.74203527 4.647105 -3.5561461 -1.1140221 1.1248715 1.3366382 4.774921 -0.3371623 -4.401784 0.2994906 -5.5588694 -3.4863274 -1.9659059 -1.3118124 2.3927197 0.010423544 1.6648107 4.7176642 -6.181639 -2.0596383 -0.3736536 -5.2142844 -7.884425 -2.1034005 1.7903566 -0.39965218 1.9364727
考 -0.10111557 6.226459 -2.4671655 2.774986 3.8269646 -0.3621414 1.3035442 -0.3476949 -1.5561551 -5.4220266 -9.799425 8.190001 -2.7689643 1.4279418 -8.637635 -2.654194 1.2111658 -1.730387 -3.9371486 -7.475253 5.4045844 -1.2457888 -0.22662063 -4.012999 -0.43803748 -8.1702385 4.7296424 -2.9984365 3.8845296 -5.018711 -5.610249 -4.9581704 8.5550995 1.2419789 0.12626444 -4.0313177 -0.42405492 6.482354 4.9046297 1.6057496 1.7677556 -6.5280094 -5.2692776 3.7186027 -3.65141 -1.5672783 -2.1403146 2.8256032 6.622098 -9.579856
邮 8.402684 -2.0738058 -0.88338053 -2.2218046 -5.9478235 3.447241 0.5793629 3.4394245 4.043267 -4.0253644 1.817533 -1.4482212 -2.4473126 -6.8351946 2.2527697 6.5791483 -8.060194 -2.077081 1.6326932 -0.7744134 2.7982106 0.6330875 -1.5116093 -10.926538 -1.9425733 -1.5403696 0.2680463 4.132636 10.0906725 4.6701775 2.3473806 1.9600116 -0.56818116 2.6195068 1.0274572 8.13747 -2.128567 -0.93107253 -1.2255905 3.507897 -0.80533236 -1.2782438 -3.04326 -2.706927 -1.5441108 0.90828997 -1.6877279 0.0027065976 4.025992 -2.802588
当 -2.7394063 4.625997 3.7665098 5.587244 -10.40906 0.24865553 12.147413 0.7167419 0.22896723 4.397977 -2.307926 -0.029365307 -3.095886 7.858792 -2.0432997 -5.8150864 0.89936435 2.4811292 6.2329583 1.0916666 0.5132685 2.4716613 -6.358099 -2.74398 -1.7152869 -7.079027 -4.6974716 -0.99235433 0.94359976 -7.240959 12.99135 0.3674327 -0.06084289 -2.9637356 6.730128 -1.5632086 -5.8025036 -0.85045326 -5.6398444 0.19984828 1.2137523 -4.989413 7.192652 -7.6673355 -2.7453232 -2.443469 -0.4545635 3.7965288 7.829744 -4.789516
于 1.93506 6.054074 -0.32842875 3.5474129 -2.0018046 7.4554276 10.408515 0.71004725 7.4441123 1.2759852 1.865187 -1.3655101 -4.148882 8.652362 8.168361 -3.9973893 6.1804953 3.3834999 -5.231348 5.370946 -1.9849851 -3.5519516 -0.2111362 -3.5047219 4.119149 -0.18332176 5.3729534 3.2208173 0.6587386 0.4693123 7.5775247 6.678652 -3.5210273 -2.6961048 -4.4573565 -3.9372108 -0.98971575 -3.268514 -5.723738 -0.675607 -7.9189677 5.742676 -4.9071665 3.0430615 -0.3596358 3.03901 -1.7975054 -5.8099003 -0.31014833 -6.103132
算 -2.0323582 -1.0758274 -8.49263 2.5614717 4.540365 0.6159699 4.0696864 -6.740143 -3.8608582 -2.7532446 -4.1624823 3.7303715 4.073756 2.1509566 2.1412113 6.6943316 -3.264197 -6.9487095 -2.5120802 1.4821326 -2.5256207 -1.172681 -6.3870945 -4.219033 3.926166 -0.67805237 5.385394 -1.5095882 -4.3435755 -0.51121444 3.334589 -1.6881024 -5.1250935 4.2124624 1.7222545 3.5655077 -7.5212965 -1.4663787 6.234183 -2.8543901 -6.1100354 1.9338596 3.215114 2.5028267 3.2883122 7.2121863 2.2868183 -4.821308 9.555455 -6.8832006
环 -5.738256 -5.870687 1.642037 4.9351826 -3.3623743 3.5738552 4.74907 6.158463 -7.557965 3.3625975 0.7818173 5.3083825 -4.7359414 -1.9660623 6.1336646 -1.8175303 -4.4765954 3.2996387 1.6297375 5.3604765 0.98205984 1.5163686 10.073826 -1.6482775 2.0813916 0.26736173 -1.2396462 4.5203905 -2.6183393 -2.3272774 0.46984163 6.5914288 -1.0405583 1.2080221 1.8708924 4.2941628 0.60846 0.46358606 -5.2747054 -0.19965301 -2.5651803 11.198497 4.2362623 -3.0983627 -3.871051 8.191763 4.103749 0.59610665 -4.1793523 -11.606821
补 -4.7364345 -0.9414521 2.7582226 -1.5797523 8.333261 -1.3620142 -2.2458415 -0.87601453 -0.8218459 -5.7094536 -4.3793397 0.52050436 -11.351718 0.46948174 4.7165303 2.1239085 1.5340745 2.774376 2.9078948 2.2861023 5.5713167 -3.7307622 -5.5174575 -3.8370006 -1.8694415 -2.735455 2.8170938 -1.4990523 -1.6779416 1.6159592 -5.2507453 6.863108 -5.6639934 7.1665974 2.009316 7.8201156 2.7592573 -2.5616057 -5.1694236 0.36575714 3.9699454 -1.8107045 -0.89034116 -4.9145966 5.774291 5.2344055 -0.2123304 4.067589 0.61691946 -2.3274062
家 3.0688043 -0.39029336 -4.728434 -0.98690724 6.6641955 0.4303773 -2.3968275 -9.539851 6.2553487 3.180973 -3.2422812 -1.5609759 -5.566058 -1.7916701 -3.9152691 -2.0455618 -6.2810373 -10.381425 0.47626826 0.85634553 -1.3600744 -7.5883155 9.894354 3.244928 -0.7127738 -8.295418 -3.6092918 -6.540584 4.70151 -0.33792728 -1.4599782 1.297651 1.3424675 3.021149 -3.9245808 1.4600197 8.620219 -3.9861083 1.4190435 5.1917024 -4.993651 -3.2018945 1.3423935 0.8769524 9.899349 -3.4773784 -0.23664048 -10.6053295 -0.04948914 3.114327
暑 2.0882254 3.6484716 -3.4837823 0.9321398 2.5295439 -0.46869645 1.6995986 -3.0686023 -4.964926 1.1229074 -6.657205 -0.014989165 -0.19797084 2.1861892 1.2720997 3.8364177 3.690539 0.81870204 2.0263028 -5.759218 0.9957529 -0.476659 1.2961587 -5.378882 0.5771513 5.211918 5.756834 7.3420696 1.8475223 2.7365627 9.668223 -3.602788 5.1527305 -5.585846 -3.5019188 8.392087 -8.179169 -0.61284757 -1.5679768 5.459648 -4.6760626 3.2063549 -8.598998 0.91806257 6.466551 -3.957253 4.904662 0.14482388 0.2583134 -0.053392626
印 -0.16073444 -0.35034427 6.620977 1.459298 -1.5151418 2.841018 1.1685392 -0.33682805 -0.50507075 -5.1774354 1.8916965 2.4464397 2.4912868 4.536575 -3.0221412 2.8877475 -1.7926753 2.8000813 -1.3741119 1.4553336 0.87082475 -2.0031986 -0.9198295 4.3522716 0.9325063 8.463704 -4.142147 -2.4688869 -2.7302103 -3.4139097 -6.1665044 -5.424805 -9.737801 -4.208097 1.5699602 -1.9327803 -0.29368752 3.105917 -1.2389865 1.2059909 -5.5011845 -0.99066997 2.301489 -9.75993 10.370903 -5.6124926 9.344914 -4.3619847 -0.03354367 -1.7069038
明 -4.937307 -2.6746798 -4.0440555 -0.46739683 3.5826888 2.4657931 1.0612652 2.4620152 1.6956216 4.434454 -0.9338428 -2.0308113 11.081221 -3.5590196 9.756518 6.948912 -3.1469119 -2.8458087 -1.6568413 -4.289857 7.292406 -2.0059197 6.606383 3.6685972 -0.9749022 -0.5159879 -3.2326849 -0.9060507 1.1317983 -0.027498357 -1.8599867 -3.2215335 4.1933565 4.5720263 -5.1652937 2.4509802 -4.7917733 0.85892624 7.205859 3.6935234 2.3457296 -5.645511 8.879076 4.180503 -5.8986826 -8.6454 5.952687 -1.8250057 -7.2022243 -4.2964005
承 -3.2704856 -0.77086693 3.742823 5.023761 -0.28810042 0.3176966 -3.9552276 -3.3790274 3.0648236 1.3112291 2.3642135 -3.592407 1.8219601 3.0271547 -0.97528434 4.570134 -2.6260583 4.4633656 4.389997 -1.2003797 -3.6696455 -3.7792099 0.64349085 -2.0559545 -7.587983 -1.8050113 -3.1986985 -3.1638312 -0.68595463 6.513258 -0.035785742 -7.5247707 -5.1833196 1.8090845 -5.182453 -1.6464618 6.1254973 3.9275885 -2.6324575 -2.9323182 0.53326637 -3.249204 -0.77690387 0.02935784 1.010531 -0.64536315 0.64602643 1.225261 2.5231516 8.812813
没 -9.361678 -3.5720036 2.9109645 1.6623952 6.505116 2.8608575 5.26028 -2.6280742 -2.913408 -3.352675 -1.1943406 -3.4029713 -1.6180471 4.3531146 0.049931318 -8.197455 7.0643864 2.0319905 -3.034951 5.7686625 11.837965 7.3988137 -3.4391212 4.404358 -0.3886765 -1.7015206 2.8671103 -0.6482704 0.3403733 0.8288611 -0.07424233 1.5475459 -0.0043700477 3.9248214 3.1941972 -4.1654696 0.8293635 2.5102148 4.093081 0.78858966 -11.13734 3.4374242 -1.7909142 3.053827 2.8421414 6.207554 -5.7257924 -0.6444938 1.0808512 -0.41285956
置 -7.1201296 2.9027636 0.46480373 -0.0755125 -3.257751 -5.8094587 3.8551288 3.9765763 2.967204 -6.149707 3.7441132 -1.2029694 -1.6680433 3.6448162 4.6258526 0.18968883 6.5221395 -6.348746 4.3187375 4.147608 -6.6763887 -8.217689 -1.8259594 5.359037 7.0117126 -0.7232848 -0.43888885 -5.361392 5.2583213 3.5831916 3.8885317 5.512484 -0.5292315 -5.880598 4.8532357 1.8549622 4.8544564 -2.7203538 5.3581023 -5.387753 0.27844304 1.3242863 9.794285 -6.946931 -1.6286654 7.0985336 -2.7578418 -6.97889 -4.2400618 1.7400945
本 -2.8232973 5.560381 4.642311 2.413212 6.940113 1.050588 2.2823122 -6.2678795 -0.9145761 -5.8513007 0.95170444 -0.65970355 5.28377 -0.11080168 -0.7686118 3.0860972 0.95102626 8.081194 6.2307973 2.8350642 -5.1180377 -1.1285806 -2.195688 -1.145787 -0.27593163 -2.034401 2.684366 5.7747755 0.43823504 -3.888637 -10.926277 1.0370136 -5.590833 2.1082788 -0.5742412 -3.888433 4.2359786 3.1023347 -0.94162136 -0.19536768 0.48020393 -14.468756 2.440596 -3.28872 -1.4990547 1.9587038 -8.644493 -1.8880073 -3.7035873 0.53082526
用 1.547672 -5.362768 2.6072638 -2.184935 9.119997 -2.482457 -2.9877143 1.1193166 4.8520966 4.697727 -0.30189297 2.5954456 -0.39437124 3.1304667 1.5088943 -9.90743 -10.316951 7.059023 -2.8009326 2.9108896 3.4208765 1.9175488 4.5363636 1.0803722 5.144849 1.2583753 -1.5158387 2.8729186 1.8523768 7.330923 5.48393 -4.279757 3.400268 -0.87983984 1.2927178 -0.065587975 -3.4405997 -3.8529263 -1.0141587 -0.11006897 3.210074 6.1749654 -1.5495927 1.0816994 -0.84923774 -1.8760858 0.28469783 6.547818 4.314554 0.0018293547
组 4.764074 -3.8944614 2.9887679 4.248999 0.14628543 -2.881683 3.2449439 -2.0561855 -0.98163825 0.7013268 5.7578206 0.3495018 -7.5481544 0.069189794 -0.6190143 7.253275 -4.30652 -0.15402755 3.4768245 2.9072795 -3.2949584 3.072277 -1.4196216 12.096138 -3.0853474 7.493357 -1.1598829 -8.416107 1.2279317 -2.1545372 2.958688 -0.6305056 0.046360034 -4.4061856 4.842848 4.443927 -0.13796352 -3.9247987 3.2633433 -1.9564718 2.3005688 4.829667 -7.271481 6.403939 -0.46763986 3.7744193 -2.8088837 4.632477 6.196906 2.4294374
诺 -4.8052406 0.7577428 3.6479678 0.21420993 -3.0963686 -4.8015413 -0.7149774 -2.1951027 3.045479 0.37462193 3.45862 -4.6173983 -2.2294347 2.0650997 -0.4759111 0.78595686 -2.57191 4.1948514 6.817843 -0.67470354 -12.847948 0.5841234 -0.8675197 -1.2851925 -4.343705 -2.4044447 -1.3625535 -0.5479163 0.17193165 2.011459 0.115735434 -7.7423124 1.302423 6.1234226 -2.2555597 -3.13889 2.8978267 0.5253621 3.1201835 3.9752035 -1.410816 -2.8422263 6.0011883 2.3192956 5.653244 -2.6302977 -2.5690882 -0.5782828 -4.233478 2.1494756
打 2.2314162 1.676463 2.9075904 3.83313 1.2493162 -2.2637196 9.897807 -7.17573 -0.4923755 -1.133847 7.7960873 -1.1341939 3.0409217 -1.4479228 1.1874752 -3.217868 0.9202272 -2.7324243 1.5197439 -4.3821974 -3.574706 -3.2825994 -3.838385 4.1565356 -0.72902507 3.1697218 -8.135388 0.6689134 -3.1343248 0.8457839 5.141537 -3.5059037 2.302134 0.9607929 -0.9360732 -5.722308 -0.027597606 -1.4460332 -2.1655529 -1.4209831 -1.8271217 4.316769 11.911747 -5.3750877 4.1028976 2.5029113 1.6187067 1.7875843 0.17817092 -5.0235677
每 3.0918343 1.1648804 -10.6432295 -4.7672286 5.550291 3.6904225 1.597404 0.6926095 -4.9401994 -4.617799 -3.898918 3.0186083 -9.957128 11.597003 -0.06081263 -1.0863222 5.742249 1.4274781 -0.6123641 -1.5784369 3.128552 -1.1138744 -3.7959268 -6.9006476 -4.274312 6.823085 1.2775185 0.33593163 -5.1014543 5.1451464 0.9178057 -5.7093816 3.6379104 2.961694 2.2171426 3.5613754 -2.774756 6.5035925 -2.2726147 1.3171501 1.480076 1.2301307 -6.4515777 0.81887746 1.932882 2.3733842 -0.63738674 1.9623299 -3.5043442 5.918179
书 1.1040907 -2.098221 0.6886979 -1.4546374 5.819314 5.269355 -3.552948 5.4934983 -0.74567723 -1.185862 -2.8664691 -0.024496708 -2.7081337 -3.5155141 4.776116 8.456872 -0.71612406 -1.8943586 0.22031254 -1.3296875 -3.442861 -3.4394736 -2.0568643 7.627178 -3.60701 7.866458 0.685786 -4.3028917 -0.5597885 -3.2694829 1.7935871 -2.7793128 -11.250395 5.2715344 -0.11215433 0.8594758 5.120965 0.7790563 -2.3104758 3.5531447 -1.6017247 -0.29308128 2.0680919 5.6080627 6.653161 2.8595061 -3.1417797 0.34485868 -5.998545 -5.4266605
语 -6.530842 2.0024154 -2.4772108 -3.172388 -10.919733 -1.2263284 7.1958203 1.5799053 -4.163696 5.023979 -0.53373986 -1.3369322 7.4417963 7.1060853 -0.1742336 -3.247175 5.4287987 1.1240429 3.4982812 -2.4058511 1.0161407 -1.241362 -1.9920694 -2.871303 -1.8212581 1.3763222 2.4664073 2.0505424 8.700568 -4.0562387 -1.3135895 -2.6363196 -3.476795 -7.3411083 -0.013157245 4.276649 5.256453 -1.2711103 4.5458794 1.6126044 -6.5727386 -1.4481986 5.8393025 2.7391481 -0.013552433 4.7208185 7.5075674 1.1385221 4.1257634 2.2969155
原 1.2263832 2.4097793 2.1552103 5.2293468 -3.7919593 -1.3483086 5.871655 -8.576238 -0.45462677 -0.07056107 10.020038 -1.0531121 0.82293934 9.928834 4.3477874 -0.9454137 3.4900253 0.26542673 6.320226 8.980411 -3.5368588 -0.7849398 -4.6185856 -2.5755801 3.3977299 0.6400889 -0.77233744 2.1608589 1.9313855 0.4598492 -0.38449648 1.2819442 -2.3271239 1.494621 -5.5278826 -1.0075849 2.9061723 1.124527 3.0353162 -0.5829054 2.391357 8.828911 -0.98511326 -5.461152 0.27943346 7.914552 4.836015 -4.0550613 3.6753662 -0.99964494
编 -1.5346648 0.75370926 -6.6295934 -3.0103664 1.6534823 1.0380269 4.28474 -10.271766 -4.9102964 -5.2935047 -8.146934 0.059500095 4.3811574 4.5963845 5.036631 2.0983536 -0.73996764 2.1904967 -2.3401499 -2.6658533 7.6337366 2.4644942 -2.8117251 3.6634135 -0.4331577 -0.85228527 5.139975 1.071871 -0.70931965 4.782047 -5.4798617 -2.6323764 -1.2571943 -4.3058615 -3.8196704 9.9083185 -1.8507825 7.523336 1.6495686 -7.219035 -7.001584 0.2540579 0.4628469 -5.612915 2.454051 -1.2235701 -2.012687 1.5903758 -5.292085 0.90371454
目 11.024541 -2.0582263 1.6066616 5.0334935 -3.1620836 8.679462 -8.2414255 4.5648046 5.2931733 -4.9619374 1.369521 5.795911 1.42594 -2.4425092 1.6749814 -7.5893226 -5.190504 -8.762033 -0.44507873 -4.728898 4.611 5.002238 0.42464614 1.636577 1.5931242 3.1954873 1.4132326 -3.6847665 -4.3155694 -1.1917051 -6.215896 13.7612 0.2248341 -2.0836024 1.991585 -5.685125 1.0462215 4.5549726 2.9487686 -0.7473691 0.49144435 0.5743928 -6.2617736 0.7394693 -1.9946483 1.7954373 -3.9110181 -2.6275055 1.6075698 -8.122496
够 -0.80640537 1.6549282 1.189903 -5.222793 -0.110097654 -4.0759573 6.2735596 -2.69728 -3.2304401 10.588099 1.0450823 -4.657915 -6.3763137 -0.42860577 -4.1552753 -0.8789328 3.520921 -1.33401 -0.64279354 -6.0348268 5.835435 1.679503 -0.90481406 -1.5606799 -5.526848 -2.6891007 6.507827 3.4624019 1.3771477 -1.5869972 9.707261 -0.33180922 -6.347089 2.2176676 -2.3092573 1.2262982 6.44316 5.2978024 7.586409 -5.0399485 -6.1158333 8.007006 -0.8087306 3.8550842 0.6034555 1.7185498 4.0095143 -2.34264 -0.62947136 -2.7174525
助 0.7148496 -9.0284605 -1.6141131 1.4358189 -4.846847 -8.281142 0.9007187 1.567908 -4.495149 -2.122742 -2.1810958 4.531346 0.5026706 -2.3232172 -1.49349 0.70754904 -11.740886 -1.1536549 2.0676818 -0.16934901 2.3256307 1.1598141 -5.507583 5.5549726 -1.3129249 -0.8224643 0.007381891 5.4624953 5.3625016 2.7318563 -3.131935 -3.495371 5.076215 6.6527314 1.7579447 -0.5066978 4.319024 4.5946484 6.567314 -2.0630312 6.168167 2.7315874 0.1664771 -7.9136443 0.76620996 1.428873 -1.3411552 2.2390406 3.1567628 -1.249609
延 -3.0816548 4.880957 1.7853502 2.4265306 1.113797 -2.6130435 -2.178874 -2.2548614 0.30430183 6.388874 4.823639 -10.180294 -0.18047012 -1.1006244 -3.3384147 5.2442827 -1.807863 6.769339 7.023763 -6.8574257 -0.49829608 2.9132144 -1.3271888 -4.7496758 -9.445646 -4.9860415 -1.025416 -1.8645365 2.7984562 3.9023247 2.7159884 -5.7827725 6.7133307 -2.7901847 -4.0928516 -0.96050715 0.5548003 -3.2765887 -3.9553468 3.2511184 -1.0960433 -5.3954415 -3.5199172 -2.0489743 5.3441553 -9.99345 3.7015612 2.929437 -1.1042287 -0.5621639
办 8.092857 -3.4678178 -1.1529934 0.7271819 -2.1329825 1.9494556 5.417657 -1.6345152 -3.0620682 1.6183928 0.9430812 -5.5201917 0.3323295 -5.437779 -4.898063 -5.1184235 2.331545 -1.1135216 -1.4305441 5.1914988 -1.9236349 2.3082185 -1.8598151 0.44234526 2.983301 -5.7970834 5.914237 4.030102 6.625991 -6.6312313 -0.8054727 0.40369275 6.084937 -0.8806194 8.152599 3.147901 4.2853656 -4.0030727 6.2836103 -1.4471279 -2.5226486 0.76784414 3.7974045 1.3471451 2.9199855 -4.239667 3.1165893 0.37517038 5.6742697 0.6399572
检 2.4813786 13.223092 -1.0785823 0.4976241 4.526454 -1.1000199 -6.504461 10.550807 -2.0169344 0.7783785 3.0866995 0.7265567 5.9300933 -1.6696035 3.3475575 0.9206179 4.9697266 2.4308655 -3.4151003 -1.2149996 3.004699 5.622275 -1.8120013 6.230493 4.5105577 -0.37274688 -0.43610853 -3.1195252 4.7170496 8.5280905 5.612449 1.0481281 5.2299943 0.7184146 -1.1970761 -2.6497335 -0.7527082 -0.42678174 1.6063709 6.587351 -4.0775433 -1.8052715 1.9162639 0.48766828 -5.278339 -10.32697 0.0059293285 -4.9395905 -1.2307727 1.4437203
重 3.1476738 4.0632896 -3.879041 6.2594895 6.657301 5.3533006 2.129481 1.2783637 -3.692212 -2.4374857 0.5915069 -6.3143125 -3.4875531 3.093056 6.935705 3.6539524 3.5557897 0.86517394 8.085809 -1.0403718 -4.090408 -1.0329834 -6.1654344 7.0068054 3.161934 4.360585 -1.5589808 -0.7250903 3.6466038 4.908372 3.1394527 1.3760703 -4.500323 -4.73818 1.65346 3.3988712 4.9768896 2.353404 -9.171448 2.2872763 -2.0580063 4.0791726 2.1726055 -4.2921762 0.49780536 -11.74071 -9.309416 -5.738625 -3.9715781 -0.005002932
概 5.121631 -0.63426393 6.738427 -0.93902516 -10.426423 -0.22844496 9.895013 2.5629804 4.0998025 2.9953496 0.43155023 0.4177421 -1.8060329 -5.7978816 -1.5704998 4.7435455 2.9678977 5.524742 5.1800046 8.435163 7.2091804 -2.6775904 -5.7119007 7.8768773 4.11428 7.7835274 -5.9237776 8.341514 4.067565 -4.4140058 4.0309014 -5.455625 -0.36965856 0.10455818 1.6025195 -5.436613 -5.850336 -5.945413 4.130278 0.3480386 -2.2732964 2.2228599 3.7258198 -1.3444551 3.9121673 -5.1819596 -6.360269 -8.436814 3.979422 -5.0559573
结 2.1500955 -0.22474729 1.6974771 -0.49939457 1.7618477 -1.2295251 -6.205615 3.160228 -3.0588942 -6.4438877 1.7101337 1.8193635 0.89256 0.69460434 4.4552374 1.2976948 7.3243904 5.6477947 2.912374 -1.1289134 -2.4953768 -2.3850286 -5.3144917 4.23227 2.3264847 1.1576805 0.4501564 0.8689665 -4.442307 4.521021 3.684724 3.9882982 10.092306 -5.3278103 5.914618 0.1076438 -1.2849865 0.5746069 2.568492 8.089397 -4.3798776 0.17643812 -0.78847593 6.694894 7.8465047 -3.4670188 -5.3569245 -3.8326163 -9.394249 -0.52338046
束 2.2076793 4.667473 1.7563435 -6.0991497 -4.227697 3.6962793 -4.7041254 2.4285345 -3.2703617 2.1278367 4.3071394 -3.8775938 -1.3236978 -5.086705 1.6766534 -5.4818363 2.055249 3.71209 4.0401516 -6.70949 -7.8553333 -0.70803374 2.7864168 8.158668 2.4141715 1.7353368 3.8656366 4.2508 -2.4388375 8.12525 0.05198889 -0.098056346 4.695105 -1.9782786 4.8810363 -1.4114985 0.33253226 -5.831178 6.764088 7.4460382 -3.7442243 3.162057 0.26705462 10.678584 2.8319774 -4.08327 -0.99405473 -1.8972713 2.3325117 -5.0293703
个 1.6727215 -0.24317099 -1.9612116 -4.431189 -2.552915 -2.0558245 -4.4625525 1.7722187 -0.5478122 1.015872 15.377898 0.8520047 -1.4193522 0.71960396 0.47760656 5.6364326 2.5082142 -2.6848283 4.4855356 -1.6652021 3.3973365 11.230076 0.7452169 5.793198 3.962847 -0.50912803 2.4059114 -4.2018147 -3.791537 2.5533504 5.9042025 -0.5294711 -1.3966168 -3.4356334 5.2295628 2.9870758 6.090466 -6.814511 3.4064946 2.6666048 -4.6481533 -7.978355 0.8564551 3.159408 -3.327713 6.3963103 2.015362 -8.815379 -1.9961903 0.99806464
收 -3.0918956 -9.153777 11.019458 -10.616507 -2.8985262 4.701763 4.280102 5.078093 4.2788405 0.96047306 -1.0407966 -0.41633737 -0.42126048 -0.22319253 -4.164235 1.0409731 -5.6766267 2.1715226 -3.7426746 -10.34716 -0.8479099 1.1349607 7.747988 0.034222264 -6.8162246 -0.6795619 5.9636755 -3.5285935 5.364782 6.0631924 -1.4861839 0.24764082 2.503474 -0.48128593 -0.51605237 2.929148 2.0976589 4.3995957 -4.539666 9.661907 -0.9707569 4.427321 1.1057357 -5.8674054 2.600848 -0.88244647 2.6881752 2.992354 -4.064745 -0.5262232
退 0.79433197 -5.8469486 -5.3869395 -7.535472 3.034741 -3.1985462 -1.0051887 3.8387058 -2.358705 -4.033024 -1.7022263 8.998716 -0.7765187 4.461383 -2.2425194 -2.3100445 5.525949 6.1062617 6.379305 4.351024 7.816112 4.968253 -5.787488 -2.0486324 -5.8067064 -2.2406473 -0.14888997 -0.3242554 1.7114081 -1.3508517 -0.09435268 -0.61240834 -4.7384524 -2.3996017 2.5219185 3.1372552 -1.6450567 5.386961 3.4829879 0.8998842 0.6667743 3.56682 -6.409183 6.3410664 -0.22568125 0.44816187 1.958277 -2.2406812 0.5325179 -4.394855
档 6.6543765 -3.6510506 -0.10484676 2.4872375 3.1438596 4.432471 3.270363 -11.819413 -1.9268069 -0.78802574 -9.334948 -6.187589 -3.5948796 -0.75090444 2.1652339 6.4134693 -6.5419254 -4.247744 1.9948164 -2.4155636 -3.649938 -4.1622276 6.7795672 9.26985 7.7810655 1.1122961 5.616594 2.5908222 -10.319016 -0.94188917 3.760798 2.8258781 0.19408168 -0.03766763 -1.7870305 2.7689662 5.007942 -2.5995517 1.4386072 -5.290052 1.9469519 5.2185025 2.514747 1.2874277 1.0644901 -2.6917458 6.3389297 -1.7772602 -1.0302204 -0.50075215
北 -6.4794946 -1.1040055 0.4722017 -2.9566083 -5.489252 -8.998489 -3.2208958 -3.2825258 1.5067652 -6.8287086 3.937964 -0.85438627 -2.909334 -0.7338136 8.86349 4.7543364 -3.425353 5.249602 -2.978497 -7.1184726 3.757031 5.7768745 -1.8810567 4.433069 -2.0782273 -3.258212 2.5164957 6.862216 -1.2314128 -0.65640277 -1.5394026 2.1218588 -1.8477217 -6.1399636 5.312338 -2.4129698 2.1693897 -0.79067826 6.9020247 4.27699 -6.900453 -5.562308 -1.5727994 -2.1150632 0.76689416 0.08174655 -4.246345 -2.3327246 2.0932443 -5.339176
京 5.316959 -3.5596611 -0.50884306 -4.0269585 -4.978242 0.5340992 1.2613192 -4.7362614 -1.035445 -2.6086254 -1.5706729 0.3199812 -7.6945353 -7.2053256 1.0077554 4.7414265 -6.247028 8.5655 -3.2776234 -7.3814726 6.08905 5.640901 2.9836047 1.2315521 -3.2607048 3.734057 -2.3054762 5.319055 6.321267 2.887011 -0.15112463 -0.44243395 -4.1363873 -4.977772 1.6396865 0.43484715 -2.754766 -2.456552 5.368884 2.5177627 -2.6916747 -0.6597332 1.5087563 -2.2824836 -3.97551 1.72509 -5.047489 -1.5514871 5.255597 -0.004657181
果 -1.5727075 -0.92855835 -5.295491 5.9513416 -3.205685 3.3112912 3.8380964 5.7974515 5.682717 5.0425096 -2.1993303 -3.3066552 10.189936 -6.3012757 3.1268563 1.9357841 1.9032146 -4.117438 1.5588822 -1.0772586 4.108483 -8.498025 0.41124213 0.52946544 -0.8142609 -10.370914 -2.1599169 6.549557 -3.1098008 -2.150191 -0.5553847 1.2602923 -1.9010603 -0.017033147 0.86005753 6.0424953 -0.7323762 -3.7201 2.8086915 7.63711 -6.164836 1.7989945 7.095085 -6.1354804 1.1436383 5.8362536 -0.6959859 3.641921 -4.3706126 -5.077731
换 0.25902307 3.0128608 -7.372663 8.925379 -3.1499448 -3.1657848 -0.3082503 -4.2922015 -8.19742 -0.30405107 -1.0267466 0.57696414 -2.9915557 6.980357 -2.9715903 -3.9195752 0.056646846 -2.4686413 3.4477122 -0.39914367 -3.4398189 4.1939864 -2.8132598 3.65056 4.837161 -2.4354665 -2.4474092 -1.1535811 8.760285 4.3750997 6.7675676 4.8982286 0.37231222 -4.5354066 -1.0125192 -8.137125 1.4359256 1.2811399 1.6879276 5.157574 -2.5003803 5.2824817 -5.055505 3.7214968 2.492981 -4.545631 2.9073687 4.5692387 3.5129054 -1.7492561
给 4.860021 -6.613993 -1.060354 -1.9166178 4.1688476 -3.8975236 3.6409266 -2.6668978 4.5310516 1.3546999 2.1838648 0.1677592 4.692441 7.806527 -11.180215 9.444027 0.07656302 5.409728 -4.5820947 3.6204207 -0.9796842 0.063200794 -4.2154865 -1.1125674 -2.6503398 -1.6609206 -1.6555468 2.5704472 -2.0944922 3.8871694 10.070788 -3.8537467 4.515048 0.033534724 -5.3400555 1.1293083 1.9145498 -13.466334 -4.6918206 -6.068021 1.3831457 -0.5250533 6.0563517 -1.0731732 -4.099975 0.1164065 4.4884663 10.624845 2.314393 2.6649053
工 5.544133 6.2593446 -9.978037 -0.5320548 8.901742 -2.276809 4.9359527 8.02607 7.120163 -3.6428912 2.5884204 -1.1828996 8.775777 -5.0436616 3.3135478 4.1847186 -1.4476111 -4.9336267 -4.103236 1.3463352 0.089554034 -1.5854329 2.2699332 -5.1244874 2.781225 9.929563 1.0671139 0.35229528 -2.6555264 5.327566 -6.4592476 1.24143 9.597448 5.5292788 -0.5573794 4.4858813 2.0866516 -1.4383096 0.34215096 5.546198 -14.788399 0.3740618 2.8115213 5.6705894 -1.9141324 0.39803636 4.1153107 -3.2706044 1.7251554 -0.34377974
篇 1.576485 3.9574962 2.2501016 -3.2943964 0.6201361 -0.50738776 -13.829117 5.405911 3.0623524 4.552369 3.1031458 -2.0931907 2.6189268 -3.9459448 -0.9477335 1.8084728 -2.312764 2.1279857 -1.5611113 5.5558805 4.0642347 -1.083413 1.4182812 7.488656 4.8204947 -1.516443 -5.8794003 8.607937 -0.66604733 -4.086684 1.8885564 -1.6167077 3.581858 -2.3567567 5.007537 3.4696074 -2.9091835 7.349333 -3.4329448 1.7934256 -2.8293169 -3.577813 -3.694759 -0.9152725 2.7689497 5.943182 4.533476 3.134285 0.77982086 3.9130836
读 7.0665092 8.47996 2.6594877 5.9179063 -6.3582344 5.879215 -4.075588 3.0599117 2.336004 -0.12837791 -5.861273 -2.605501 -3.4902015 -5.4937673 5.2676277 0.1819525 3.2153952 1.4593946 -3.5382686 3.07361 -3.7953913 1.0780226 -6.5557327 -5.004657 -2.607574 -0.33930483 1.3161776 -2.6538618 3.1905322 1.1295881 -6.0679536 -7.7201166 2.5938408 -1.6767511 -2.0341413 1.084797 1.0956533 -2.8927817 -5.4948273 -0.5396792 1.9203928 -6.049011 -0.8752031 3.7872303 4.4783974 -0.59783447 -5.855411 11.027673 -0.625575 3.4347153
满 -0.45749384 -3.5508606 -4.4459014 -1.0675933 -1.907459 3.9709935 0.33930254 -0.0061666463 3.4831295 2.4526243 6.56408 7.214808 -8.141643 8.339357 -4.409859 -2.182279 1.300563 0.94376576 2.9519448 -2.7552269 3.454979 -7.0789723 1.7646743 -7.218454 -9.679945 0.28291398 2.334081 -2.6664298 4.215235 -2.0098739 -6.513528 5.7593794 5.672678 7.2761416 -3.5993886 0.017754428 7.039273 -2.6540444 1.2527686 -9.748013 8.617255 0.70464903 -6.388198 7.799824 0.113159634 3.0153165 -0.42558882 -9.381563 2.3819282 3.8097737
十 4.258577 -1.5033684 0.9313906 -5.004976 2.1764219 -1.193781 -2.591489 -3.0910246 -0.6022939 9.156417 1.4735316 1.0857291 -0.24469584 9.662348 -3.26835 1.479337 -4.192027 -5.055089 1.7657708 -5.2750134 9.286277 4.3630342 -4.6724625 2.911148 -7.7144885 -2.0662587 7.348621 0.8961565 -4.5155897 -2.2585328 -1.0595871 7.0904675 8.237193 1.5745388 -3.9249568 5.4411516 -1.1719294 -10.924369 -5.765251 4.324557 6.236811 6.0930805 -3.2778647 3.919508 8.373455 2.6241562 5.0849395 4.9662046 -0.3583775 -0.25709635
页 4.008371 0.9824101 4.711259 -2.2678154 -4.062895 -1.0979732 1.4575392 6.9525504 5.0387115 2.9780786 -0.06890192 -4.871385 -1.602456 0.3314153 2.6640432 -6.0687127 -12.078161 -6.6484857 1.7719091 -5.0780287 -2.7988403 2.8426683 2.3626027 0.28202128 0.73512965 -0.44556955 -4.252144 -0.5231588 -0.41140974 0.3926204 -2.8951933 -1.1894839 3.3009043 3.2503383 2.8208692 -1.1178609 5.1379743 3.778553 5.210727 4.368953 -6.0320053 -3.8232167 1.3268698 2.4874234 -8.968672 0.99039996 -3.6433876 -1.8294492 2.6962745 -0.86624354
载 0.4977658 2.5532424 6.619156 1.120996 -2.6663306 -3.0766325 -5.3291535 6.2023225 2.0645761 -0.97338194 -1.6438978 -5.2544847 0.9272765 4.3982186 5.5541945 -2.6149359 1.4763507 -3.5319781 -5.935298 3.0146198 -0.81610805 -8.858272 7.3987026 -7.4913697 -0.9628435 6.0624948 -1.3877046 0.59713966 10.515593 -6.6423454 4.0751944 2.755899 -3.6239233 0.0761783 4.303483 -3.8305078 -1.9808909 -3.367158 3.655338 -4.3996086 0.22393192 -1.818846 -4.134687 -0.081078365 1.1615068 -3.719636 -0.55286163 -1.3134395 -5.3071933 9.009838
技 -0.1512859 -6.0380983 -9.830806 1.5561477 0.89125764 -6.4533587 -7.0952344 -4.170108 -5.2910895 4.0249214 6.019934 0.2389803 3.2091687 -0.88072115 4.535121 2.2526255 2.6623206 -2.0109713 5.7809644 -3.5264304 -3.323479 -0.3057129 0.68042034 -4.4356017 2.1375897 -3.0780494 10.407626 -2.997769 -4.122245 0.4691752 -6.0319095 1.4267508 -0.6668234 -1.2204 -2.0708718 1.1043398 1.8412771 0.0034537932 4.1741486 4.6022553 0.5781375 -2.2500002 -3.5186687 -11.476152 3.063157 -8.578544 -3.4959352 0.24166219 4.0100036 -0.29393137
