440 200
学 0.22740524 -0.31253105 -0.23342055 -0.2930858 0.31775317 -0.3332406 -0.09186726 0.24043751 -0.028286295 -0.014448622 -0.31956565 0.19158635 -0.24121422 0.27590296 -0.12865601 0.11765289 -0.23715237 0.3756777 -0.26551965 -0.25425133 0.09705208 -0.35185763 0.2491316 0.2004683 -0.16605864 0.01973648 0.5046394 0.12950972 -0.2988647 -0.306971 0.21317486 -0.26073083 0.3564121 -0.1634766 0.041115858 -0.258183 0.23728248 -0.325996 0.21960683 -0.092934854 -0.079852745 0.2976433 -0.10096058 -0.18892622 0.12388547 0.09151291 -0.16884771 0.007906995 0.3798274 0.0029383183 0.07234602 0.06022234 0.30687717 0.28730804 0.040436238 0.13611 0.0030158274 -0.028289478 -0.018313337 0.24078655 0.2816158 5.4811266e-05 -0.02124788 0.20322801 -0.2604954 0.095325656 -0.12607008 -0.14507852 -0.4274946 0.30636173 0.088158645 0.21979126 0.20006752 -0.029147113 0.042965077 0.14444739 0.27604175 0.02474114 -0.18290517 0.015959755 -0.12668985 -0.17905505 -0.08873445 -0.047053587 -0.4539437 -0.19809933 -0.060937807 -0.1327729 0.012256562 0.01978051 0.36855304 0.09515659 0.20202 -0.1342074 0.46425763 -0.056946296 -0.28487334 -0.117679656 0.0666879 0.14504072 0.06012789 0.12275761 0.3409552 -0.06965489 0.057647265 -0.29370025 0.079198845 0.3206233 -0.19056882 -0.19402805 -0.27641797 -0.1413014 -0.36763132 -0.08153321 0.014365046 -0.279828 0.003079202 0.27292937 -0.023461295 0.09753313 0.24861497 0.2728146 0.41654134 -0.3612724 -0.10257177 0.073656045 0.0374623 -0.23255867 -0.18015651 -0.14479639 0.14421189 -0.18888168 0.1636049 -0.21043268 0.31206074 0.07873957 -0.1194748 0.26729688 0.07443254 0.1938211 0.3484019 -0.18150066 -0.34723714 0.20865439 -0.31368977 0.075466216 -0.20926544 -0.176774 -0.032197535 0.04460246 0.03281617 -0.5388858 0.26450118 -0.18234134 0.3311491 0.3830396 -0.12593089 0.05779126 0.018739402 0.23516525 -0.21657139 0.0076908646 -0.29547557 -0.16189827 0.16282892 0.24087057 0.39940113 -0.48203006 -0.09210714 0.031531412 -0.41228434 -0.4280479 -0.11592104 0.09764155 -0.03641653 -0.21659033 -0.26720497 0.16764055 -0.10652553 0.30254745 -0.25884035 0.5662976 -0.13362898 -0.1303402 -0.16882218 0.26451853 0.3965193 0.07167886 0.5566413 0.16927546 -0.10859182 0.03681189 -0.20989843 -0.339898 -0.096114025 0.2931131 -0.38189688 -0.15804508 -0.19894567 -0.13152769
课 -0.26708302 -0.9112603 -0.45472503 -1.1959293 0.3373737 -0.86429757 -0.10250915 0.7694366 -0.032782644 0.168714 0.02472286 0.5054388 -0.60952514 0.18454528 -0.011621067 -0.24964322 -0.060546637 0.6504647 -0.7874597 -0.8576927 -0.44422045 -0.56976706 0.4093759 0.11637172 0.2201544 -0.52928746 0.55671793 0.79535615 -0.7574447 0.106439866 0.81257015 0.07284899 0.42006117 -0.5356872 -0.11553273 -0.4527971 -0.20574184 -0.37853065 0.17105065 -0.0808955 -0.21218191 -0.67390966 -0.10945176 -1.1738724 0.5007261 -0.816869 0.16323042 0.20789604 0.5363037 0.38387737 -0.08204611 -0.14246875 -0.065372005 0.38157198 0.25857115 0.21998635 0.48639464 0.19380069 0.38997453 0.8143362 0.38265598 -0.2755553 0.29260513 0.2583299 -0.80377233 1.1177473 0.10407642 -0.066553414 -0.9883477 0.75200045 0.38050205 0.32425535 0.6636156 0.3959722 0.1529391 0.42832556 0.64771146 -0.54636025 -0.9149768 0.39065155 0.26552135 0.07378483 -1.0980637 0.34966192 -0.2311556 -0.12685129 -0.2079355 -0.4255461 0.7393485 0.67669755 0.028971119 0.14667997 0.027424077 -0.3989992 0.3301865 0.42543083 0.29351357 -0.26345137 0.09870074 0.09545427 -0.47209778 -0.02710751 0.12473931 0.17815135 0.23138118 -0.645748 -0.1785187 1.1423061 0.38727495 -0.63835883 0.12484648 -0.047592413 -0.4860495 0.19966176 0.12859432 -0.041600995 -0.21812968 0.28342575 -0.61872417 -0.014629709 -0.14456491 0.28297955 0.61634934 -0.7061797 -0.0032718724 -0.07805051 0.018245207 -0.07050394 -0.57009786 -0.1658205 0.35951474 -0.69430184 -0.12511334 0.07738983 1.0784934 0.166405 -0.41499856 -0.2655144 -0.29682598 0.4501241 0.42473444 0.69383156 -0.8762823 -0.32885578 0.37146008 0.060574103 0.09030708 -0.25307307 -0.03967783 -0.13596109 0.3424255 -0.3770176 -0.49200332 -0.48102176 -0.3841344 0.40007934 -0.46174794 -0.12709418 -0.23189443 0.17818718 0.081002735 0.2820724 0.29318488 0.12415017 0.086555235 0.6885834 0.39810476 -0.27461067 0.15111397 0.11034395 0.030827027 -0.90114903 -0.27436087 0.7383388 0.026637077 -0.4956038 -0.84819114 0.055119835 -0.234953 -0.11643867 0.21134637 0.3408967 -0.15550527 -0.63531065 0.20571727 0.48390424 0.8302408 0.071704306 0.7567047 -0.13428602 0.2437474 0.066061065 0.3210097 -0.34414214 -0.0136982845 0.3838269 0.044724092 -0.8915568 -0.32078436 0.012181033
中 0.10940436 -0.17452726 0.1352302 -0.20849085 0.87804365 -0.19938713 0.04184137 0.25065076 -0.03231006 -0.18686014 0.16972059 0.043167025 -0.26936626 0.12659204 -0.214375 0.121694826 0.14122494 0.13818291 0.30942428 -0.59155655 -0.07082087 -0.009385263 0.2883722 -0.11803448 0.18706997 -0.39616492 -0.24661663 0.26495674 -0.19218174 -0.040467862 0.49293715 0.28185055 0.14833862 -0.115288585 -0.078686506 -0.26312453 -0.53873885 -0.5543923 -0.10061678 0.090440795 0.16085206 0.090932034 -0.35283345 0.12493739 -0.114667095 -0.19508141 -0.07632962 -0.48766735 -0.045842588 -0.008831789 0.38058615 -0.14862132 0.023619361 0.13399816 -0.41483828 -0.18903498 0.061033715 -0.07398498 0.31806758 -0.034450088 -0.35383812 -0.14028338 0.068540566 0.06269405 -0.64414275 0.3155617 0.53128064 -0.04980717 -0.51133454 -0.18643485 -0.17622349 0.25883448 0.30865204 0.03369035 0.37764218 0.20515035 0.15797825 -0.19715482 -0.616407 -0.25049922 -0.17447361 0.36596516 -0.16650592 0.117825195 -0.029870948 0.4061727 0.2377486 0.020554105 0.41393524 0.2597675 0.06160841 0.1000736 -0.093848236 0.24114035 0.1713418 0.20348881 0.24601038 -0.17926703 0.38254377 -0.13420166 -0.36207497 0.022955326 0.020158108 0.16175348 -0.16993342 -0.4542931 -0.41970152 0.59581983 -0.15685254 -0.14253964 -0.25866953 0.2665829 -0.4888042 -0.044809196 -0.017595261 -0.011558385 -0.2405341 -0.40303376 0.077949025 -0.24238808 -0.21620257 0.20294791 0.28767776 -0.2739086 0.3866447 0.017566951 0.112480596 0.0502143 -0.26630953 -0.13716862 -0.18841429 -0.37067646 0.121102795 -0.22250511 0.38403058 -0.09826436 0.29090247 -0.08181449 -0.13906457 -0.2472976 0.12994742 0.009566715 0.15755141 0.19498253 0.23893751 -0.05331075 0.073373236 0.25990227 -0.018417193 0.15088156 0.0471143 0.13793921 -0.20486839 0.10007645 -0.18294324 0.08503465 0.09955064 0.14864017 -0.04402837 0.049812574 0.58485454 0.4384863 0.29303977 -0.05449075 0.6616536 0.13311078 0.16242382 0.36149785 0.002014682 -0.13115889 0.10111369 -0.010638042 -0.080669075 0.11720089 0.2156651 0.33462575 -0.3866448 -0.05433501 -0.6602561 -0.26963246 0.022838378 0.24645142 0.16305497 -0.26353967 -0.19237635 -0.441464 0.34380975 0.40664124 0.019851593 -0.0126871 0.36941132 0.4075473 -0.29156506 0.31013453 -0.30875948 0.16508216 0.074794106 -0.27358797 0.021766225 -0.29185024
提 0.051587187 -0.06415397 0.070680924 0.3498584 0.71961415 -0.045706954 0.1574253 -0.07437827 0.07134356 -0.14131704 0.3122101 0.1731855 0.53067404 0.3010351 -0.11728277 0.27661577 0.31645316 -0.1573951 0.3674225 -0.36902556 0.009603103 -0.16445151 0.24500069 -0.23276278 0.20374851 -0.31013483 -0.31902865 0.051798273 -0.17033795 0.07341398 0.63530624 0.13052651 -0.0764428 -0.040884703 0.35092416 0.05636356 0.18490417 -0.32317287 0.10413849 0.063951395 -0.13864614 -0.18920076 -0.38364366 -0.09364493 -0.20032276 0.26627254 -0.20707211 -1.170065 -0.09993209 -0.12565774 0.6283112 -0.11618225 -0.7791333 -0.15479937 -0.1502486 -0.4612909 0.17682101 -0.2810787 -0.35040858 0.118468925 -0.5492488 0.022071743 0.14333408 -0.0010627742 -0.035249453 -0.22804295 0.07810744 -0.120501705 -0.28240076 -0.11042291 -0.54183483 -0.008885361 0.14742973 0.027561964 0.6907424 0.044247713 -0.18554942 0.09261086 -0.4290711 -0.23321643 -0.34875613 -0.012934921 -0.14310536 0.4058427 0.045325413 0.5941835 -0.28067935 -0.41160372 0.31228328 -0.19806196 0.47436634 0.49559078 -0.5203344 0.26409778 0.14663704 0.3375545 0.017106019 0.20847148 0.3097841 0.29758614 -0.28576288 -0.005876951 0.33059868 -0.31703183 -0.22655623 -0.67314804 0.29919544 0.5492404 -0.65570843 -0.10338798 -0.16693482 0.20769438 -0.38747048 -0.5294022 -0.052078914 -0.278542 0.08807862 -0.68219835 -0.2256596 -0.6636302 0.037431892 0.4197119 -0.14573649 -0.5366452 0.59280455 0.29873815 -0.09877388 -0.10653523 -0.33587044 -0.31153592 -0.706462 0.36747086 0.12829547 0.06817808 0.056285452 0.036553483 0.20571321 -0.0034188842 -0.18125245 -0.17626272 0.30548686 0.11660221 0.33226493 0.29112738 0.062187746 0.0206297 -0.22412379 -0.20449059 0.52933043 0.37901652 0.36591694 0.021453388 0.3802269 -0.13542567 -0.30323195 0.096590094 0.11630516 0.48919976 0.6849423 -0.12631601 0.10710758 0.13251531 0.25480306 0.26801786 0.262706 0.031836726 0.24086407 0.3719569 -0.17435144 -0.44949737 -0.5066139 0.02132221 -0.022712378 -1.0639148 -0.053262506 0.15890555 0.04122547 -0.3292281 -0.3167573 0.34020695 -0.2483812 0.0026034308 -0.1295157 0.108225286 0.29104358 -0.45085904 -0.087687016 0.41041398 -0.13634089 0.20535684 0.04754949 0.2090819 -0.4209954 0.5419736 -0.37243158 -0.19009657 0.21078439 0.12223266 0.0014494319 0.13303001
论 0.039044227 0.25172746 0.16104291 0.57674044 0.40763122 -0.33471283 0.47320837 0.17453204 -0.3383886 0.18033971 0.50128424 -0.3550323 0.4090518 0.55614376 -0.19660714 0.02941071 -0.27186033 -0.20678909 -0.41658187 -0.13473038 0.16637398 0.4312527 0.29460397 -0.026958521 0.3999425 -0.38123342 -0.08415088 -0.17394479 -0.15219973 -0.4019119 0.5487927 0.32254812 -0.12191132 0.35230932 0.23500629 -0.23274305 0.40671864 -0.031160487 0.23653395 -0.67497075 -0.25927725 -0.18542792 0.03130682 0.37322646 0.2935291 0.010977734 -0.088273294 -0.39259443 0.26501477 -0.05304211 0.20573975 0.047015503 -0.39773327 -0.72905177 -0.26869413 -0.3478985 0.4931203 -0.4418435 -0.19134012 -0.031278834 -0.39498398 -0.22880855 -0.033209767 0.0293416 -0.42213398 0.49989262 0.07348892 0.96071434 -0.45146412 0.16770993 -0.045375828 -0.605711 -0.0864482 0.4739747 0.50559556 0.04247875 -0.08800386 0.01868529 -0.63691634 -0.42526272 -0.19307028 -0.49136615 0.106586695 0.4368706 0.3008951 0.44142485 -0.11615398 -0.6090668 0.18838689 -0.29756704 0.22625148 0.26341048 0.16778469 0.84260726 0.7153523 1.2059153 -0.04120545 0.21432495 -0.13791394 -0.20825224 -0.55290717 0.13559839 0.19247611 0.18528393 -0.3267273 -0.43628007 0.12428569 0.1773084 -0.040910725 -0.3501095 0.46235493 0.06206191 -0.03017321 -0.4951054 0.6301673 0.124333754 0.23795536 -0.57987916 -0.019847784 -0.118054874 -0.28383508 0.6938303 0.042584784 -0.29283473 0.21009134 0.46322998 -0.39158186 -0.32968092 -0.111661136 0.04311448 -0.08139345 0.6355392 0.36728972 0.13570161 -0.516801 0.3486819 0.008985438 -0.23332423 -0.08209926 -0.05347124 0.8815436 0.15700227 0.22384082 0.11761598 -0.10202447 -0.08553166 0.053954665 0.17974587 0.626632 0.16482069 -0.0508981 -0.110105574 0.20046307 0.2684684 0.35275447 -0.26617342 -0.34513822 0.066114634 0.33166802 0.2237703 0.6611597 0.24508211 -0.3030233 0.18532385 0.064572856 -0.10556366 0.4054026 0.05981923 -0.25917748 0.3113231 -0.021743562 0.12859084 -0.09894829 -0.62586266 0.12996152 0.23725902 0.19030145 -0.36044392 0.27911532 0.44986424 -0.14082026 -0.43264303 -0.1675018 0.07668096 0.10363352 -0.4603492 -0.26051933 0.25969875 -0.007665882 -0.3316411 0.5375013 -0.08609768 -0.29101413 0.602048 -0.14038202 -0.37043488 -0.082664296 0.6914432 -0.43224385 -0.16986513
培 0.31834745 -0.47197536 0.01720439 -1.5473015 0.62184715 -0.5903024 -0.44701052 0.7139348 0.5306137 -0.4842492 0.14811587 0.48255923 -0.5654513 -0.094748005 -0.19070612 0.059346963 -0.28250405 0.37276274 0.12655716 -1.2049944 -1.2932287 -0.13406917 0.48562145 0.03922377 0.578251 0.26679075 -0.47531128 0.40988973 -0.73977643 0.76455706 0.101644576 0.0071586156 0.7718679 -0.21466848 -0.30761653 -0.39658874 -0.3233338 -0.60304195 -0.26092318 0.1682859 -0.22484764 0.45300746 -0.6578462 -1.414413 0.26531202 -1.1303083 0.38511303 -0.5008419 -0.32767788 0.667226 0.04991505 -0.4688625 -0.27213642 1.061661 0.13172026 0.4379113 0.14389268 0.19018133 0.315719 0.93226326 -0.68948954 -0.43702787 0.53402245 0.24825832 -0.6629194 0.33983663 0.44142243 -0.9898627 -0.40837306 0.26239365 0.17492974 0.8699218 0.22569987 0.24882622 0.18478157 0.15916276 0.76445544 -0.8556452 -1.091034 -0.22231315 0.051346783 0.6700442 -0.483836 1.1876923 -0.9996516 0.3425015 -0.0064478107 0.50490516 -0.154339 0.35377565 0.84418184 0.06915414 -0.22748718 -0.584681 0.1511009 -0.3390414 1.0799309 0.0044295196 0.36828902 -0.35978925 -1.0027317 0.30947754 -0.18525285 -0.39289925 0.299778 -0.54313505 0.18546821 1.0378652 -0.3795595 -0.26094332 -0.4159478 0.66142905 -0.50545245 -0.014136963 0.19594377 -0.2262421 -0.6312693 -0.14521444 -0.37660417 -0.29725218 0.059307862 0.11153945 0.5487883 -0.28601986 0.43070215 0.026144482 -0.19347899 -0.07307065 -0.9613171 -0.18329726 0.16597657 -0.24847457 -0.2805181 0.023697097 0.9519377 0.15622911 -0.626631 0.15343812 -0.60897464 -0.3825559 -0.012986473 -0.1913607 -0.33310738 -0.3799481 0.032092806 -0.4598415 0.16336603 0.11150262 -0.30483252 0.094910085 0.3993343 -0.33453682 -0.487928 0.12866652 -0.99386895 0.8148925 -0.14215115 0.060286593 -0.41937348 0.603794 0.31364116 -0.046838604 0.5335016 -0.064572975 0.6116082 -0.18474646 0.465285 -0.109827906 0.6270638 -0.040475056 0.34382364 -0.4029876 -0.10180999 0.006847819 0.8451395 -0.061968822 -0.6812958 0.4729861 -0.17674372 -0.5929103 -0.061060272 -0.07015048 0.22929062 -1.0500277 0.2794551 0.25201088 0.77817124 0.24985862 0.47443745 -0.030456178 0.54778886 0.38352534 0.28134158 0.00087465165 -0.051241774 0.055678036 -0.27023 -1.0774558 -0.43777898 -0.07329947
养 0.29799834 -0.4726062 0.07160519 -1.4997067 0.719408 -0.5073572 -0.31968817 0.7606094 0.68779224 -0.6361667 0.18424623 0.36093047 -0.53195125 -0.0028664742 -0.30984753 -0.016217528 -0.08761727 0.44989392 0.24592654 -1.1163956 -1.168922 -0.19221836 0.4855283 0.09345533 0.7544448 0.23390734 -0.5329553 0.55659086 -0.77013254 0.78102034 0.05090148 0.07027448 0.6784095 -0.22840685 -0.24124202 -0.4636662 -0.3291211 -0.60828686 -0.2581275 0.09707794 -0.14356555 0.43969923 -0.71343076 -1.4044857 0.21386822 -1.1493373 0.5031654 -0.5810818 -0.31679305 0.68337876 -0.007890958 -0.4491261 -0.26909134 0.9548464 0.033318125 0.29600388 0.1626607 0.16827647 0.29652488 0.91172653 -0.7959858 -0.49368593 0.6451112 0.27876833 -0.7467184 0.43743032 0.51026464 -1.0124567 -0.4594825 0.3028326 0.16322814 0.85237354 0.3920769 0.263267 0.19740663 0.12236669 0.7521937 -0.8984432 -1.1330872 -0.19438891 -0.07872083 0.65307534 -0.4224767 1.1970375 -0.9607355 0.3600159 0.09132783 0.489702 -0.2592455 0.34879214 0.8723203 -0.02885681 -0.19151652 -0.63831025 0.11997702 -0.27180162 1.0974286 0.16277926 0.4125472 -0.18677728 -1.0309467 0.42234686 -0.27561095 -0.30788833 0.26303494 -0.62846714 0.05330535 0.8693926 -0.38552615 -0.29510775 -0.5094472 0.76265115 -0.5785621 -0.011758421 0.14951286 -0.12104031 -0.5823529 -0.13797183 -0.3862745 -0.30108118 0.14750572 0.12056005 0.54501396 -0.23266648 0.5448606 0.14431143 -0.15349518 -0.04891386 -0.837233 -0.1650229 0.100247234 -0.16512974 -0.35777575 0.06949233 0.906479 0.06172569 -0.529222 0.1291112 -0.5779007 -0.41634032 0.077782534 -0.144031 -0.27535847 -0.47590265 -0.038937308 -0.56971693 0.06557244 0.19550465 -0.22696127 0.050850853 0.3881368 -0.29697534 -0.6143657 0.16271515 -0.97008556 0.77887493 -0.20575966 0.042738542 -0.4225068 0.5752587 0.40086883 0.032589212 0.6562413 0.010934262 0.61314213 -0.32259673 0.48376203 -0.10474503 0.7380102 -0.037223034 0.3684689 -0.3252728 -0.13583311 -0.1578573 0.832254 -0.039144613 -0.7263227 0.41284496 -0.2714377 -0.6586542 -0.029846773 -0.18376578 0.24797803 -1.0542765 0.24933845 0.27871257 0.7692715 0.27104017 0.4604675 -0.16164209 0.5914742 0.4488725 0.18171814 0.035802856 -0.11929132 -0.018138634 -0.15604725 -0.9276314 -0.38750857 -0.042459574
导 0.6889823 0.37359205 0.13041902 0.21672744 1.3341768 -0.6406897 0.17268758 0.0636512 0.24157572 0.09457389 -0.55731714 -0.51058346 0.004664123 -0.2856529 0.07743855 0.48177704 0.2399562 0.30802998 0.83943945 -0.7934273 0.64900106 -0.62032044 -0.35420987 -0.2444546 -0.8337352 0.037478507 -0.755985 -0.6509928 -0.42943993 -0.04631633 -0.38000357 0.053908423 0.2322245 -0.51143754 -0.7590562 0.10598385 0.3112409 -0.62324655 -0.7558202 0.6683456 0.8695656 0.21875417 -0.38992208 0.55985385 -0.04087939 0.3551425 -0.014882454 -0.5586808 0.25869358 0.15232809 -0.10764757 0.27998388 -0.14236549 0.08678524 -0.27569118 -0.7974175 0.0040060906 0.27065828 -0.17623666 -0.05688382 -0.51336396 -0.22903533 0.49325976 0.09866803 -0.5233867 -0.20196934 0.029155234 -0.5192829 -0.83959454 -0.09675961 -0.73469704 -0.1162884 0.5134589 -0.5520843 0.3254843 0.12642944 0.371119 -0.5316528 0.041565593 0.2817784 -0.93217814 -0.27602872 -0.005899151 -0.33731025 -0.32582507 -0.25058758 0.26758063 0.9023888 0.2487527 -0.12882876 0.3867101 0.43285686 -0.38764375 0.33758 0.23642008 -0.45669526 -0.66718465 -0.20497012 0.40072104 0.2844384 -0.19633418 0.1426197 0.62252635 -0.052574437 -0.5664589 -0.30619088 -0.26860085 0.29028472 -0.015906667 0.2206959 -1.1313907 -0.06647689 -0.5131684 -0.3932558 -0.40048707 -0.55483544 0.019724144 -0.5295219 0.14871633 -0.21606837 0.4998354 1.0593905 0.25884107 -0.57014686 -0.6117523 0.22271681 -0.6518259 0.4751437 -0.44520167 -0.6978868 -0.22652973 -0.5093828 -0.10870813 -0.30219612 -0.446608 -0.15049322 0.40888184 -0.549233 -0.5111241 -0.82142776 0.04344339 -0.67926985 0.031027816 0.44485128 0.19239521 0.285822 -0.6500589 -0.03951356 -0.14014326 -0.37465572 0.2920628 -0.29346704 0.5772676 0.15637042 -0.52092713 0.54587966 0.2421454 0.5006166 0.17119536 0.21028139 -0.6032552 -0.107748605 0.16052294 -0.07282121 0.50658894 0.2568445 0.02520778 0.118869066 0.24596526 0.19972865 -1.0078851 0.70636064 -0.10796041 -0.23285608 0.37603527 0.7046028 -0.44024786 -0.283435 -0.5906763 0.40651608 -0.6094058 0.82994306 0.26663458 0.15836066 0.0003737283 0.5346379 -0.10922858 0.63522875 0.2180359 0.5646159 0.14480966 -0.08274227 -0.8138928 -0.78640133 0.1476275 1.1226892 0.98272383 0.081539884 0.13390599 -0.34765837
审 0.8063062 0.2509805 -0.07554062 0.25155124 0.8020758 -0.46289942 -0.39514777 0.121188946 -0.04698251 -0.069567926 -0.94352454 -0.02451447 -0.15589385 0.57085925 0.2614188 0.23187041 -1.1196139 0.08414778 -0.022785055 -0.39517158 -0.41942462 0.42765507 0.22762068 -0.3156711 -0.23602672 0.39012277 0.11501779 -1.225339 -0.42731944 0.04804981 0.17446254 -0.66511583 -0.16277944 0.5301208 0.11567483 -0.24255894 0.3360219 -0.31867656 0.10512067 -0.95023894 -0.26634675 0.9303672 -0.5626339 0.4593264 0.80320317 0.1302848 -0.56699485 -0.8252373 0.1588719 -0.13709612 0.44985303 -0.93577975 0.090621926 -0.021230634 0.014821745 0.16788827 0.13038507 -0.52679616 -0.6086362 -0.1430657 -0.121251315 0.2815688 -0.282114 -0.07187063 0.2785796 -0.33115026 -0.6578935 0.6141053 -0.3874865 -0.00089336524 -0.2859183 0.06831035 -0.66666484 0.012478949 0.20552498 -0.14074472 0.12857805 0.5087954 -0.5401939 -1.0052398 -0.007944315 -0.07253489 -0.009145403 0.56055766 -0.21748221 0.12381202 0.050205424 -0.122948416 -0.4102715 -0.49664477 0.66457415 0.14503327 0.15926138 1.0984081 0.54813606 0.29118824 -0.16931051 0.31582138 -0.105422 -0.3642587 -0.86368096 0.39991477 0.64483964 -0.7591324 -0.23756932 0.28462476 0.70486027 0.46268368 -0.544757 -0.25830325 -0.23602526 -0.14105037 -0.30323085 -0.3629184 0.908227 -0.5694541 0.25953254 -0.08357634 0.105297014 -0.4277152 -0.21796426 0.55026144 -0.16524373 -0.16079085 0.20954862 0.30626482 -0.4850988 -0.8409633 -0.64881307 0.18956977 0.05637265 0.6024262 0.5363141 -0.024846463 -0.037033282 0.7436465 -0.2684752 0.8118672 -0.21133432 -0.4797462 0.5739085 -0.65176463 0.3782191 0.62472993 -0.6335885 0.5530307 -0.21632276 0.26354882 0.009074757 0.5344138 0.09977725 -0.17678227 0.807955 0.25595927 -0.21978264 0.7040619 0.24951091 0.12481757 0.028354498 0.6573202 -0.18067826 0.047333464 -0.7176365 -0.19563401 0.37128836 -0.51004153 0.31787667 0.06306149 0.010580818 -0.31992048 -0.024861433 0.21865015 -0.1549116 -0.3800194 0.55067515 0.38672474 0.5761218 0.16254565 0.50986266 0.27204314 -0.27886397 -0.3320868 0.735592 0.07361628 0.4551798 -0.16479573 0.06416697 0.52145517 0.22057568 -0.31937864 0.2944469 0.045450885 -0.12889512 -0.11005108 0.044081405 -0.11745949 -0.71346277 -0.37457865 -0.30180663 -0.13640279
文 0.0832671 0.19511531 0.16810659 0.7711315 0.32401425 -0.42621368 0.7248461 0.14518988 -0.404848 0.15608545 0.59139097 -0.5701856 0.39079633 0.7191041 -0.33787394 -0.03920407 -0.18020992 -0.13831666 -0.32685426 0.011610392 0.36465266 0.30401367 0.24704714 -0.0012312462 0.343064 -0.5047942 -0.12582244 0.02821187 0.05695552 -0.40718868 0.65338445 0.45404807 -0.22618426 0.3324917 0.2800231 -0.082473375 0.38297522 -0.061901767 0.2760645 -0.9093046 -0.28103894 -0.257085 0.09421235 0.57742757 0.41018724 0.09926841 -0.15282477 -0.3703748 0.37346017 0.00079112424 0.26575854 -0.013132859 -0.42587346 -0.8540395 -0.3657217 -0.14277118 0.38391778 -0.46180984 -0.22061071 -0.1363328 -0.2413527 -0.032052524 -0.07681506 0.0379166 -0.41487792 0.39912656 0.16467904 1.3067703 -0.37158105 0.27501443 0.037236527 -0.6788901 0.0370557 0.4731876 0.6135873 0.1691027 -0.13628143 -0.06982645 -0.670009 -0.5462944 -0.27255717 -0.58616596 0.02617081 0.5558094 0.4027834 0.48732463 -0.07526342 -0.61110497 0.23600097 -0.40472275 0.22441208 0.22461015 0.28263056 1.0473423 0.77323693 1.3234605 -0.06463467 0.07960058 -0.21481667 -0.15186726 -0.40992942 0.263384 0.17530349 0.22391301 -0.5270275 -0.4159221 0.072456926 0.044423055 0.16698971 -0.49178284 0.63789713 -0.08640433 0.11567494 -0.39999586 0.66120625 0.18515079 0.35800353 -0.80258846 -0.0920132 -0.23659118 -0.20907526 0.5945543 -0.03184615 -0.23871388 0.062763914 0.5255672 -0.38134503 -0.371061 0.07266463 0.15984036 -0.068668745 0.6590664 0.26815018 0.17747197 -0.6795617 0.31752095 -0.0036207996 -0.54742515 0.011387239 -0.046206754 0.8344135 0.14914237 0.24009472 0.09087104 -0.14195284 -0.16157782 0.046473086 0.12025189 0.630356 0.13377053 -0.028723555 -0.14213975 0.091241755 0.29472053 0.2631402 -0.33242133 -0.14410433 -0.0005611569 0.24506369 0.11715993 0.9020678 0.3085344 -0.41204768 0.11696916 -0.1083655 -0.04628146 0.2523149 -0.05329018 -0.37988803 0.30083436 -0.06832336 0.21258065 -0.06645118 -0.6786809 -0.0029457777 0.45020232 0.00781432 -0.33818594 0.18956962 0.4256619 -0.16337599 -0.4910992 -0.17139037 0.13522671 0.261926 -0.52776676 -0.33889458 0.18137413 -0.11257352 -0.4087391 0.6025943 -0.09180071 -0.40407038 0.6681526 -0.2733072 -0.45744866 -0.030029448 0.8487332 -0.30982488 -0.1825065
请 -0.1296151 0.9055526 0.42665598 0.62096006 0.5946174 -0.23909838 0.508252 0.7268331 -0.24043159 -0.1775454 0.16539007 -0.51676595 0.2567558 -0.0034237418 -0.030855121 -0.45471922 0.3074397 0.09723425 0.08153398 0.056720648 0.39708382 -0.25763682 -0.6772403 0.098305315 0.30655235 -0.4788206 -0.3332871 -0.5824172 -0.5606772 0.22194861 -0.23495068 0.26024988 0.07047128 0.21606909 -0.070097566 0.17399448 0.15908505 -0.02094374 -0.3578316 -0.5300362 0.14249718 0.1863089 0.04151755 0.60683775 -0.12977894 -0.29569122 -0.25330743 0.15664737 -0.115720205 0.14798152 0.18150465 0.2080431 0.0020236594 -0.21161062 -0.6872307 -0.074326545 0.013682626 -0.17563273 -0.21137293 -0.16509056 -0.32739207 0.03214911 -0.07720764 -0.52118856 -0.46766677 0.47139788 0.24844801 -0.07389978 0.22329248 -0.196492 -0.11676699 0.06804608 0.018678375 -0.053886093 0.36093977 0.16274326 0.5525146 -0.071707465 -0.31823146 -0.08997145 -0.036195375 0.22302118 0.12018798 0.24649674 -0.24593972 0.42391858 0.51771957 0.42646068 0.19377968 0.2869843 -0.42454618 0.24554282 0.029118551 0.3734418 0.25911918 0.38408837 -0.0523078 -0.14137167 -0.3089193 0.27873138 -0.5480474 0.61309344 0.027823789 0.50410545 -0.32348505 0.3251344 -0.58866066 0.23766808 -0.5208372 -0.24492991 0.08437294 0.078590564 0.3766369 -0.067542076 -0.22627826 0.04353579 0.13215098 -0.45086467 -0.027234709 0.17842804 -0.36717045 -0.053347018 -0.009374825 0.1684149 -0.18236111 0.44565988 -0.32530764 0.07859506 0.56579614 -0.638287 0.1528527 0.21673031 0.025042914 -0.37169933 -0.11569255 -0.22051895 0.20390138 -0.7290742 -0.16113394 -0.74588203 -0.06617332 -0.29291812 0.10833527 -0.2128401 -0.08455578 -0.27025345 -0.19225715 0.4419301 -0.1854694 -0.27862772 -0.05808077 -0.03148373 -0.61507297 0.59182245 -0.35326636 -0.17195429 -0.23135754 0.4588126 -0.49117565 0.039051753 0.52806544 0.2255292 0.17764622 0.13258892 -0.048017435 -0.028133847 0.32176012 0.07635594 -0.071284264 0.07092102 0.11667082 0.48122332 -0.1031589 -0.18884176 0.49862626 0.6030105 -0.14007229 0.4725414 -0.19632441 -0.1078384 0.20241632 -0.19330642 0.31103808 0.33517718 -0.8053456 0.28012392 -0.1018203 0.28138518 0.008295871 0.13195154 0.84580356 -0.029569758 -0.9627402 -0.27260652 0.1582138 -0.19842665 0.25532132 -0.033994906 -0.20269585 -0.37479442
师 0.6406938 0.26686335 0.02047376 0.27593875 1.2967739 -0.6757873 0.2714686 0.030795256 0.3174246 -0.10291348 -0.76933223 -0.5220889 0.12276189 -0.121212736 0.021666732 0.44180897 0.24955827 0.4600731 0.96051735 -0.6102111 0.7626705 -0.7256119 -0.35629106 -0.17268917 -0.6796104 0.12486749 -0.66041434 -0.5608845 -0.49901497 -0.09980792 -0.3415209 -0.09014498 0.16774493 -0.44570374 -0.61786795 0.10929511 0.3742537 -0.6629189 -0.76901317 0.4800186 0.7369565 0.13531098 -0.6588671 0.36834216 0.04337305 0.24636647 -0.019569537 -0.59456134 0.28586468 0.086957835 -0.1677474 0.16056997 -0.21292569 0.14165914 -0.24345587 -0.6632255 -0.16420136 0.16821888 -0.27210546 -0.099858545 -0.4342741 -0.23698637 0.535298 0.29896185 -0.38436192 -0.025024794 -0.11363017 -0.63604784 -0.7624333 0.079645954 -0.69654226 0.12914911 0.59429353 -0.50021976 0.13968515 0.19396037 0.2502351 -0.48926243 0.21751249 0.38787994 -0.9442378 -0.39332396 0.009593698 -0.4416455 -0.38889664 -0.47335336 0.2831892 0.75431174 0.18295468 -0.18563132 0.37641194 0.38413733 -0.3348 0.31028453 0.32852834 -0.34752032 -0.7457348 -0.04975657 0.4281448 0.58976865 0.00904195 0.11508709 0.62607557 0.02186163 -0.52059615 -0.21744819 -0.23676871 0.19845818 0.03764169 0.23331587 -1.2319492 -0.07624153 -0.49540883 -0.29942968 -0.3924341 -0.45883566 0.14457 -0.47323835 0.17784116 -0.21185367 0.6397744 0.9503061 0.2811669 -0.6481597 -0.67474645 0.2558687 -0.45061448 0.45959184 -0.30555126 -0.70852405 -0.23053776 -0.37712952 -0.28730065 -0.11104564 -0.42271948 -0.1845507 0.36720097 -0.40996456 -0.4498582 -0.5355235 0.24833888 -0.5811956 0.055864993 0.36946198 -0.045596052 0.17007491 -0.7970014 0.061024122 -0.2197023 -0.3092523 0.43070945 -0.28369528 0.47938856 0.039037876 -0.45040748 0.6547931 0.2132622 0.5937874 0.2032437 0.021583676 -0.7318191 -0.08527344 0.09019963 -0.036705635 0.36171004 0.24444102 0.16841121 -0.18636715 0.19038711 0.11730261 -1.0405765 0.6830288 -0.2174762 -0.47731316 0.2499769 0.48368353 -0.32231346 -0.35367137 -0.6855277 0.6524981 -0.6772791 0.7519249 0.19042234 0.10079362 0.078385234 0.5674959 -0.13554019 0.6013615 0.29905167 0.4231487 0.09162282 -0.04327119 -0.88244647 -0.64674324 0.062644996 0.88130975 0.9026642 0.1576556 0.2640872 -0.30356354
分 0.13756025 -0.38717076 -0.32498655 -1.1297636 0.68588156 -0.9762888 -0.15987992 0.4519442 0.002201076 0.064521365 -0.24697413 0.45258832 -0.538054 0.32461682 0.18797065 0.15267472 -0.6544227 0.47004595 -0.7055034 -0.75792766 -0.45666757 -0.4686938 0.4384235 0.24966918 0.1209389 -0.45323196 0.7366391 0.144135 -0.7340153 -0.19872037 0.5153453 -0.069606125 0.38096437 -0.2891248 0.19683859 -0.7091145 0.10192937 -0.6016222 0.38553166 -0.23663783 0.041562315 0.2798451 -0.10682673 -0.7634735 0.24591324 -0.5063601 -0.12496948 -0.04256537 0.59357214 0.3064763 0.33742598 -0.043655366 0.17031221 0.71951777 -0.07202027 0.45742276 0.6548588 0.16936484 0.4352613 0.90760964 0.44313353 0.06851868 -0.016086966 0.13738991 -0.46045133 0.58014053 -0.3029784 -0.3730592 -1.0497454 0.42261913 0.24435776 0.4498009 0.09851709 0.19871977 0.5179982 0.19241334 0.5964565 0.028603513 -0.9977641 -0.25490907 0.011382727 -0.06367675 -0.4158268 0.20744558 -0.5137686 0.3820386 -0.17895845 -0.41636178 0.61512375 0.50607896 0.3828543 0.12591176 -0.038934175 -0.13595688 0.4914051 0.018062672 0.1992473 -0.119799845 -0.04650152 -0.13279074 -0.7310014 0.23238114 0.33841848 -0.39267847 0.007900931 -0.17679863 0.019955035 1.0178915 -0.14334749 -0.72593004 -0.05536761 0.08653223 -0.42979702 -0.1244963 0.2627833 -0.47365168 -0.3225018 0.4993375 -0.3944023 0.02320077 -0.049214486 0.24977851 0.5803719 -0.47664052 0.02131885 0.23218383 -0.36763474 -0.40919706 -0.6431928 -0.16250959 0.38964826 -0.3478765 0.19981264 -0.103749774 0.97736716 -0.009061824 -0.09817772 0.19457918 -0.28523892 0.05206785 0.323783 0.22878972 -0.46348205 -0.040493682 -0.30375984 0.20639798 0.080413125 -0.2386641 0.0037570195 -0.13160278 0.22945091 -0.63395935 -0.22809042 -0.25940973 0.006493679 0.2928221 -0.51446 -0.043521598 -0.32067698 0.6166009 0.2999559 0.1444584 0.024543704 -0.08436965 0.19473445 0.24139439 0.50904214 -0.67189896 0.33264014 -0.120849915 -0.2744909 -0.57892805 -0.3341684 0.29944673 0.44988123 -0.012251619 -0.5601569 0.4541953 -0.24895166 0.047504988 0.0801525 0.3760127 0.08131985 -0.54030883 -0.07987476 0.21512339 0.8389702 0.52968484 0.63594013 0.13880709 0.19163963 -0.0014382704 -0.091091044 -0.5786014 -0.0002848512 0.2790203 -0.8063543 -0.57269126 -0.5266533 -0.12390641
生 0.3023133 -0.45467442 -0.31980276 0.19219947 -0.063050285 -0.40550256 0.24191433 0.22339763 -0.3263809 0.6947744 -0.018117495 -0.001007751 -0.16721345 0.279605 -0.3526173 -0.044278156 0.42970017 -0.046220824 -0.20740688 -0.30036953 0.8570936 -0.24297766 0.5239126 0.50250185 -0.5589081 -0.004066668 -0.27784523 0.36598969 0.2982392 -0.28559265 0.4006598 0.6123591 0.58591986 -0.34162548 -0.0027448926 0.67099464 -0.08753282 0.16617048 0.058052912 0.28409424 0.5472476 -0.10695706 0.01151119 0.018546417 -0.34645066 0.01844357 0.27207363 0.39333218 0.55990213 0.28858256 0.09671873 0.23886812 0.45686305 -0.2346935 0.17709042 -0.3897278 0.52341914 0.17221983 -0.14391533 -0.06497949 -0.07552695 -0.5083861 -0.08139376 -0.20332721 -0.89882326 -0.28566894 0.3576421 0.2238277 -0.6709607 0.30033284 -0.20085415 -0.8424621 0.5044887 -0.24804965 0.000803668 0.105984434 0.22525053 -0.3170661 0.21994798 0.5663343 -0.37514484 -0.0047516017 0.060003217 -0.0009718138 -0.32672164 -0.021527644 -0.08971337 0.6894794 0.19893353 0.7707013 0.50379306 -0.17341553 0.19177544 -0.45744768 -0.21440576 -0.55012226 -0.30984882 -0.13237388 0.20206524 0.045155305 0.7298777 0.24438444 0.20071352 0.14040816 -0.02170554 -0.43113577 -0.42283082 -0.3719488 0.1576544 -0.16381161 -0.5046162 -0.47036543 -0.4886094 -0.052133385 -0.13722907 0.21021165 -0.012839002 -0.3327144 -0.032692943 -0.09141522 0.26186213 0.41304776 0.24943526 -0.44585052 -0.32739797 -0.018842295 -0.70695543 -0.05363516 0.0875208 -0.45100918 0.16258404 -0.7799684 0.06050493 -0.4908232 -0.20521207 -0.43693584 -0.042838875 -0.08173157 -0.2339347 -0.42452738 0.26100966 -0.8310918 -0.4748655 0.074319884 0.41798308 -0.33258304 -0.20825486 -0.26929384 -0.11548911 0.19199826 -0.08998889 -0.42465928 0.52919567 0.13742131 0.029343734 0.31004927 0.37416232 -0.043417104 -0.14205904 0.12353464 -0.032704394 -0.0730003 0.03102148 0.055406664 -0.27781498 0.48768863 -0.16791834 0.05317042 0.2099392 0.49693334 -0.45345575 0.36285156 0.3265709 0.10670576 -0.30478466 -0.05519021 -0.6380626 -0.12099093 0.32309103 -0.011567211 0.016405674 0.26960447 -0.5935746 0.15023462 -0.20192012 0.3022265 0.1316902 -0.12204643 0.49603862 0.38530296 -0.12175538 -0.3147698 -0.28587678 -1.0444448 0.19786534 1.2954662 0.6277818 0.42776954 -0.028798617 -0.5012635
交 0.13860862 0.10941648 0.0002249206 0.54332083 0.8446502 -0.10707473 0.08123689 -0.13165982 -0.0070177135 0.15387875 -0.015208658 0.16986203 0.42860198 0.27671415 0.11304984 0.24809347 0.31279218 -0.096561775 0.18099184 -0.38831013 0.058757238 -0.21191803 0.25721997 -0.24462426 0.062962934 -0.41380367 -0.20880145 -0.24826653 -0.31355393 0.23641929 0.46072996 -0.059664894 -0.15584074 -0.13243473 0.445351 0.26307294 0.37268633 -0.24673669 0.085283116 -0.036602926 0.04816343 -0.1200988 -0.33743277 0.055769112 -0.17228681 0.30391526 -0.30224293 -1.183924 0.14617501 -0.112224266 0.55879533 -0.18400647 -0.73060125 -0.09981769 -0.046506256 -0.47584483 0.3676918 -0.28179157 -0.51331466 0.0956405 -0.48289782 0.15835898 0.13907413 -0.19652507 -0.0122948475 -0.42424032 -0.068799 -0.07686385 -0.46456063 -0.042302564 -0.72065973 -0.19080622 0.18749227 -0.01268372 0.83028084 -0.015977984 -0.22452082 0.17085926 -0.461444 -0.22887029 -0.38295364 0.07199721 -0.14717263 0.4394875 0.041555867 0.7341035 -0.3675406 -0.1864445 0.29406404 0.0014502254 0.4425104 0.5255309 -0.6659405 0.3297673 -0.063402675 0.08438362 -0.19401164 0.22838987 0.25808436 0.3650585 -0.4653168 0.13088511 0.4086096 -0.56063277 -0.32839367 -0.5793246 0.22412185 0.6151924 -0.7639461 -0.21953623 -0.15418231 0.012375361 -0.4068468 -0.36666012 -0.084920675 -0.45574737 0.13448586 -0.61699754 -0.32441399 -0.8448433 -0.005510707 0.52198625 -0.40614837 -0.6083976 0.5595044 0.4189722 -0.3145441 -0.22082235 -0.2926845 -0.53739256 -0.6099485 0.18183735 0.15218846 0.035408054 0.12474831 0.027670696 0.396449 0.008091505 -0.23089913 -0.52613014 0.10334024 0.0541121 0.16644125 0.29643875 0.17872305 0.3825479 -0.338836 -0.28903002 0.45422673 0.3399323 0.4780406 0.114805095 0.44884232 -0.007907287 -0.5348091 0.1423215 0.33445483 0.44350135 0.61302185 -0.024833279 -0.13449052 0.091370046 0.3896257 0.34327078 0.16360123 0.026198823 0.120984025 0.46668795 -0.059423037 -0.38594365 -0.5001955 0.1759949 -0.1205399 -0.9034333 0.06296415 0.14052269 -0.120833755 -0.26950634 -0.1587872 0.26140365 -0.09254609 0.06725876 0.03792693 0.24239065 0.42841125 -0.2752199 -0.06961439 0.44924524 -0.15979438 0.24933727 -0.032986447 0.10227043 -0.4817028 0.024495354 -0.13336517 -0.0063613784 0.44761783 -0.09349771 -0.059859492 0.18614838
业 -0.10798501 0.13632421 0.06904321 -0.012565429 0.0054108305 -0.70028424 0.41033086 0.06357291 0.16996667 0.2100406 0.20216183 -0.022325544 0.5235869 -0.60723406 0.13399298 0.2015048 -0.49738094 -0.30072063 0.0821755 -0.47362575 -0.038086887 -0.121192165 -0.1811086 -0.24158606 -0.3282736 0.1490106 -0.7378676 0.014581254 -0.262217 -0.010095063 0.20067693 0.24060395 0.27308398 -0.28142273 -0.35834062 -0.14546634 0.56260043 0.13112436 -0.38651145 0.006970611 -0.20836045 -0.49160382 0.009556219 -0.14055485 0.56108314 -0.4207378 0.07209675 0.31175512 -0.2092975 0.46973354 -0.1081149 0.25659022 -0.7310421 -0.4098972 0.085730664 -0.2565087 0.43219376 0.13551518 -0.19422582 0.72794783 -0.24563238 -0.17475027 0.27936533 0.13722008 -0.07211863 0.23716927 -0.44039223 0.60085636 -0.16503936 0.16838217 -0.23539148 -0.31591117 -0.12407549 0.3206907 0.15573452 0.37589982 0.39967322 -0.33026776 -0.19923979 0.090146825 -0.31997448 -0.47015247 -0.34880275 0.22770715 0.15819107 -0.39195547 -0.10163649 -0.12788676 0.3732514 -0.25588417 0.086587645 0.8306096 -0.04826506 0.2226921 0.2502004 0.5440998 -0.037800834 -0.009502029 -0.38669825 -0.018859316 -0.45591366 -0.37374705 0.253501 -0.14073735 -0.05688442 -0.017972771 0.4853559 0.30501238 0.6678006 -0.2675302 0.2024053 0.27859098 0.06728033 -0.51278496 0.6538557 -0.566941 0.14531577 -0.047698587 -0.3869046 0.26735124 -0.04455241 0.65483326 0.15346526 -0.4585696 -0.07233383 0.15568791 -0.6117374 0.18064864 -0.49665478 0.18526387 0.010140589 0.4540672 0.060395665 -0.06241063 -0.5017175 0.16362475 -0.6581319 -0.50613326 -0.41612428 0.31924948 0.107587524 0.09011179 0.13136514 0.09914159 0.4107998 -0.062009826 0.11573307 -0.35567886 0.26191548 -0.42712468 0.3473585 -0.42544636 0.40805748 -0.024348836 -0.6840717 0.024833497 -0.5323853 0.3081978 0.19479321 -0.1786784 -0.25413525 -0.10100612 -0.20734875 0.03510057 -0.570513 0.029057778 -0.31354207 -0.19713119 -0.22654317 0.040880166 -0.5010431 0.061274067 0.17498547 -0.77434224 -0.15612076 0.23841648 0.22395182 -0.37660688 -0.044390358 0.7528956 -0.32346597 -0.42388958 -0.18870996 -0.20269793 0.4055083 0.40579805 -0.4169237 0.15589154 0.091577224 0.5431234 0.17026322 -0.30512553 0.10670555 0.13757534 0.019588295 0.16816436 0.6740956 0.5973308 -0.24650535 0.22405095
方 0.32990232 -0.82514197 -0.15414426 -1.244202 0.73309565 -0.4451004 -0.3626703 0.66617775 0.63607967 -0.722735 0.18290873 0.644955 -0.47044614 0.23593892 -0.37609097 0.0876171 0.10234262 0.41991115 0.36549523 -1.0280778 -0.9541257 -0.101792336 0.76192135 -0.09439725 0.73652357 0.20327893 -0.33678576 0.8768343 -0.5587562 0.44549277 0.51477915 -0.116186984 0.7147665 0.011112587 0.07889897 -0.5166484 -0.362109 -0.68626213 0.08162444 0.13457556 -0.29193944 0.24130853 -0.9192241 -1.3462509 0.27941957 -0.8752216 0.31953523 -0.79376763 -0.09832352 0.59438163 0.21885248 -0.5867133 -0.2565243 0.71324986 0.07085524 0.15100619 0.027755631 -0.08231885 0.00531692 0.7287351 -0.69016033 -0.32038364 0.46940443 0.33844346 -0.74731463 0.45913908 0.3462832 -0.6708218 -0.60504764 0.34587568 0.13693115 0.8241656 0.80527395 0.35500664 0.1855704 0.19329436 0.5702386 -0.55983794 -1.190866 -0.11699771 -0.08606567 0.57773983 -0.58796716 0.9450786 -0.6400661 0.25336727 -0.09411937 0.20972674 -0.1465036 0.2773786 0.88455766 0.010585318 0.04346809 -0.6234211 0.19622086 0.010657549 0.9663146 0.1269629 0.5819719 0.06461072 -0.5540781 0.30317256 -0.11559984 -0.10613994 0.3828623 -0.97242707 0.091025844 1.0659258 -0.37517083 -0.37709036 -0.5332838 0.59194624 -0.99400204 0.04678917 0.12865078 0.0068382043 -0.48324296 -0.22387086 -0.3642845 -0.42735043 0.05342833 0.2156606 0.44565728 -0.469561 0.8179988 0.035772532 0.18144473 -0.1867093 -0.873465 0.07945064 -0.116204344 -0.23297665 -0.080293074 0.09344924 0.8875101 0.14821923 -0.48933944 0.35233545 -0.44288498 -0.12641405 0.36144143 0.0055903764 -0.18346816 -0.098933935 -0.04502786 -0.40910745 -0.03883869 0.2020623 -0.18164034 0.5364624 0.4897503 -0.21609636 -0.22090182 -0.08933296 -0.76603556 0.85156703 -0.11647286 0.088290416 -0.06449795 0.2462929 0.27085102 0.20788293 0.51396143 -0.0055103204 0.46577796 -0.20452565 0.49642873 -0.09109005 0.43049064 -0.20373712 0.16448246 -0.50865 -0.12161295 -0.3802861 0.39118925 -0.35399082 -0.712181 0.1739703 -0.5349959 -0.46622562 0.007485052 0.1287373 -0.042873476 -1.0402478 0.3135473 0.12695484 0.7911121 0.16980256 0.6574055 -0.1978735 0.22050701 0.57291013 0.1569738 0.26858053 -0.38280213 -0.012803135 -0.2915217 -0.77054137 -0.05034337 0.001041698
程 -0.15148143 -1.0053438 -0.4502069 -0.9652898 -0.13466391 -0.5671149 -0.447551 0.7526667 0.042355534 0.16404064 0.2408187 0.61670846 -0.51829165 0.10697221 -0.21264996 -0.39816555 0.28184885 0.50001097 -0.82426816 -0.81539863 -0.36002332 -0.42337868 0.48798493 0.37811884 0.21133503 -0.30697012 0.38199395 0.6879404 -0.61859363 0.18319261 0.41784367 0.17319097 0.6033822 -0.34421167 -0.19209135 -0.20308383 -0.3231338 -0.2576846 0.12452856 0.17314298 -0.12582023 -0.50328 0.35277173 -0.927219 0.070155375 -0.41616514 0.40958983 0.3827917 0.4386721 0.27822122 -0.31077558 -0.054390118 0.25514945 0.24657102 0.47802934 -0.10779207 0.5172592 0.25151542 0.29687372 0.5267359 -0.14024115 -0.27750373 0.40380636 -0.008348559 -1.1221983 0.86759925 0.2502177 0.015118451 -0.95974725 0.56851566 0.29420602 -0.14112087 0.79247373 0.22823633 0.18554303 0.10811275 0.37618682 -0.4962197 -0.98013234 0.47382817 0.3338676 0.25288737 -0.76878595 0.4768077 -0.22802763 -0.02291048 -0.31161875 0.107014515 0.31540126 0.99812955 0.38506818 -0.015013009 0.012448396 -0.6602925 -0.17308328 0.21686172 0.27938908 -0.395294 0.31860194 -0.082301185 -0.26159668 0.0012334608 0.12607285 0.22599031 0.1893451 -0.9531298 -0.14841141 0.5716695 0.2544095 -0.44875005 -0.09991751 0.22281958 -0.6493645 0.13459598 0.09758531 -0.12583551 -0.43523973 0.2683482 -0.33749336 -0.041804094 -0.089578524 0.4341048 0.5866467 -0.44637698 0.17227592 -0.27252024 -0.1620928 -0.06157056 -0.50927335 -0.07504581 0.26748398 -0.78592503 0.0800879 -0.25012323 0.90606374 0.041897304 -0.45122778 -0.16324359 -0.37003934 -0.093928754 0.09641551 0.35261863 -0.7411006 -0.35865784 0.60973066 -0.09472308 0.17315042 -0.30916128 0.06622483 0.09522385 0.18784139 -0.31618646 -0.40984836 -0.35759047 -0.050622962 0.36174262 -0.3641451 -0.22471474 -0.15581702 0.46718994 -0.16283745 0.1978015 0.33992568 0.054180164 0.01966891 0.58734673 0.187255 0.12488932 0.21083935 0.5333564 0.03926454 -0.9230477 -0.00271273 0.93418944 0.0763854 -0.48604783 -0.83413345 0.13488042 0.020518854 -0.36145395 0.34036955 0.5243212 -0.5353986 -0.55812687 -0.06487498 0.5181512 0.71884143 -0.0779017 0.77368945 0.039878696 0.16604894 -0.096009694 0.45145676 -0.4501561 0.12509066 0.7577366 0.2196399 -0.6605706 -0.46338612 -0.12157325
毕 0.23452674 0.2605438 0.022017239 0.15690483 0.24724615 -0.86449873 0.34037906 0.12757002 0.20372452 0.42786068 -0.08801523 -0.23486342 0.58656335 -0.5175759 0.29635772 0.34189695 -0.48557028 -0.36246222 0.3169195 -0.4331199 0.21106955 0.0354251 -0.14627773 -0.177749 -0.61826724 0.33162263 -1.0881352 -0.09039524 -0.27904233 -0.10495063 0.08184018 0.468214 0.24133983 -0.30664048 -0.37181452 0.14671622 0.6931025 0.24044687 -0.5365905 0.16375491 0.077176474 -0.26554024 -0.25357932 0.11639022 0.62748575 -0.3796522 0.020354228 0.18599057 0.020242741 0.6111384 0.066303544 0.16948394 -0.6688302 -0.6636868 0.19611673 -0.7263324 0.6810963 0.2515077 -0.2849452 0.542352 -0.31923604 -0.5142415 0.07234137 0.084652565 -0.21574393 -0.11338841 -0.38352945 0.6394308 -0.37861288 0.2037552 -0.5223878 -0.8824082 -0.27801993 0.28225163 0.10453319 0.33320862 0.5580125 -0.30447376 0.12247299 0.14229038 -0.69913906 -0.3781941 -0.14968053 0.20641123 0.05079396 -0.4097519 0.07115555 0.17743893 0.37803173 -0.13319075 0.38012004 0.5424321 0.07092137 0.41344643 0.111952186 0.2901722 -0.2164822 0.15596601 -0.49662766 -0.02079893 -0.3238573 -0.2567732 0.38617188 -0.23842008 -0.06183053 0.12581974 0.41584402 0.14551494 0.5494361 -0.22258514 -0.11563252 0.035826627 -0.2038873 -0.6136667 0.6998697 -0.449939 0.1958613 -0.08740854 -0.45230016 0.25065973 -0.13242657 0.8635872 0.04120097 -0.7613453 -0.14532205 0.3666921 -0.9788773 0.035836432 -0.57789016 -0.03645648 -0.10234324 0.35119057 0.18921511 -0.23674463 -0.7222901 0.22508632 -0.5233908 -0.34896836 -0.6956195 0.055928905 0.35283977 -0.25407645 0.05060628 0.25992048 0.44719777 -0.08996159 0.10894339 -0.2889453 0.120379806 -0.321549 0.1058709 -0.5802119 0.75517994 0.23574978 -0.9490439 0.37475255 -0.27269074 0.2936768 0.2595939 -0.12468626 -0.38234997 -0.22127454 -0.1801529 0.17590065 -0.6784288 0.12760702 -0.3256327 -0.06589392 -0.001146931 0.13891138 -0.6838962 0.74517083 0.4146174 -0.97784024 -0.1240662 0.4624252 0.2832427 -0.65583813 0.07320003 0.7644316 -0.3571003 -0.46044946 -0.0906091 -0.05890816 0.43985835 0.5571733 -0.4102289 0.22072145 0.029254068 0.41450942 0.19193691 -0.44650862 -0.04781016 -0.21358879 0.12690333 0.64662135 1.1415395 0.7801572 -0.21466677 0.09335322
院 0.15919077 -0.044462163 -0.31454593 0.3972146 0.17420739 -0.34566736 -0.44599247 0.21492963 -0.10013656 0.4418931 -0.48389867 0.052277394 -0.053685516 0.23235951 0.17585264 -0.20674585 -0.39609405 -0.04209163 -0.36751136 -0.046621114 0.4247572 -0.26513696 0.027392836 0.5487885 -0.28772575 -0.08954305 0.57358027 -0.47086355 -0.14869975 -0.19540553 0.12891981 -0.0863433 0.15637149 -0.12154607 0.08110912 0.3296154 0.15850188 -0.044170998 0.217002 -0.25014198 0.12948672 0.6354023 0.573033 0.6125875 -0.085905425 0.64130044 -0.21165472 0.42964855 0.40818235 -0.07027441 0.671105 0.016669188 0.74187464 -0.15271166 0.10338875 -0.21013923 0.29488155 0.21090432 -0.17567262 0.1432556 0.5241026 0.275943 -0.32720947 -0.22347498 -0.6382356 -0.56649905 -0.1950186 0.5321423 -0.5538626 0.20641024 -0.2806732 -0.6417496 -0.23178503 -0.26633838 0.13701046 -0.14840548 0.18831016 0.43055055 -0.09470564 -0.24122794 -0.27668324 -0.04185798 0.0622391 -0.159229 -0.24042472 0.108598456 0.16213208 0.28961062 0.28496128 0.41203138 0.48828778 -0.11217776 0.23672041 0.4106854 -0.0110223275 0.000949823 -0.4921625 -0.46312356 -0.19555035 -0.25175822 -0.10757399 0.39421052 0.56699306 -0.4686823 -0.25665194 0.16307157 -0.03733496 -0.32274094 -0.3533838 -0.26742 -0.058078375 -0.6863947 -0.19719383 -0.21642992 0.2913182 -0.6398335 0.15806955 0.29788145 0.031201743 0.110358104 -0.11629906 0.27576905 0.2880297 -0.017014066 -0.21970886 0.1760869 -0.45779413 -0.45103416 0.07639678 -0.34450528 0.3006121 -0.13206698 0.5801586 -0.6949577 0.14302503 0.23309578 0.1604274 0.22887507 -0.083751015 -0.55066746 -0.19935788 -0.6114562 -0.05518721 0.23835984 -0.2518569 0.051520254 0.1050964 -0.12129435 -0.16414057 -0.1420053 -0.5319721 -0.46083063 0.39566717 0.17262213 0.07587844 -0.0047923443 0.15272063 -0.18165585 -0.29473233 0.47910264 -0.0236894 0.21638925 -0.4318371 -0.17975394 -0.23882131 0.29385877 0.05876432 -0.09469084 -0.11799756 0.2513549 -0.5955379 0.13523841 0.12503101 0.360896 0.1523414 0.66465133 -0.15487377 0.3477161 0.23151448 0.06942511 0.12551287 0.45763037 -0.018089682 0.37492985 -0.29997563 0.32587168 0.13040698 0.3125451 0.37256566 0.59685296 -0.034345835 -0.27983525 -0.44438916 -0.8929326 0.10997086 0.8246848 -0.2267751 -0.122885406 -0.28229523 -0.37656674
案 0.21921927 -0.45555907 0.10809086 -1.0463535 0.71894723 -0.30386084 -0.30424637 0.597129 0.75673795 -0.8885948 0.14003444 0.47330388 -0.29425624 0.08884197 -0.29287392 -0.049428876 0.017794967 0.35539424 0.59749097 -0.86141515 -0.99019754 0.0053603253 0.5012797 -0.17343199 0.9211996 0.26365307 -0.54591554 0.6198983 -0.6635042 0.6441716 0.18784468 -0.14577714 0.5335431 0.18510333 0.025497982 -0.4733246 -0.28422654 -0.5329356 -0.095740445 -0.07100129 -0.32869586 0.553628 -0.9196375 -1.2064801 0.27171466 -0.9160448 0.23053949 -0.74121946 -0.35572195 0.62807524 0.21097726 -0.6704839 -0.3310353 0.6062512 -0.012254779 0.1982262 -0.0728301 -0.1428244 -0.059679385 0.569092 -0.895001 -0.19929151 0.42180905 0.1108098 -0.6159944 0.29320642 0.22808915 -0.6668585 -0.31552944 0.18353869 0.02556716 0.95945066 0.620469 0.35639396 0.1826963 0.07324372 0.5672589 -0.5323815 -1.2032844 -0.26175663 -0.099387 0.7298067 -0.37974292 1.1495204 -0.61782 0.32661524 0.063609794 0.41057628 -0.36450413 0.17497678 0.8377458 0.015221522 0.03971362 -0.52727777 0.049977753 0.0604763 1.0913442 0.17896886 0.40377665 0.08097945 -0.8688769 0.5097188 -0.22804533 -0.211066 0.37911168 -0.7540955 0.062947854 0.89630026 -0.4559909 -0.36828914 -0.47248828 0.6689829 -0.72856206 0.060848232 0.24996449 -0.105159216 -0.5112459 -0.2494004 -0.38159427 -0.46618026 0.009237414 0.0776155 0.2868628 -0.2136258 0.9178164 0.15906918 0.05631851 -0.102736324 -0.73051274 0.14137259 -0.141031 0.13133225 -0.14281377 0.17044888 0.71751606 0.15968573 -0.4309338 0.3100192 -0.50028723 -0.392795 0.13110891 -0.09530504 0.075072065 -0.2754443 -0.23861128 -0.4608321 -0.025807261 0.3574748 -0.15656774 0.5164862 0.5020877 -0.13190944 -0.36335945 0.17894356 -1.0735692 0.74689925 -0.047550336 0.15355285 -0.30125332 0.27196947 0.44737992 0.2534938 0.6007192 -0.07907691 0.30070585 -0.5390035 0.38597202 -0.041657604 0.467244 -0.20958792 0.34164 -0.20794015 -0.03049583 -0.5782878 0.5316056 -0.081381015 -0.53965604 0.30531815 -0.6161 -0.63707954 0.0797381 -0.13258263 0.10514533 -1.0189146 0.278389 0.111575715 0.5240368 0.23320918 0.48220024 -0.20448971 0.4700215 0.6307586 0.08201583 0.30724642 -0.30543044 -0.30789787 -0.24421668 -0.8078876 -0.022755623 0.026056575
选 -0.26812017 -0.4980029 -0.22181451 -1.2600244 0.4898284 -1.1117309 -0.0053769043 0.89808595 -0.12655461 0.34989798 0.2565443 0.5624507 -0.7082146 -0.06643537 0.09442696 -0.18840168 -0.37510863 0.29758608 -0.6219389 -0.98845345 -0.754124 -0.33127525 0.26053855 0.0861839 0.1683555 -0.51413476 0.115655564 0.38997906 -0.61020553 0.22012077 0.8557233 0.34806168 0.44267556 -0.5127521 -0.03486181 -0.21991447 -0.4546418 -0.53141934 0.08544545 -0.13928038 -0.044939023 -0.39897776 -0.21524775 -1.0872958 0.45788947 -0.9336931 -0.01585949 0.16382559 0.2412252 0.5532267 0.33490208 -0.2594962 -0.15102619 0.7193457 -0.009214241 0.6631507 0.46920112 0.23979005 0.50466806 0.98384106 0.3865239 -0.20530266 0.09883733 -0.07327687 -0.55726373 0.8823763 0.34776258 -0.09222085 -0.88372374 0.3084732 0.35196564 0.5425024 0.22015849 0.18765624 0.42670235 0.5467819 0.739602 -0.6374724 -0.97364 0.07716951 0.108161524 0.35538733 -1.1305056 0.5288275 -0.38028672 0.35348 -0.08158525 -0.42299306 1.0074707 0.64389277 -0.1445293 0.24041979 -0.0012465579 -0.22495669 0.38687637 0.32796794 0.46635628 -0.31820497 -0.11846867 -0.26608306 -0.85164255 -0.1876687 0.108476676 0.047036342 0.18396239 -0.28591138 -0.19390367 1.2896209 0.29951534 -0.67366046 0.4012493 -0.28221318 -0.047714025 0.25446936 0.16883062 -0.017206728 -0.32175058 0.105099626 -0.64465714 -0.17604965 -0.29843485 -0.047668032 0.53330696 -0.71759635 -0.15894537 -0.027959125 -0.27763778 -0.14890556 -0.6408201 -0.30149245 0.5578591 -0.46162415 -0.03646937 0.09217787 1.1661212 -0.068190284 -0.58455825 -0.37070444 -0.53993297 0.20274574 0.22660954 0.48827276 -0.69365615 -0.14253578 0.4099972 0.09912156 0.15088323 -0.12509182 -0.17077222 -0.14177403 0.5420772 -0.26526073 -0.54883707 -0.08777526 -0.7199097 0.32699686 -0.30336365 -0.08875921 -0.5075163 0.121122964 0.40577298 0.21130674 0.31302997 -0.10123599 0.1574276 0.49715 0.31420654 -0.3447694 0.4232736 -0.09708307 0.13873719 -0.650304 -0.27394703 0.70287347 0.2698126 -0.07506046 -0.8210715 0.1353963 -0.25691974 -0.17884561 0.16243662 0.112127535 0.13336135 -0.6361794 0.07601157 0.20031475 0.83729 0.32811174 0.5441535 0.17718641 0.41991553 0.09836913 0.15752219 -0.3310791 0.06580828 0.43185377 -0.11240322 -0.9118049 -0.33591962 -0.05285186
表 -0.15774369 0.0060188044 0.2203664 0.33626875 0.035241626 -0.110845335 0.53868055 -0.06959468 0.047149125 -0.18525583 0.10987915 -0.54663163 0.4147684 0.11565078 -0.6874838 -0.15386973 -0.23562293 0.20267004 0.24282332 0.006233767 0.3645089 -0.11854224 0.07484911 0.054761995 0.13944611 -0.22785628 0.11063163 0.29254225 0.041869033 -0.5135943 0.38840312 0.029835956 0.20563363 0.37953764 -0.46664014 -0.5256056 0.27697757 -0.3306106 -0.009446966 -0.7246419 -0.72711504 0.07186616 0.13044392 0.22493444 0.72601193 0.067899 -0.093158975 0.13392952 0.009075812 0.13038774 -0.39042068 0.096214026 -0.25761804 -0.6795921 -0.19535963 0.19451493 -0.40786302 -0.41222808 -0.3485681 -0.2018725 -0.16068336 0.17862806 -0.067524254 0.4617681 -0.5549535 0.39671487 -0.01823073 0.69373846 -0.043573163 0.28667957 0.44014758 0.38189852 0.6700285 0.52304024 -0.015629863 0.13098663 0.2648523 -0.34560347 -0.44237885 0.059857633 0.03536676 -0.8854055 -0.18161476 0.109013036 0.0071543166 -0.69548494 0.011565369 -0.027667418 -0.29079953 -0.6470981 -0.12774748 0.59233946 0.43606985 0.50607926 0.9977497 0.9616652 -0.07225364 -0.37579393 0.23097797 0.19554088 0.15002947 0.33474562 -0.24113448 0.27591002 -0.039420176 -0.2538101 -0.16752045 0.24235852 0.2865402 0.1542322 0.20342378 -0.05995285 -0.108158045 -0.063874826 0.2837743 0.21320045 0.388867 -0.4929153 0.28655744 0.15264246 0.35629755 0.59509957 0.53786576 -0.019526366 -0.2667625 0.33824015 0.26817557 0.13658129 0.2242875 0.344918 0.17213842 0.5478664 0.08054825 0.050370738 -0.4512434 0.109988995 -0.40355062 -0.5755322 0.22246261 0.3120732 0.5550897 -0.12079984 0.24384235 0.1517582 -0.28891662 -0.41691092 -0.14769016 0.22753055 0.30519316 -0.22395948 0.023111187 -0.3042252 0.02289398 0.24272023 0.33109498 0.009925232 -0.17001173 0.24238327 -0.22824745 -0.28800592 0.5364274 0.24296068 -0.6177974 -0.3173048 -0.14630786 0.30539808 0.3469782 -0.41851848 -0.83739334 0.32419705 -0.3332689 -0.15518476 -0.16350603 -0.5384825 -0.44254827 0.11122905 0.062363572 -0.12005477 -0.5342968 0.71110255 -0.47149724 0.062111847 -0.39874825 -0.1093418 0.12845063 0.03042908 -0.31948134 0.16526577 0.52474535 0.10399979 0.4235611 0.08714728 -0.28595862 0.6840399 -0.23833594 -0.4167636 -0.16139473 0.41725206 -0.120110914 -0.3341615
统 0.74721134 -0.054917753 -0.45479092 -0.039564934 1.2008866 -0.5153257 -0.62317985 0.25726905 0.09992185 -0.0040545175 -0.84377503 0.6352953 -0.10338945 0.07047457 0.19508599 0.27122393 -0.16570228 -0.034329098 0.49388823 -0.4583812 -0.20406301 -0.012601493 0.36569756 -0.086179055 -0.49934623 0.46307847 -0.55066854 -0.44011137 -0.53508973 -0.09808405 0.45172969 -0.51809955 0.3451161 -0.0071366387 0.514914 0.13656217 0.2648111 -0.37239313 0.20541011 0.32883117 0.16888231 0.58844775 -1.0142506 0.052432533 -2.800691e-05 0.33966568 -0.28426284 -0.92528754 0.1622637 -0.007396646 0.8728017 -0.5593491 0.022389937 0.2711719 0.043857835 -0.28840423 0.26064518 -0.21182445 -0.523651 0.2897127 -0.2856841 -0.11110684 -0.10239035 0.042170525 0.022120615 -0.391579 -0.192535 -0.7468503 -0.51002485 -0.17014949 -0.6801284 0.014613241 0.2291162 -0.32301477 0.2811599 -0.0130533185 0.27374244 0.3702109 -0.17227824 -0.16045722 -0.68296814 0.60364854 -0.1722188 -0.041332528 -0.4772998 -0.0068218564 0.010004668 0.16330655 0.1836893 0.06720472 1.014971 0.15650602 -0.030979482 0.11956714 0.18920551 -0.40175617 -0.439858 0.37877083 0.27122447 0.049492184 -0.13850047 0.04091354 0.85219353 -0.45580631 0.20696034 -0.36894202 0.27590647 0.56883085 -0.9854704 0.118872255 -0.9613757 -0.3117901 -0.8299837 -0.3836735 0.10865528 -0.46293122 0.09647741 -0.18430135 -0.07687797 -0.3066554 -0.040469114 0.7209161 -0.069805376 -0.8349176 0.3242795 0.16009669 -0.19020374 -0.60393894 -0.6720672 -0.6974319 -0.22725359 -0.14962207 0.76431906 -0.19630295 0.3303466 0.27745017 -0.044696197 0.73727465 -0.5593247 -0.5315625 0.37274694 -0.6055304 0.17942187 0.95247793 -0.1678604 0.28222772 -0.59316134 -0.11419532 -0.19923493 0.76936835 0.3235058 -0.19202532 1.1331556 -0.10439524 -0.5031854 0.96260774 0.19966197 0.42502975 0.464145 0.21385278 -0.6943928 -0.23201948 -0.16295916 0.09670105 0.6677572 0.077153616 0.4694863 0.23219405 0.15401201 -0.4323504 -0.87038803 0.1381232 -0.01236667 -0.5902661 0.12950134 -0.06228862 0.0811459 -0.18358971 -0.101296835 0.43417236 -0.32745683 0.5439794 0.019942872 0.089158714 0.077226155 0.2041781 0.46664542 0.5290703 0.38105392 0.47851685 -0.28654265 0.26454368 -0.7728887 -0.52413815 -0.22237876 0.6521831 0.03706835 -0.13033313 -0.004783349 -0.083733514
期 0.038266018 -0.18690376 -0.015539168 0.055890206 0.567942 -0.22529261 -0.32845053 0.06471211 -0.83600265 0.6734349 -0.2656902 0.36509773 -0.54366267 -0.08847045 0.3607658 0.078367025 -0.37105417 0.028196728 -0.26687226 -0.48039505 -0.1890612 0.2794365 0.19823107 -0.5565623 -0.6095351 -0.19932699 -0.16962703 -0.031133102 -0.15972498 -0.28075442 0.6719542 0.13467209 0.061819177 -0.15863982 -0.22226323 -0.08356825 -0.3427788 -0.4791807 0.2550628 0.29878712 0.08184879 -0.19566758 -0.04375831 0.27922538 0.09241312 0.18076617 -0.39784887 0.020352978 0.12198335 -0.04817356 0.5143305 -0.3526273 0.04775284 -0.18004687 0.20591843 -0.10586605 -0.00758444 0.04682097 0.11933051 -0.23892185 0.2549808 0.069398254 -0.21318483 -0.07242592 -0.37828076 -0.21384937 0.34665462 0.668129 -0.616239 0.041766543 -0.2854912 -0.35472673 -0.00032910047 -0.09975748 0.10189939 0.508336 0.13279663 0.020672554 -0.4401497 -0.13426428 0.02734017 0.3472675 -0.71050096 0.08425489 0.22371607 0.25120598 -0.06964709 -0.22475508 0.5956763 0.18519917 -0.18367627 0.17317282 0.089535356 0.29159737 0.2806063 0.09085579 -0.26585335 -0.4244461 0.14204326 -0.3869403 0.13800997 -0.3130962 0.2910405 0.004487542 -0.098516904 -0.48012382 -0.32496625 0.9781505 0.04029733 -0.01931682 0.09323494 -0.62900287 -0.6815215 0.18846221 0.22496437 0.040527385 0.064660616 -0.3635883 -0.048371848 -0.35793152 -0.3026866 0.39734563 0.044578444 -0.69314134 0.07425532 -0.17125237 -0.18610619 -0.21934348 -0.3901062 -0.104560964 -0.027060263 -0.58505046 0.5222475 -0.40420315 0.3517223 0.36240643 0.2391223 0.0713997 -0.017261043 -0.08004482 0.05155257 0.018061195 -0.28290915 0.7783833 0.7761736 0.6570117 -0.04451957 -0.16063671 -0.03815046 0.5439606 0.0968817 0.13006634 0.5994111 -0.057470817 -0.47544453 0.24115688 0.4924392 -0.21674131 0.17703637 -0.192892 -0.049968615 0.26902983 -0.22364035 -0.11108971 0.68961424 0.7091232 -0.015081713 0.6297623 -0.17196581 0.042320307 0.096606985 -0.26576582 -0.22202826 0.7279858 -0.18843064 -0.03369398 -0.23815173 -0.30238172 -0.19446193 -0.28918135 0.28473702 0.735453 0.0602843 -0.0152233 0.3403552 -0.12650298 0.5584369 0.09791274 -0.300373 0.0327192 0.11945877 0.27614507 0.048327126 -0.33585408 -0.20192888 0.66006255 0.47240898 -0.59649915 0.023107573 -0.13815965
研 0.10633116 -0.94206506 -0.36332107 0.26641956 -0.594113 -0.039871983 0.42960432 0.2284146 -0.6930059 0.6825699 0.32221127 0.14783888 -0.4012669 0.93736327 -0.79131263 -0.44860205 0.45829248 0.22389902 -0.7622047 -0.12921761 0.72975343 -0.11419182 0.87425876 0.6176728 -0.29995742 -0.27972776 0.42049333 0.91069543 0.82248384 -0.35845268 1.0780857 0.58015686 0.64757967 0.20677839 0.23098181 0.6580368 -0.35364395 0.21771634 0.59811544 -0.33937508 -0.11598525 -0.08840294 0.1591356 -0.2605129 -0.053705905 0.00032969262 0.075185455 0.4977452 0.76432914 0.05304045 0.17364672 -0.044277076 0.7466233 -0.4789832 0.28894225 0.2699294 0.24413629 -0.215633 -0.2649637 -0.29731444 0.270828 -0.21911417 -0.44118023 -0.3826672 -1.0393696 -0.37976813 0.4543854 0.9185353 -0.4775508 0.5618223 0.35405853 -0.47651744 0.9338954 -0.026103519 -0.061096918 0.20861256 -0.035213314 -0.37344813 -0.26992324 0.45740134 0.2537332 -0.026147187 -0.29899642 0.38575888 -0.2910932 0.049088877 -0.32247832 0.24599393 0.08302888 0.7649199 0.27785042 -0.20048131 0.5103511 -0.53303754 0.15913324 0.012924047 0.07434568 -0.39395693 0.4226909 0.052557245 0.9871006 0.4154648 0.0020161923 0.3045051 0.09206745 -0.7345641 -0.5204738 -0.12651554 0.043975957 -0.44601083 0.061158523 -0.69483197 -0.7200117 0.35750964 -0.120630264 0.7182391 -0.025014982 -0.6821696 0.08843621 -0.43429944 0.2518046 0.14616118 0.31488577 -0.31413266 -0.11190874 -0.16976729 -0.30981982 -0.2695065 0.36936545 0.06768153 0.28200755 -0.6918535 0.1866055 -0.32133538 0.07315604 -0.49946776 -0.34466362 -0.011314309 0.12627065 -0.060292885 0.57111603 -0.6585416 -0.6122387 -0.053354353 0.3510825 -0.50224227 -0.024656814 -0.110799916 0.060314 0.6497552 0.05078162 -0.2155986 0.27547395 0.138754 0.3212285 0.22399427 0.58790195 -0.23272832 -0.30035335 -0.043763597 0.51958823 0.3776427 -0.21313186 -0.15480283 -0.42248732 0.624925 0.04134365 -0.09925765 -0.13232218 0.39824808 -0.046362232 -0.3466701 0.3552598 0.47637346 -0.62599826 -0.5451209 -0.9135866 0.20149265 0.44081426 -0.21686544 0.18671902 0.36977604 -0.96780586 0.21713178 -0.21156093 0.05841621 0.38040468 -0.44390136 0.77683747 -0.0057465523 -0.25532228 -0.123631775 0.047877446 -0.749421 0.032615263 0.8822176 -0.0742965 0.1455727 0.12329356 -0.4777977
发 -0.12991968 -0.53175646 -0.031779185 0.15990755 -0.7668882 0.11559385 0.24555759 -0.065235436 -0.16737412 0.3226384 0.38420242 -0.25757036 0.17354378 0.2068126 -0.5461041 -0.2826975 -0.6668582 0.12577632 -0.57496744 0.05819845 -0.17635594 0.2548462 0.47489843 0.21112275 -0.13028194 0.15068291 0.12269928 0.6082292 0.1807294 -0.28226933 0.36377847 0.19431971 0.26749024 0.26691812 -0.3657843 -0.012640498 0.45350933 -0.04081957 0.41341084 -0.41602474 -0.9758469 -0.2695088 0.6195033 -0.02518072 1.078052 0.398308 0.19457023 0.68927336 0.089813635 0.077584304 -0.17295112 -0.058914285 -0.04195303 -1.0543773 0.60273767 0.18460542 -0.10871009 -0.056817625 -0.29804203 0.055571355 0.1445033 0.11658454 0.021357467 0.45007023 -0.6881915 -0.27747467 -0.0023564792 1.3453496 -0.049247045 1.0530767 0.4282602 -0.72662705 0.33158016 0.5901722 -0.2859527 0.088697016 0.006682476 -0.4404594 -0.5436513 -0.10101756 0.028612822 -0.883092 -0.5621711 0.70900255 -0.15293922 -0.6154473 -0.12426216 -0.32579792 -0.35681155 -0.6336266 0.70175064 0.105585925 0.5670172 0.1699828 0.7908026 1.033336 0.09860255 -0.5600487 -0.069498464 -0.45148775 0.19720788 0.11689364 0.0034685377 -0.09395008 -0.0057276944 -0.596053 0.40129986 -0.23812522 0.6676077 -0.030907584 0.6169792 -0.6238684 -0.27479407 -0.044590145 0.8083805 -0.088896155 0.3234691 -0.5621873 0.053136345 -0.08103866 0.33577937 0.68676597 0.43827575 0.06704369 -0.43433157 -0.11001613 -0.1271776 -0.13472846 0.0906091 0.6963798 0.44338298 0.58802307 0.17282523 0.122390196 -0.6551268 0.6964916 -0.5001148 -0.41107813 0.3495475 0.44453984 0.4477434 -0.14725938 -0.36410493 -0.1912714 -0.04024326 -0.44270092 0.14816959 -0.054853473 0.41220993 -0.003422481 -0.14217773 -0.48742214 0.3328128 0.08752808 -0.0595011 -0.1224831 0.11229926 -0.72364944 0.20527482 0.090856895 0.14310697 0.110282734 -0.9587106 -0.36817595 -0.31045884 0.39088437 0.04974296 -0.31379247 -0.7420154 0.7868595 -0.12873058 -0.30471087 0.2070883 -0.015657423 -0.29950437 -0.22999558 -0.30293578 -0.4061389 0.5316218 0.2932388 -0.15447506 0.14558333 -0.70285547 -0.05683055 0.7072192 0.46217328 -0.31694335 -0.40117392 0.145819 -0.08626184 0.21882974 -0.14336607 0.5448208 0.33728594 -0.22995491 0.14759298 0.013520142 0.3400839 -0.21707696 -0.09025528
修 -0.0011226018 -0.082048595 0.041747086 -0.049608253 0.55485517 -0.49492556 0.2750014 0.10525192 -0.021141674 0.067148834 0.13716489 0.4783139 0.025415013 0.5256497 0.08314596 0.04551777 -0.12206252 0.025614044 -0.66305274 -0.64644855 -0.44250757 -0.29817683 0.79751813 0.22537574 0.5860635 -0.78180784 0.6189295 -0.050670248 -0.31706727 0.13146372 0.3317789 -0.24238916 0.069151275 0.048661888 1.1524178 -0.13591875 0.43472746 -0.12146956 0.53307104 -0.6274576 0.09405473 0.35663542 -0.22927949 -0.5761429 -0.133749 -0.14871645 -0.2729582 -0.9297903 0.47159553 0.07664887 0.5296702 -0.28226712 -0.42330307 0.67138505 -0.27436987 0.41753674 0.7238139 -0.703619 -0.13097557 0.5650871 -0.30560806 0.46805638 -0.09904972 -0.48784095 0.100584514 0.0184654 -0.23960605 -0.20738795 -0.9818167 -0.0015151412 -0.015467211 0.6931287 0.5177264 0.174131 1.2612292 -0.15406194 0.20239258 0.046429854 -1.2121646 -0.37834877 -0.034714613 -0.03498819 0.19219178 0.59359455 -0.44108948 1.1336726 -0.7792364 -0.39880493 0.2988037 0.4652471 0.49071693 0.56310284 -0.33079842 0.0018431892 0.33788478 0.0830521 0.40281606 0.39267465 -0.043935273 0.24885623 -1.0070006 0.66346866 0.12643676 -0.58698124 -0.12686726 -0.814573 0.27330416 1.0222726 -0.91604096 -1.0946336 0.21199754 0.20135279 -0.03600009 -0.21788932 0.25716835 -0.38331807 -0.28185356 -0.09698548 -0.5684911 -0.6320387 0.09526711 0.1308961 -0.23715068 -0.49522218 0.5067806 0.5965011 -0.48163646 -0.839634 -0.25623232 -0.09598154 -0.03008574 0.26955938 0.15797602 0.36673248 0.6986089 -0.5442756 -0.040115453 0.27899584 -0.37696478 -0.516856 0.26780418 0.48146582 -0.023846837 -0.111052275 -0.4103032 0.3328519 -0.18892741 -0.41466442 0.97413635 0.2763976 0.6335065 -0.06485786 0.038367935 0.06817746 0.090948515 0.168347 -0.25307322 0.4102626 -0.021210615 0.49471447 0.54891586 0.03905574 0.36286286 0.111138426 0.007098014 -0.29869923 0.35756162 -0.33565402 0.20037857 -0.40190834 -0.2874377 -0.39769736 -0.22957975 -0.7646627 0.2604288 -0.1513618 -0.54894227 0.37802222 0.042528115 -0.018602572 0.03399253 -0.13742904 -0.13072607 -0.31251174 0.018308971 -0.62243426 0.3017085 0.5529554 0.59021497 0.22692008 -0.035021402 -0.17147556 -0.66439444 -0.27429956 0.22357388 -0.4849658 -0.819041 -0.34440735 -0.18064266 0.4080818
系 0.68072623 -0.24722984 -0.42489636 -0.11492435 1.063157 -0.5208626 -0.5283776 0.2828037 0.12028921 -0.04711584 -0.6900294 0.7453005 -0.068173185 0.06839079 0.17617716 0.24369125 -0.069655426 -0.08605504 0.47473857 -0.5001511 -0.12382638 0.043755766 0.37297732 -0.22937174 -0.40171906 0.55598515 -0.71489275 -0.20719631 -0.48705015 0.062662646 0.5981521 -0.44929725 0.35291004 -0.029698197 0.4661769 0.1509711 0.15614723 -0.28209582 0.1328567 0.47862518 0.02869043 0.29024065 -1.0397282 -0.24301046 -0.06095473 0.103457466 -0.28160203 -1.0814354 0.11101256 0.07924609 0.83585817 -0.48180696 -0.22732076 0.203933 0.14678201 -0.42411533 0.31465495 -0.2488707 -0.50272214 0.3115174 -0.4072025 -0.29006934 -0.023924744 -0.017130043 0.039660186 -0.29825994 -0.026844773 -0.6504452 -0.47233474 -0.23091304 -0.70419985 0.00034916904 0.17654349 -0.26648855 0.23523739 0.130504 0.23451687 0.32882068 -0.24302647 -0.027085615 -0.63259834 0.6729991 -0.22124755 0.16646288 -0.36308882 0.103606075 -0.19442277 0.09355296 0.13582619 0.026760355 0.84296405 0.22298698 -0.061643276 -0.068007484 0.16662432 -0.4038025 -0.29017898 0.43330196 0.32627106 0.26080617 -0.03227737 -0.03376862 0.71330905 -0.383664 0.2333777 -0.5966202 0.3252066 0.7483897 -0.93393344 0.022796204 -0.85296184 -0.21758652 -0.92844945 -0.37741625 0.09818797 -0.23305498 0.09856864 -0.24678093 -0.14878263 -0.40282494 -0.099971004 0.66787696 -0.23766783 -0.8759118 0.5125469 0.09293652 -0.10915207 -0.4904946 -0.70768154 -0.6670553 -0.42529097 -0.21042608 0.5639237 -0.12438893 0.43587324 0.30261415 -0.09347604 0.69572955 -0.4644865 -0.4101838 0.40647045 -0.506246 0.15947914 0.94369185 0.03484494 0.20015238 -0.560592 -0.099468276 -0.13620257 0.8453825 0.31979704 -0.18088287 1.1751785 -0.18807973 -0.6307789 1.0752615 0.13472375 0.46541327 0.57109886 0.065616265 -0.6715053 -0.20356123 -0.09468289 0.23274921 0.54839975 0.11940332 0.48017383 0.3369461 0.1956629 -0.45985878 -0.72241575 -0.015253189 0.005003952 -0.773982 0.043606963 -0.17292622 0.1588438 -0.2511173 -0.10030629 0.41106686 -0.2457035 0.41190773 -0.06918342 0.02999693 0.2920979 0.069823265 0.39993984 0.3450299 0.30274054 0.26990792 -0.23556069 0.28424957 -0.5715632 -0.30952528 -0.30502862 0.43867782 0.30433717 -0.24623474 0.018938275 0.0711951
会 0.3368707 -0.11349376 -0.28993264 -0.2693259 0.49764785 -0.6209941 -0.3717866 0.2682919 -0.023348704 -0.12735179 -0.4608 0.37408134 -0.2580861 0.06052264 0.2666983 0.28259352 -1.1157291 0.089572534 -0.21379708 -0.43439972 -0.6483173 0.12159752 0.15297523 -0.23019764 -0.36130503 0.417268 -0.09087884 -0.44336936 -0.5537767 -0.01324687 0.23713656 -0.23775026 0.14142953 0.20375183 0.0053318786 -0.14482589 0.16702028 -0.48091143 0.22427061 -0.28923997 -0.39877045 0.5254502 -0.32680896 -0.11661456 0.8956944 0.20777692 -0.29798058 -0.061646663 -0.026083535 0.008984223 0.91773665 -0.5163196 0.13392483 0.012882305 0.03663064 0.4039595 0.1716551 0.05108317 -0.06875004 0.4827164 0.3077786 0.13728723 -0.12476501 0.063258454 0.1571394 -0.21242177 -0.52321917 0.5414623 -0.14594677 0.28809455 -0.19363235 -0.16336115 -0.54264474 0.020333484 0.0729687 0.19647525 0.12866406 0.27176028 -0.69789386 -0.6807539 -0.23187576 -0.043782033 -0.48295575 0.45459738 -0.27042347 -0.04052098 0.26085046 -0.58782667 0.38070115 -0.36357695 0.996998 0.215075 0.31126127 0.6155037 0.5824555 0.52013546 -0.05358196 -0.10121665 -0.3251741 -0.4676259 -0.6611142 -0.12747242 0.8104275 -0.56479824 -0.032311827 0.09004725 0.67579997 0.37716305 -0.02520993 -0.20220046 -0.118462585 -0.32155526 -0.2491745 -0.31995115 0.96003103 -1.0482945 -0.014072332 0.089477345 -0.0987551 -0.02757416 -0.27029425 0.37410116 0.27650836 -0.112721816 0.021840118 -0.15690371 -0.3644091 -0.56674814 -0.7066963 0.14973788 0.22197428 0.40274566 0.5669069 -0.05617994 0.1178484 0.7339558 -0.37341815 0.46764627 -0.26268137 0.13409765 0.27270815 -0.30785352 0.13443151 0.49796245 -0.40622005 0.3445195 0.034958176 0.014172137 -0.16925159 0.34702381 0.13785745 -0.61222607 0.47284833 -0.18497671 -0.47703618 0.27582526 -0.08202829 -0.21657468 0.11158784 0.50313264 -0.24199109 0.08167455 -0.67503273 -0.3172432 0.16145913 -0.13841908 0.33904782 -0.3165907 -0.19645566 -0.14299841 -0.35929897 -0.16806851 0.02425736 -0.22647965 0.49206826 0.30324715 0.0049511734 -0.052149188 0.3019635 0.30652195 -0.33009815 0.05517813 0.15200928 -0.051064294 0.22724059 0.15935838 0.2634857 0.41939974 0.12365533 0.18494228 0.2354236 0.102848805 0.098514974 -0.12090882 -0.3627098 0.25726554 -0.41693166 -0.29619598 -0.36321178 -0.09225867
前 0.3186415 -0.27329585 -0.49375066 0.124552056 0.031099303 -0.57366985 -0.018487956 -0.12837729 -0.36727345 0.58983845 -0.33977583 0.38772288 0.20943362 0.5777799 0.32729495 0.3178784 -0.87989783 -0.24645318 -0.4831552 -0.28123283 0.049244884 0.09462302 0.43012178 0.14225283 -0.5982915 0.13484688 0.23510055 -0.13043875 -0.035754733 -0.2819064 0.68283474 -0.10775078 0.29600325 0.12643453 0.40374467 0.101496935 0.57016116 -0.055143327 0.5434329 -0.33122233 -0.36795297 0.13371502 -0.09396687 -0.3611166 0.47381902 0.11235012 -0.4565273 -0.19359265 0.3227698 -0.0069382745 0.786026 -0.14557126 -0.18853179 -0.35647783 0.33842066 0.2922561 0.54726046 -0.2774838 -0.41069493 0.44350186 0.23441875 0.21870205 -0.5479031 -0.13951811 0.30152225 -0.40286046 -0.7095591 0.47732827 -0.34427562 0.45126206 -0.18545282 -0.428866 -0.2908648 -0.04340187 0.36857894 0.012777023 0.055285975 0.47341058 -0.3722739 -0.21601547 -0.1247433 -0.52372015 -0.22987846 0.3907597 -0.24250512 0.13225514 -0.46049657 -0.63814557 0.3915459 -0.31152144 0.7863374 0.42873472 -0.06508729 0.13742276 0.55151904 0.24391606 -0.32433197 0.14511342 -0.1617354 0.06782906 0.048334528 0.06302267 0.6538501 -0.7529088 -0.20563395 -0.044312343 0.7646548 0.44705626 -0.16234621 -0.4770428 -0.045735706 -0.45975316 -0.34952718 -0.5929621 0.65626967 -0.60155416 0.19414566 -0.3201737 -0.27084807 -0.18507914 0.10439532 0.61123395 -0.03537054 -0.37593925 -0.029878171 0.10841358 -0.7224026 -0.72717285 -0.5000202 0.076992385 0.18515606 0.3541505 0.45878994 -0.038903613 -0.043865915 0.22096728 -0.38130036 0.42736363 -0.09339265 0.24798198 0.44872642 -0.3986021 -0.15850972 0.3747507 -0.18574022 0.16978192 -0.18333429 -0.45680857 0.2936133 0.48045743 0.38913622 -0.61037093 0.9866385 -0.3122252 0.08876311 0.20571186 0.11559027 0.014235108 0.3476069 0.30886218 -0.29704165 -0.14442848 -0.59354657 0.047608674 -0.28855717 0.22532682 0.2856549 -0.45451474 -0.20538002 -0.1126336 -0.77227 -0.045501787 0.030028725 -0.63332933 -0.07407613 -0.20242223 0.30568945 -0.054893333 0.79245317 0.79734296 -0.2978458 -0.16504893 -0.34137058 0.26511532 0.3483368 0.014295963 -0.014520362 0.1903306 0.15111093 0.38101894 -0.11601194 -0.25121403 0.06648875 -0.48887354 -0.02166523 0.31707457 -0.34556282 0.09715296 -0.23983176 0.024453523
一 0.14076018 0.055823185 0.01578299 0.418417 0.42746326 -0.3460053 0.11430387 0.037656765 -0.24122822 0.09379266 -0.15254246 -0.22692269 0.006838808 0.33020845 -0.047443416 -0.060012516 -0.47849473 0.09977159 -0.2075577 0.036840703 0.279405 -0.029103003 0.025159495 0.2527657 -0.21009465 -0.38009435 0.38077015 -0.22045495 -0.14365259 -0.49776518 0.23524716 -0.121060416 -0.10517788 0.21444678 0.35189137 -0.010432355 0.3938022 -0.2957133 0.37198007 -0.49122193 0.019101249 0.5166821 0.14194651 0.5270128 0.5020752 0.69031024 -0.33107576 0.05391129 0.37389982 -0.2290176 0.49789998 -0.13160789 0.35746682 -0.35501376 -0.24919161 0.15753826 0.15161297 -0.3293284 -0.06087234 -0.01758686 0.35084945 0.55591065 -0.33249456 -0.25462237 -0.20458142 -0.2118552 -0.23209924 0.47866 -0.40212962 0.09236719 -0.09262775 -0.044336487 0.15938798 -0.014328866 0.48281512 -0.092795335 -0.12214269 0.257324 -0.52317894 -0.33312815 -0.30956754 -0.37512788 -0.057392485 -0.058509666 -0.044982884 0.09612859 0.12816493 -0.5231163 0.34464058 -0.2070805 0.32755312 0.077317834 0.350597 0.6189071 0.7007613 0.6574858 -0.40620717 -0.40375847 -0.26663107 -0.094090804 -0.24175039 0.23037422 0.5160276 -0.07255045 -0.24767263 -0.15445961 -0.1042633 0.02084764 -0.13228798 -0.2670934 0.24683695 -0.6087519 -0.016125144 -0.04259673 0.4142472 -0.49322653 0.08464462 -0.1514214 0.12432671 -0.007280579 0.013064919 0.3866054 0.23745497 -0.068866685 -0.35474187 0.16082281 -0.16729192 -0.35631076 0.21887957 0.08817128 0.32789755 0.21476127 0.48466942 0.0457245 -0.040273637 0.04487354 0.21028562 -0.10520548 0.08091261 -0.11268311 0.23136045 -0.11085604 0.08603171 0.24056157 -0.553166 0.2194755 -0.31606686 0.09751948 0.38901097 0.09351612 6.3513864e-05 -0.23861994 0.29278874 0.0852331 0.30510917 -0.13697423 -0.08068638 -0.18719298 -0.053799808 0.21754731 0.221269 0.16895895 -0.5129294 -0.31763157 0.15750632 0.056786396 0.3381802 -0.36125314 -0.28211635 0.19991827 -0.57691103 0.06912442 -0.035980828 0.011895533 -0.018676613 0.33927214 -0.30402312 -0.11379448 -0.117071696 0.39484456 -0.2424605 0.4486859 -0.1260287 0.27876315 -0.2219495 -0.044602893 -0.106685616 0.28527522 0.29965246 0.41434756 0.062372047 -0.07588202 -0.61504424 -0.2614204 -0.1243357 0.2561582 -0.53774 0.12243905 -0.15312819 -0.19421412
答 -0.11072386 0.37684345 0.082008846 0.8719093 1.0686399 -0.6626245 0.20804088 0.88996947 -0.3396644 0.15656929 0.53093696 -0.69524884 0.33075157 0.84481937 0.33802193 -0.47317174 0.2698393 -0.24135758 -0.09196146 -0.11287769 0.59015924 0.083657615 -0.6870812 0.21179534 1.0143284 -0.83887714 -0.53776354 -0.8367595 -1.1729089 0.3143433 -0.0034141317 0.73932713 -0.47086552 -0.05871655 0.41814205 0.5166993 0.18205237 -0.33561048 -0.14071299 -0.8276229 0.37868693 0.21921864 0.0073749893 0.47028947 0.050882373 0.1583864 -0.16573171 -0.37037545 0.41478804 0.22462074 0.9947709 -0.2286115 -0.052669425 -0.62602365 -0.4693286 -0.83158994 0.90063006 -0.0491523 -0.167505 0.20060633 -0.3310739 -0.069833845 -0.11985646 -0.96030664 -0.77397853 0.46975252 0.21552731 0.71434855 -0.51846915 -0.0124558825 -0.5532475 -1.0251867 -0.38923988 -0.21186334 0.8048753 -0.19396612 -0.2719473 -0.122647524 -0.773233 -0.5679345 -0.7862311 0.28162974 0.05702647 0.82925725 -0.03240996 1.4590378 0.290806 -0.17591795 0.78688794 0.32264766 0.5640797 -0.4541593 -0.030571563 1.1393081 0.39253232 1.2490038 -0.13515629 -0.034452908 -0.46710765 0.24328488 -1.1177117 0.6456886 0.6160963 0.18308787 -0.6650663 -0.3116349 -0.44551313 -0.05337622 -0.5662231 -0.7926991 0.05568147 -0.7073537 0.31120482 -0.3610481 0.46923858 -0.19535151 -0.23999074 -0.9005858 -0.4043572 -0.46978185 -0.73288095 0.4004867 -0.011781399 -0.01759702 0.0142271435 0.7002171 -1.0343341 -0.27999386 0.1423491 -0.60099113 -0.11096817 0.3618895 -0.06681217 0.26959163 -0.18930247 0.52690643 0.9438224 -0.67540383 -0.3744943 -1.2698206 0.32586586 -0.25529486 0.25904816 -0.454802 -0.34997326 -0.023406552 -0.42131883 0.651308 0.21143065 0.04565469 -0.08740746 -0.29236338 -0.4209814 0.5435477 -0.68089443 -0.31679475 -0.046752397 -0.11068487 -0.3748778 0.62125725 0.926076 0.40779912 0.45909822 0.2844809 -0.052632093 -0.3711822 0.8945462 0.08876872 0.7507747 0.69496024 -0.19753666 1.015495 -0.09510907 -0.3191186 1.0927327 1.1818526 -0.34472635 -0.30714998 0.25618038 -0.15017614 0.31166548 -0.50900817 0.36229107 0.098651566 -0.38586092 -0.15996873 -0.269015 0.29035205 -0.1998739 -0.27395195 1.2297676 0.08474135 -0.82614744 -0.53240335 0.1261018 0.16923076 0.44473398 -0.13538647 -0.5336117 -0.41430938
时 0.12359487 -0.041802656 -0.13820203 0.3099113 0.38301048 -0.44984925 -0.74070936 0.4961471 -0.33451745 0.8667402 -0.3412655 0.2853593 0.03832078 -0.24797711 0.5730825 -0.3064409 -0.87584424 -0.71690035 0.023335896 -0.14990053 -0.53858286 0.75035244 -0.24656603 -0.25519916 -0.65393335 0.50806344 -1.0905486 -0.30344003 -0.15440883 0.28234762 1.1070797 0.159112 -0.14047143 -0.11761606 0.28699782 0.9338701 0.21527645 0.070194915 0.03769219 -0.29667377 -0.3463956 0.27057403 -0.55185837 0.1604811 1.0415881 -0.009816927 -0.33931625 -0.045345277 -0.27906218 0.19729091 1.2314057 -0.84585273 -0.083714806 -0.3974616 0.691367 -0.17375672 0.4465977 -0.051015686 -0.65491617 0.49220824 0.2855017 -0.059839826 -0.5197764 -0.36625436 -0.0075250715 -1.0076885 0.17792481 0.9983192 0.054952983 -0.05847838 -0.6948395 -0.8343245 -1.006484 -0.045590483 -0.23717876 0.58854353 0.28196174 -0.054657076 0.18017995 -0.48238772 -0.5927862 0.78585404 -0.9104348 0.9710156 -0.12671149 0.20186909 0.025025383 -0.07050989 0.5185093 -0.13269809 0.32754317 0.07509611 0.5460663 0.93723124 0.4460698 0.40843847 -0.17163378 0.012564127 -0.7042093 -0.5403676 -0.2527411 -0.29548216 0.4965413 -0.5476278 0.35050455 0.109695554 0.44011196 0.43547925 -0.37996516 0.12503375 0.48423317 -1.3349379 -0.25493306 0.042803437 0.8936558 -0.12617323 0.5124611 -0.40441555 -0.53700286 -0.3829389 -0.68196654 0.41913852 -0.34728825 -1.1255509 0.040249128 0.27356344 -0.39422625 -0.7138139 -0.32290858 -0.32224694 0.16442974 0.43345562 0.5227132 -0.24493237 0.18024181 0.95544845 -0.34371078 0.5220303 -0.3700626 -0.22428408 0.3020768 -0.54745513 -0.08557484 0.8134867 0.41921327 0.26778343 -0.12926422 -0.07181948 -0.13450707 0.28120545 -0.071096934 -0.120059334 1.3950533 0.51362646 -1.6396155 0.8833089 0.51004803 -0.15655181 -0.13049039 -0.23190436 -0.29306 -0.047086596 -0.62942606 -0.09019271 0.091486014 0.24710935 0.05777083 0.43246222 0.09242936 -0.22675239 -0.24337354 0.32406953 0.27092752 -0.2795762 -0.18284447 0.093245216 0.40135902 -0.6466562 0.62717044 0.21174522 -0.013834929 -0.3618608 0.374974 0.16280705 0.7218242 0.13344713 0.089127645 -0.12717147 -0.065872476 0.45088187 0.06754819 0.1274127 0.0015704323 -0.43232146 -0.23433153 0.4862907 0.7733572 -0.43064627 -0.1633325 0.25003496
告 0.07755388 0.17915648 0.059344452 0.65680355 0.61324394 -0.026253017 -0.3939606 -0.4660825 -0.586498 0.7438727 -0.7392425 0.27608132 -0.40700096 -0.5617568 0.49965465 0.07704078 -0.49328166 0.00463803 -0.12897868 -0.95036817 -0.11559665 -0.18649854 -0.05447061 -0.52823114 -1.2886696 -0.13994895 -0.040438235 -1.003173 -0.2060892 0.06476723 0.124715686 -0.62480754 0.06738668 -0.14134502 -1.0193003 -0.02180453 -0.23141892 -0.72261643 -0.07878023 0.6034288 -0.033626597 -0.045700468 0.5583231 1.1502187 -0.20505558 0.98215425 -0.45488954 -0.12620416 0.07807073 -0.26010478 0.25513333 0.068615526 0.0019426892 -0.008536029 0.10692441 -0.16476114 -0.49418348 -0.014379817 -0.3054312 -0.5821681 0.008353794 0.7872924 0.0005800653 -0.2839343 -0.23997003 -0.6482747 -0.013940379 0.64018005 -0.7537959 -0.32598343 -0.3890374 0.18342666 0.44987476 -0.5968971 0.37124503 0.28894272 0.023070466 0.06654075 -0.5940512 -0.21325736 -0.08198302 -0.12983285 -0.4970496 -0.29663664 0.020314042 -0.1220727 -0.33065304 0.7385324 0.27502292 0.15030015 -0.31879792 1.2058641 -0.47744283 0.4420712 0.27111068 -0.29517233 -0.45383796 -0.9117233 0.9692883 -0.34977928 -0.1541491 -0.12189035 0.45764858 -0.5586361 -0.74321914 -0.4570187 0.014811134 1.175251 -0.30217046 0.11288975 -0.2709037 -0.3127137 -0.72480994 -0.3090812 -0.2550114 -0.36314362 0.36834347 -0.70733464 0.6420623 -0.72997594 0.017601777 1.0366464 0.11006269 -0.21391176 -0.2233236 -0.29395348 -0.121970676 0.054990605 -0.5984645 -0.1287048 -0.07088524 -0.60477936 0.6698077 -0.96436065 0.016365567 0.32815686 0.19016169 -0.2281324 0.075014606 -0.8142555 -0.6952106 -0.52324843 0.10417528 1.0936795 0.9207864 1.0161414 -0.14871363 -0.34244332 -0.11322057 0.009509203 0.18927464 0.34459412 0.68318397 -0.12685387 -0.49243474 0.21787807 0.62562525 0.31922698 0.3159343 0.26087466 -0.62746847 0.15189366 -0.50356895 -0.36628988 0.78729117 0.9022057 -0.18758982 0.6921764 -0.80786407 -0.06370398 -0.5025719 -0.5629748 -0.40446177 0.846515 0.17962322 0.37742448 -0.26585534 0.33068675 -0.37533835 0.14006461 0.017750235 1.5834762 0.17748837 0.55188847 0.4495793 0.02047906 0.16407041 0.87269914 -0.20019373 0.6103385 -0.048602846 0.0055600423 -0.15821455 -0.60557795 0.25247607 0.8717554 0.61463237 -1.1113886 0.117333606 -0.0698434
报 0.047994692 0.22658753 0.16648965 0.63656914 0.7085545 0.057052054 -0.413402 -0.42873314 -0.6513252 0.74953 -0.5909297 0.360592 -0.39204907 -0.62522095 0.47423035 0.12530644 -0.5880381 -0.041045625 0.048635215 -0.9556159 -0.3348829 -0.0058086505 -0.1189285 -0.7361037 -1.1840308 -0.19102654 -0.2995451 -0.96222556 -0.14300025 0.07548682 0.26062682 -0.48009017 0.06283265 -0.119519025 -1.039458 -0.15295327 -0.29988423 -0.78798366 -0.06987939 0.63133156 -0.08765139 -0.12956102 0.46377203 1.0951922 -0.045560595 0.88264245 -0.5457902 -0.1880431 -0.07034406 -0.29726318 0.23975667 0.073780626 -0.18289082 -0.11242895 0.13173789 -0.23713447 -0.5029081 0.072669506 -0.22926456 -0.52620924 -0.027501754 0.6893437 0.009526531 -0.20266189 -0.25023103 -0.67312115 0.07502409 0.72753173 -0.67003506 -0.39435345 -0.37899867 0.14272925 0.26560414 -0.45065707 0.3325225 0.36762422 0.06901603 0.02082168 -0.6046909 -0.30834675 -0.06452603 -0.03601771 -0.6247607 -0.26851842 0.16654961 -0.1544777 -0.2787774 0.5995885 0.33750057 -0.09851491 -0.38778952 1.1893119 -0.5217733 0.5735964 0.38144848 -0.08576668 -0.36071035 -0.8977354 0.88551843 -0.47968572 -0.17511614 -0.29826865 0.43592364 -0.47445247 -0.5916151 -0.42546475 0.055298604 1.3275158 -0.16160883 0.23262197 -0.17035116 -0.32532877 -0.77854526 -0.309327 -0.07879665 -0.31898606 0.39616105 -0.79433495 0.64770895 -0.72879845 -0.066120505 1.0633981 0.18235493 -0.29018095 -0.16378546 -0.31634653 -0.006714151 0.10466436 -0.6676859 -0.03525831 -0.1141683 -0.5301391 0.726407 -0.86539364 -0.040731344 0.42341486 0.19305897 -0.28315258 0.085589945 -0.66378593 -0.5991361 -0.38920182 0.19633226 1.197298 0.9966659 1.0156573 -0.08503911 -0.3583754 -0.016402958 0.025477305 0.2177723 0.4217605 0.7301469 -0.032039646 -0.6097754 0.16800123 0.62548727 0.33725232 0.446203 0.012835651 -0.5297151 0.2057389 -0.53940225 -0.36893895 0.8690343 0.8751785 -0.21372263 0.7914401 -0.81023854 -0.11200343 -0.43183392 -0.5633445 -0.4441525 0.7225455 0.06490369 0.3115054 -0.11866275 0.09853494 -0.5220955 0.16504154 -0.006819545 1.428776 0.24816677 0.41819528 0.51042503 -0.042125657 0.10103487 0.80919963 -0.35803014 0.53073055 -0.004519343 0.10812227 -0.004739723 -0.31879595 0.13272235 0.7840035 0.7062904 -0.99787486 0.10330296 -0.113322556
辩 -0.19231234 0.4700451 0.15648028 1.0290248 1.1213717 -0.5512471 0.2597278 0.91627413 -0.36768684 0.23326269 0.652439 -0.5971621 0.3734383 0.85265833 0.3317089 -0.51698256 0.46241498 -0.33106774 -0.07597765 -0.16861244 0.6985334 0.032704704 -0.7088538 0.18133897 1.0549172 -0.96462023 -0.56007147 -0.9198611 -1.1660683 0.33836135 -0.052310467 0.8119905 -0.5144107 -0.11465807 0.5491896 0.68187755 0.25167438 -0.32112122 -0.14104787 -0.73954844 0.47015625 0.108636044 0.047340985 0.52325845 -0.03018708 0.25895074 -0.20417728 -0.3851798 0.47764724 0.14316715 1.0244291 -0.1319762 -0.15100037 -0.58627653 -0.43275258 -0.9578118 0.9642479 -0.085205704 -0.20435835 0.09276128 -0.40111554 -0.034445062 -0.046930935 -1.1202154 -0.79721 0.37961048 0.31081647 0.71164477 -0.575501 -0.075409144 -0.6865461 -1.1151074 -0.40258205 -0.262643 0.8506046 -0.14433965 -0.3649413 -0.13816135 -0.7684716 -0.4748395 -0.7788455 0.3541107 0.052368004 0.8530497 0.046518102 1.6600657 0.2649988 -0.1563326 0.8667421 0.44759974 0.5280126 -0.40521136 -0.1314351 1.1401088 0.32073727 1.2360611 -0.24472307 -0.034124285 -0.4407579 0.3227331 -1.0822358 0.64633745 0.62602323 0.16210824 -0.6780596 -0.43522558 -0.4473854 -0.08554838 -0.6731102 -0.7435241 0.03703116 -0.733171 0.366663 -0.42762977 0.44987804 -0.23903298 -0.24639378 -0.9339882 -0.4524143 -0.5971491 -0.68378025 0.4147373 -0.07230441 -0.019238513 0.029500999 0.6326051 -1.05458 -0.32254502 0.27220413 -0.6661874 -0.15926796 0.33814713 -0.113763705 0.2356564 -0.23675714 0.49581596 1.0926954 -0.7046348 -0.39173383 -1.4188281 0.31393796 -0.24904609 0.25571328 -0.48581845 -0.2888354 0.053148683 -0.51365495 0.60627025 0.2529215 0.04370714 -0.023471922 -0.26874447 -0.38409042 0.5792512 -0.74893355 -0.35600004 -0.021167092 -0.045919612 -0.26571965 0.61987376 0.87791157 0.4329315 0.5180427 0.27776453 -0.023349507 -0.31927744 0.88855064 0.16377492 0.75720507 0.66051567 -0.28866202 1.1196277 -0.110440165 -0.35375994 1.0208805 1.1867275 -0.38275695 -0.32344425 0.2503271 -0.21556313 0.36948553 -0.5684877 0.29609913 0.2268361 -0.44947955 -0.14383447 -0.35302618 0.24190158 -0.2274665 -0.23416029 1.2056354 0.037252218 -0.93165857 -0.63206005 0.1690971 0.15328492 0.6513854 -0.1329409 -0.47999287 -0.40678546
计 0.13110068 -0.37351876 -0.07758499 -1.6832495 0.4948409 -1.0149708 -0.44615415 1.1317637 0.313863 -0.053086072 0.1847493 0.20684096 -0.6881688 -0.20176846 -0.108986884 -0.0801442 -0.46553737 0.37780884 -0.45716083 -1.2067441 -1.037519 -0.30841222 0.024249833 0.3930137 0.3927079 0.013431162 -0.3223981 -0.052240774 -1.0826093 0.74318296 -0.13771382 0.3905698 0.7844937 -0.6847041 -0.7992266 -0.291523 -0.35840383 -0.5029985 -0.5534302 0.21051037 -0.063371785 0.1034199 -0.039661545 -1.1138783 0.308206 -1.1332817 0.5655688 0.05214514 -0.029044421 0.6568687 -0.15128413 -0.083057575 -0.01056658 1.0277525 0.15683763 0.2962382 0.5327711 0.5777762 0.67138094 1.098108 -0.35817358 -0.6946937 0.60139656 0.19960454 -0.8120418 0.90209293 0.5970548 -0.7941471 -0.50104994 0.40285388 0.2681444 0.23953423 -0.30595955 0.10400368 0.18905288 0.07368651 0.8975649 -1.0236233 -0.8722196 -0.13793027 0.1648028 0.40009412 -0.60957617 0.9538196 -1.0554172 0.17804334 0.20456633 0.52396137 0.22329608 0.60687447 0.6521641 -0.030021846 -0.2909224 -0.2246969 0.27252883 -0.16363883 0.6522036 -0.2552384 0.06921989 -0.7095585 -1.3084624 0.11379852 -0.006796789 -0.22979206 0.11413937 -0.11916672 0.10588784 0.7745071 -0.004673736 -0.22077079 -0.27824053 0.54187465 0.06586722 -0.20224452 0.21100453 -0.36531183 -0.59341913 0.17077424 -0.3214237 0.1733756 -0.075834416 0.25152028 0.8866543 -0.13065456 -0.16359894 -0.08375546 -0.44802612 0.010759821 -0.92681587 -0.62273717 0.4962806 -0.49750936 -0.43213814 -0.22495706 0.9308595 0.33898166 -0.71231896 -0.3793212 -0.59237385 -0.42448357 -0.054158356 -0.1834934 -0.5820846 -0.7074756 0.19356404 -0.48659185 0.42390823 0.06813977 -0.47235098 -0.584129 -0.08504252 -0.5944959 -0.95482224 0.0699487 -0.6356125 0.53580487 -0.5610101 -0.058569375 -0.5763536 1.1039952 0.27026436 -0.23439772 0.35126337 0.06472207 0.6799254 0.2796958 0.57838035 -0.21107285 0.7330626 0.49858695 0.32153377 -0.42208192 -0.14612247 0.8203304 1.1848058 0.26309362 -0.6249185 0.49984336 0.35030705 -0.3494712 -0.09067065 -0.2015726 0.3426238 -0.8472348 -0.07216736 0.59789956 0.76279354 0.36980617 0.46080086 -0.044239413 0.92345375 -0.07654667 0.38984093 -0.3568462 0.18335058 0.46617198 -0.027476892 -1.062095 -0.98241234 -0.35045496
专 -0.16604237 0.30273452 0.27014732 -0.004607752 -0.60396713 -0.0009734851 0.57028544 -0.11766739 0.035880953 -0.19084403 0.04125243 -0.3010938 0.33798707 0.07118031 -0.37148717 -0.25297618 -0.7183499 0.35526592 -0.28077465 -0.33636913 -0.242087 -0.414364 -0.30147338 -0.030432986 0.03555 0.087645695 0.17970692 -0.4082223 -0.12864918 0.34072632 -0.41132173 -0.36382365 0.47515598 0.49899346 -0.89469504 -0.5552352 0.6041156 0.058370996 -0.1330089 -1.0151376 -1.042985 0.33439043 0.63161725 -0.34611148 0.8184311 -0.29709524 -0.027622495 0.5434393 -0.31901923 0.32203856 -1.0920298 0.20259514 -0.24379413 -0.4494874 0.31886196 0.75357205 -0.33956066 -0.2858798 -0.5571986 0.09604387 -0.5527051 0.53658015 0.12293442 0.002549709 -0.08740358 0.2050468 -0.60947335 0.6116837 0.30596367 0.47799468 0.68713987 0.67272305 0.3270342 0.32717544 -0.18297847 -0.053739704 0.3682045 -0.49618778 -0.7081159 -0.02285812 0.65175766 -1.0589002 -0.039407168 0.7346844 -0.40282112 -0.7551301 -0.28315142 0.522149 -0.8726845 -0.74067366 -0.14456974 0.8937941 0.01103418 -0.10811484 0.7961711 0.47879362 0.46845788 -0.3149654 0.28546098 0.23301375 -0.3053834 0.6119483 -0.36640042 -0.30524915 -0.17212766 -0.017749298 0.5982539 0.33332634 0.23446341 -0.32439694 0.12608309 0.53263533 0.17540228 -0.2852663 0.50395966 -0.19181353 0.13667539 -0.3905464 0.20156933 -0.04197841 0.539842 0.6256709 0.4711251 0.84663475 -0.47582898 0.16523017 -0.26637924 0.07087448 0.038340308 0.72300905 0.44294024 0.7509368 -0.33473253 0.080266334 -0.65945905 0.025989022 -0.9749501 -0.6455223 0.16258895 -0.13587862 0.04859722 -0.59597206 0.1387222 -0.45216888 -0.346057 -0.37045288 -0.23602258 -0.0010080887 0.33396286 -0.32805952 0.3219093 -0.56868917 -0.23686554 0.30906847 0.09097946 -0.099277474 -0.43248177 0.24402595 -0.6415279 0.14076237 0.11237974 -0.19704989 -0.63923484 -0.37723887 -0.50766855 -0.16826798 0.20439641 -0.8449688 -0.66101366 0.40996742 -0.05751656 -0.51092845 -0.14843844 -0.6132828 0.18634808 -0.13709226 0.14300932 0.7750336 0.21215019 0.52814215 -0.26304808 -0.34615484 -0.31137723 -0.29251593 0.18720642 0.5984846 -0.6497119 0.00038236091 0.54853773 0.11586255 0.38629597 -0.2033393 0.2986913 0.12970525 0.44735327 -0.56905985 -0.516979 -0.14332347 -0.4070957 0.020341333
成 0.38274047 -0.27413768 0.04764489 -0.30732748 -0.25418317 0.09247622 0.6321662 0.21053867 0.26547155 -0.49462175 0.3575473 -0.7171443 -0.39373887 0.7091775 -1.1344682 0.07671766 -0.21619064 0.7652111 0.18411891 -0.2569523 -0.37519464 -0.27967557 0.15083201 0.1699728 -0.13258067 0.49609345 -0.19393723 0.024076156 0.26993024 0.49881667 0.11004955 0.21038312 0.16583605 0.28864875 -0.48657078 0.46712035 -0.18780085 -0.39699155 -0.09887385 -0.61187404 -0.36681193 0.21486878 -0.628072 -0.3541291 0.9871792 0.046864815 0.69488066 -0.11173744 -0.078343466 -0.036638815 -0.4162934 -0.1468456 0.25621876 0.25361913 -0.07023392 1.0552377 -0.71999013 -0.03613867 -0.34326053 -0.18316312 0.038146656 -0.11904488 0.5032703 0.47318742 -0.08244149 -0.3035802 0.3811518 0.18493266 0.5095648 0.7260441 0.65385544 0.5569913 0.318035 0.011106977 -0.3691996 0.34365 -0.22002526 -1.2074693 -0.18024899 -0.35917377 -0.0076637696 -0.4373188 -0.45294777 1.0108342 -0.8119247 -0.3666108 0.4620888 0.51178503 -0.7404516 -0.6334562 0.6907266 -0.15539046 0.18359123 0.08865037 0.7427452 0.20200302 0.48857608 -0.12076691 0.5172727 -0.26341206 0.009561448 0.5097812 -0.21620224 -0.09492402 -0.27902836 -0.05815647 0.2207039 -0.61725837 0.2610546 0.32356876 -0.12866232 -0.29055473 0.18448061 0.22641625 -0.33107495 0.33654153 0.11867312 -1.1305661 0.45467663 -0.55126405 0.8550859 -0.03061577 0.64919263 0.5410584 -0.71954083 -0.19334005 0.35420534 0.32211384 0.027219553 0.24024138 0.46231467 0.21859086 -0.83663493 0.47878128 -0.5543511 0.15612525 -0.5389023 -0.6411718 0.2082047 -0.11069747 0.46128154 -0.85536635 -0.13584045 -0.56344676 -0.7251952 -0.668082 -0.16341658 0.5333676 -0.28599316 -0.23728217 0.4440994 -0.2907479 -0.39657083 0.08028119 -0.5927862 0.049244143 0.44015768 -0.35045046 -0.5671905 0.23462665 0.43347418 0.10324419 -0.31663266 -0.42019945 0.35276836 -0.3039897 0.18602635 -0.55454534 0.04823992 0.1185308 0.3611651 -0.09207038 -0.12627979 0.05673539 0.44782245 0.20422082 -0.8492153 0.30082634 0.38612878 -0.0837785 -0.543088 -0.3507932 -0.08051805 -0.045415077 0.64587766 0.13283864 0.044142775 -0.023278661 0.23959282 -0.58608085 0.32887375 0.40211532 0.18958439 0.008728394 -0.29699194 -0.14239824 -0.40642077 0.01259453 0.12125605 -0.4568468
校 0.5861532 -0.12590918 -0.13134442 -0.26028088 0.1713193 -0.027576296 -0.32622224 -0.14745595 0.20608668 0.0040256437 -0.80754143 -0.2609036 -0.33652076 0.12955648 -0.11795565 0.0672642 -1.0142382 0.51437235 -0.16171499 -0.053727653 -0.6245713 -0.2038159 0.33873492 0.09326387 -0.46778783 0.43692347 0.421979 -0.42485708 -0.42475602 -0.054058492 -0.17375098 -0.48514217 -0.10188177 0.32271358 -0.43156648 -0.258879 0.45753023 -0.4911868 0.18827255 -0.30465844 -0.54099643 0.65463287 0.08134957 0.13601561 1.0450665 0.4093007 -0.05380242 0.13283202 0.22677909 -0.053418916 -0.29035085 -0.47396466 0.40273517 -0.13059163 0.50780195 0.44187748 -0.23974362 0.06619034 -0.2620565 -0.16179948 0.3482307 0.33167255 -0.010464975 0.4856318 -0.39934784 -0.5782166 -0.33380425 -0.025730122 -0.29666686 0.70596904 0.2382976 -0.01077037 0.046122894 0.16864334 -0.28217798 -0.20384145 0.15664439 -0.023128327 -0.4456711 -0.48111773 0.06776751 -0.5268991 -0.32469532 0.46452516 -0.6742911 -0.60863876 0.230738 0.14966223 -0.663631 -0.5428583 0.8290767 -0.19628023 0.1198951 0.2779498 0.46091083 0.077038325 -0.1738202 -0.37596062 0.101040475 -0.51534384 -0.2889642 0.4356156 0.26657534 -0.67752135 -0.11254542 0.10519969 0.43566364 0.0059380583 0.044740595 0.36574945 -0.09133154 -0.6228848 -0.4583565 0.17522694 0.49532855 -0.59300363 0.28147805 -0.04281768 0.34902704 -0.16593938 0.5036717 0.5631574 0.4058713 0.041799244 -0.6570431 0.12548658 -0.14528368 -0.23276882 -0.14752343 0.31329343 0.3943641 0.35512632 0.13206849 0.1802616 -0.035493325 0.60674727 -0.040931948 0.14443016 0.08659311 -0.062281955 0.2566054 -0.45523208 -0.46207637 0.13563538 -0.5826607 0.28505126 -0.17854536 0.03096904 -0.030318141 -0.004539322 -0.032102786 -0.4329657 0.24077941 0.14740135 -0.25153753 0.64553595 0.48557252 -0.5367524 -0.040622015 0.54368514 -0.48107198 -0.14844677 -0.88158095 -0.651355 0.33537441 0.15268627 0.086880006 -0.21393476 -0.21992025 0.2756264 -0.25342667 0.0034299353 0.10113282 0.41405407 0.22136535 -0.042999648 -0.2681407 -0.13253896 0.2069257 0.1623444 -0.17700958 0.5168751 0.25198317 -0.20077835 0.6921606 0.7258815 0.012376057 -0.018227868 0.18967353 -0.078309245 0.1790153 -0.17449853 0.19843847 -0.37566358 0.11090864 0.3434763 -0.46526703 -0.5077267 -0.14566866 -0.27263325
可 0.07896549 0.36045545 0.49023402 0.05304312 1.2913904 -0.4746025 0.20450518 0.37510443 0.0649346 -0.03385896 -0.06431025 0.07920291 -0.18612175 -0.44077268 0.2961474 0.18820746 0.3037889 0.65606636 0.22780643 -0.96066004 0.009621884 -0.9722742 -0.38161308 -0.29602063 -0.12314974 -0.7847874 -0.15616411 -0.745508 -0.586293 0.43431586 -0.48264602 -0.18122302 0.05015375 -0.5199745 -0.10390096 -0.06436437 0.15490003 -0.5405481 -0.5077134 0.27439824 0.7823303 -0.11596117 -0.15908693 0.25840884 -0.20715278 0.22362842 -0.12819706 -0.41404936 0.23972908 -0.036767583 -0.07715188 0.20054269 -0.02263725 0.7311387 -0.44422036 -0.278532 -0.13161653 0.04501607 0.12721701 0.2529907 -0.31544027 0.43741873 0.7800612 -0.39589918 -0.46404445 0.03346666 -0.15625945 -0.55009836 -0.86930794 -0.09867315 -0.50956446 0.66621727 0.3982483 -0.4871243 0.8286179 0.17905363 0.3543155 -0.5441628 -0.7167865 0.07280725 -0.20456333 0.26011875 -0.35850164 -0.108654104 -0.12583312 0.32415903 0.113659166 0.72641563 0.57003284 0.41103825 -0.25596705 0.46601772 -0.7150014 0.024173463 0.029954525 -0.18501468 -0.03138656 -0.31260535 0.34989166 0.2703945 -1.0941117 0.29447404 0.40495303 -0.17636949 -0.42117545 -0.38422102 -0.19669583 0.70491534 -0.3444648 -0.34425148 -0.44386175 0.17757231 -0.110691585 0.05012048 -0.5836399 -0.7887687 -0.32225075 -0.13907798 -0.3781281 -0.425116 0.34342653 0.24662328 0.1779787 -0.12360527 -0.1866986 -0.029498175 -0.36313403 0.51891303 -0.27643877 -0.57179844 -0.056668133 -0.5878607 -0.30318627 -0.23545302 0.20696674 -0.4697688 0.52278906 -0.8367306 -0.20902315 -1.0368171 -0.6117221 0.1690596 0.09698908 -0.17142293 0.012827453 0.42018035 -0.3193747 0.008720415 0.11041306 -0.19853312 0.6435381 0.013540517 -0.31446698 -0.040095422 -0.8946632 0.028699009 -0.23194905 0.5098971 -0.23955834 0.28877223 -0.3951521 0.33631632 0.7878753 -0.16489518 0.38610297 -0.02860888 -0.13642307 0.30107024 0.5483199 -0.1416343 -0.18626727 0.18817861 -0.36824396 0.24215746 0.708819 0.729488 -0.85651463 0.51970464 -0.91752195 -0.3742354 -0.040400147 0.7674205 0.43005258 -0.024287505 -0.1982051 0.34209475 0.18539745 0.83185583 0.27953133 0.4848192 0.15561569 0.22884822 -0.7603379 -0.9505031 0.08640434 0.53480667 0.4617442 -0.45077074 0.29612905 0.10935652
术 -0.042401727 -0.83285004 -0.2939141 -0.7035542 0.64866847 -0.61068267 -0.22167952 0.66516364 0.092515 -0.18928912 -0.27514285 -0.05098294 -0.25956237 0.53818023 -0.41229233 -0.10764055 0.2772741 0.5879798 0.19390114 -0.49254358 0.323921 -0.31871912 0.09518972 0.09096574 0.32051545 -0.17145652 0.3471937 0.83327776 -0.48313168 -0.3757469 1.0042294 0.05542725 0.58104724 -0.2630715 -0.440383 -0.7521119 -0.19071034 -0.79395497 -0.057691675 0.078975454 -0.36752138 -0.18246886 -0.5693012 -0.81201863 0.2719042 -0.524019 -0.09249133 -0.4611981 0.51580286 0.20130701 0.1598664 0.07650685 0.034776334 0.28816706 -0.13318948 -0.23542006 -0.42155445 -0.08749918 0.09248808 0.27402145 0.28822178 -0.66574734 -0.06280855 0.72494036 -0.73790735 0.9945694 0.40655398 -0.14032231 -0.55388486 0.5124523 0.24626435 0.5387955 0.5640984 0.15650345 -0.3531191 0.5280721 0.5981457 -0.33226216 -0.24542333 0.46960083 -0.18442255 -0.13606292 -0.6847683 -0.09027456 -0.29605567 -0.50883377 -0.11957335 -0.2648983 0.3350488 -0.102390185 0.013363628 0.09506514 0.5011814 0.023508422 0.9777103 0.44740808 -0.11249502 -0.18690874 0.4208193 0.58299536 0.32099923 -0.010425667 0.11462109 0.6040917 0.29044077 -0.48804185 -0.4602251 0.9968454 -0.07056128 0.011813039 -0.37642333 0.03513392 -0.68265885 -0.10434374 -0.2958479 0.57698685 0.08028564 0.01514787 0.009652964 0.098574184 0.032768305 0.34318534 0.7271689 -0.8828357 0.090276934 0.119487375 0.6132069 0.06189853 -0.5189674 -0.3300473 -0.19439328 -0.2980264 -0.1284709 -0.11608119 0.7236565 0.43779236 -0.38152018 0.1455993 0.11738091 0.65590674 0.931229 0.20115061 -0.36111954 0.1854296 -0.19295691 -0.38430613 -0.22451133 0.30514845 -0.3603084 -0.06489571 -0.06861596 -0.4425145 0.02963408 -0.32663912 0.34482294 0.82695836 -0.2780051 0.4687272 0.008864424 -0.08231903 0.35666263 0.3890042 -0.038325693 0.06283773 0.42617834 0.70610833 1.0597652 -0.58906835 -0.1922019 -0.11882852 -0.32116133 -0.6532997 -0.47142565 0.048101302 -0.26112399 -0.3425784 -0.105870426 0.04061129 -0.73931557 0.43564823 -0.35445535 0.65110046 -0.12872018 -0.31281945 -0.22513548 0.05937332 0.86590666 0.18517101 0.93486166 -0.33746982 0.32949665 0.7141826 -0.12589978 0.4574125 -0.41885182 0.04208412 -0.054560248 -0.50532573 -0.13473041 -0.39804232
间 0.32927045 -0.1923588 -0.19679348 0.6508777 0.47424024 -0.5171415 -0.6785727 0.5268211 -0.63622975 1.213656 -0.58076024 0.094258524 -0.104662314 0.10986699 0.49179843 -0.43787488 -0.98998374 -0.6186012 -0.1055218 0.09145296 -0.07905896 0.9451384 -0.078695506 -0.13973325 -0.78091514 0.41609618 -0.9356646 -0.22529237 -0.07421521 -0.16930467 1.4451022 0.18157916 -0.11276033 0.06465288 0.43548295 0.8552292 0.34316415 0.09333763 0.35519904 -0.48699427 -0.32787955 0.28061476 -0.52321935 0.5523397 1.181051 0.27742177 -0.48549032 0.13648179 0.18863872 0.11206773 1.3820735 -0.93270296 0.22155753 -0.8661589 0.71251005 -0.35159656 0.51281345 -0.26612297 -0.85666245 0.1595895 0.5678694 -0.11646839 -0.85547364 -0.34875774 -0.2933967 -1.102356 0.17655966 1.4988164 -0.22144116 0.11806111 -0.65467864 -1.2785716 -0.8196581 -0.0056075607 -0.31690785 0.6249734 0.29533127 0.09340753 0.18449941 -0.37831247 -0.7462588 0.6719121 -0.94006854 0.86335534 -0.03376348 0.047004104 0.021885106 -0.141532 0.53625494 -0.18155693 0.38601154 -0.092645004 0.9527665 1.1802514 0.8324815 0.6447751 -0.5033719 -0.08210147 -0.77336156 -0.53118074 0.10392735 -0.09856532 0.67845935 -0.36821803 0.38341403 -0.0021914945 0.08051416 0.42704064 -0.33197662 0.06891287 0.511818 -1.8904561 -0.5501624 0.18598844 0.99671084 0.17706726 0.7607615 -0.5703811 -0.3865508 -0.3623552 -0.6875943 0.66385794 -0.23666155 -1.3675988 -0.097278 0.3809644 -0.40952504 -0.90649164 -0.22869343 -0.2141797 0.23878996 0.33693498 0.74583524 -0.3433912 -0.06015198 1.0647509 -0.24064101 0.6257429 -0.13674356 -0.15535766 0.6755049 -0.748539 -0.1593836 1.0872788 0.34978133 0.26743612 -0.30832908 0.034245465 -0.08910553 0.52380186 -0.3438646 -0.2050977 1.8583916 0.61687386 -1.4276772 1.084955 0.64457154 -0.28153613 -0.12603971 -0.2973878 -0.14361711 0.07606968 -1.0203793 -0.17309237 0.14185727 0.4671836 0.24408257 0.41509786 -0.04334996 -0.03546514 -0.2697703 0.51894885 0.22993849 -0.119109616 -0.51091594 0.042310882 0.36944017 -0.85249096 0.6266457 0.31345797 0.06174755 -0.13123569 0.2439498 0.37159023 0.7003945 0.14566617 0.17628352 -0.23638272 0.14792193 0.27294457 0.11756914 0.12081319 -0.23410484 -0.666581 -0.33215725 0.8235595 0.83863866 -0.2912901 -0.11452925 0.029796088
