440 200
学 -0.4052493 0.34499377 0.9167951 0.2035593 -0.7486475 0.3401592 0.37998727 1.1409812 0.10356901 -0.122292615 2.0905292 0.033580888 -0.11002404 -1.1293468 0.7014129 -0.12855755 0.4237854 -0.17193429 0.20415899 -0.8653027 -0.28576615 -0.059111413 0.79755855 -0.36844665 -1.0449126 1.4931605 1.0831721 0.47561705 0.6438973 -0.38687333 -1.1652465 -0.9083324 0.08010719 -0.4222062 0.17842649 -0.082711406 -0.5613499 1.7428805 -1.0806671 0.5558481 -0.93698114 -1.2434484 -0.9352179 -0.29918078 -2.1156158 0.33978084 -1.7426388 0.25871307 2.0919585 -0.07405014 0.14077216 1.0490236 -1.1349541 0.12533687 0.69403905 0.6438705 0.6339343 -0.5293063 0.5585597 -0.24527062 -0.0049367533 -0.43362686 -0.34486064 -0.5262438 0.98353875 0.20285009 -0.48408842 -0.13953228 -0.2781582 -0.40582818 0.6454713 1.2658657 -0.6277056 -0.61247224 1.7782764 -1.2418985 1.0664384 2.1226628 2.0019064 -0.4629847 0.44907543 1.2946881 0.09097361 -1.1467562 0.8257149 1.1970361 0.12722054 -0.27887025 -0.68612003 0.39385784 0.37529707 -1.0294601 1.40822 -0.6432142 -1.7235194 0.124181494 -0.50544447 -1.1193676 1.182445 -0.15722774 -1.561857 -0.38737527 -0.8078806 0.059478275 0.19792296 -0.028590715 0.40386865 -0.29439154 0.8238853 -2.1840124 2.0644522 -0.5464721 0.75925964 1.3011249 -0.35648566 -0.44152734 -0.69755155 1.0602344 0.20412819 0.13532329 1.1206118 -1.3073872 0.9380832 0.85149145 0.2405006 -0.3769294 -0.7671155 -0.07895815 1.3002664 1.2020341 -0.41690183 0.33377424 0.24520557 -0.002461453 -1.3680073 0.25573084 0.1903271 0.5085758 0.57554513 0.16894785 1.3356373 -0.3692273 -0.80122703 -0.24575806 -1.9290996 0.21923375 0.50446665 -0.21645029 -1.1665515 1.6603996 -1.455006 -0.27600643 -0.7240405 0.5171481 -1.6403351 0.7034694 0.9745436 0.8869253 0.3071066 0.2094011 -1.0577854 1.1340204 1.6041487 0.05715962 -0.19049992 0.105012156 0.648849 -0.54946315 2.5451658 0.8346969 0.28180835 -0.42931303 0.88616496 0.22732097 -0.49583867 0.36367765 -1.4060769 -1.2095621 -0.688947 -0.32431298 -1.0000958 0.4234233 2.1113138 0.22811913 -1.3989496 -0.82474816 -1.9034035 -0.06040393 0.3198067 -1.519869 0.5956589 -2.7853298 0.39810377 -0.9189445 -1.5182076 0.1909158 -0.6474023 0.20196389 0.89798754 0.60905707
课 1.3135796 -1.7946818 -1.8337227 -0.9093276 0.85614294 1.9414341 -0.5041634 -0.0943435 -0.44584957 0.15491097 1.0218858 1.1794642 0.10155726 1.0601059 0.6036866 -0.5418337 1.8173878 1.0950191 0.16896519 1.4755785 -0.05459563 0.35510698 0.59049237 -1.1268885 -0.03883877 -0.69913554 0.7606985 2.357006 -0.05624971 1.3083093 -1.157336 -0.33847997 -1.7294843 -0.58882475 1.7135984 -0.57757264 -1.565295 -0.30372056 -1.1633936 0.88208914 -0.2912127 -1.4200896 -0.7998148 -0.15366499 -0.42330086 -1.2280107 1.1297063 0.7380906 0.40433747 -0.21944138 -1.8741075 0.47660428 -1.3697762 -1.0520338 1.1738638 0.23194171 1.6296852 -0.707633 1.2206728 0.21484514 -0.64724 -0.3238508 0.15372956 -0.70498997 -0.50754505 -0.10100199 0.6031515 0.1650811 -0.40925595 0.50922215 0.7448024 0.6699118 -1.6125588 -1.3674886 0.026696322 -1.0208688 1.4087698 1.6495483 -0.32616237 -0.8795328 1.081076 0.42870128 0.24173723 -0.49123347 0.19367684 -0.118167825 -1.4906594 -1.6414231 0.9405605 -0.23983051 1.2689359 1.306782 -0.15706514 -1.1962668 0.21146204 0.7531912 0.5253534 -1.5007778 1.0239643 0.17928083 0.6284216 0.22026801 1.1936975 -0.056945853 0.5772476 0.7829332 -0.87907636 1.2984151 2.4496899 -0.97365105 2.11516 2.073586 0.054027505 -0.4245438 1.653875 -1.7129931 0.73723435 -0.5699079 -0.89057213 -0.45553392 0.4716536 -1.4155921 -0.30571222 1.7215583 0.23967996 0.11294054 0.60031474 0.05560647 1.4396183 1.4928225 -0.06181291 -0.68530864 -1.245414 -1.0930071 -0.1865941 0.44051284 1.9807398 -1.3557395 -0.88992167 -0.17249665 2.1190164 -0.8528382 -0.1360818 -1.0507774 -0.09973922 -0.85101014 0.34267214 -0.88947344 1.8372524 0.9873566 -1.0841521 0.2264705 -1.2357631 -0.030178819 -0.6293589 -0.9663075 -0.9224625 -0.22609387 -0.31192702 -0.64127624 0.37738058 1.1423413 1.231868 0.55745316 -0.07423668 -1.2281265 0.87774116 0.42652008 2.7669895 -0.18747093 0.27531567 0.40000585 0.14351264 1.8289219 -1.1470237 -0.2216475 -0.12642787 -1.6665733 -1.5270157 -1.5360088 0.2342341 0.57818854 1.6694866 0.18994893 0.32784152 1.5098459 -0.6848218 0.3750176 -0.041841134 -0.8516366 -0.89202595 -0.4534772 0.90314454 0.37504038 0.13639596 0.23301621 -0.24726172 0.14439206 -1.600032 1.7100205
中 -0.872905 -0.68421555 0.8310384 -0.55462396 -0.8973555 0.96068466 -0.073148206 1.1111122 0.69038576 0.8602113 1.8258634 1.1057608 -0.82038426 -0.4854756 0.4305214 -0.04725908 -0.23202904 0.5246885 1.5553105 -0.7498501 -0.5024112 0.6058442 1.0277466 0.3453893 1.1077294 0.77377516 -0.95968074 -0.4124196 0.47121185 1.4465429 -1.5843823 0.6818758 -0.6266297 -2.1587667 1.8742197 -0.65078574 -0.26603505 0.72074044 2.020776 2.3085048 -0.8918247 -3.9801533 -1.0536544 0.8041641 1.194979 -0.7367216 0.00048723887 0.015588376 0.051450007 -0.7791792 2.2052002 -0.15377222 -0.31185463 -1.8419049 -0.001590366 -0.28983015 -0.3030011 -1.2519459 1.3100501 -1.5273967 -0.11548384 0.39632314 -0.14631432 -0.6996264 2.4020965 2.3275332 1.0611459 -0.6802288 -0.78916067 -2.2249887 0.6073471 0.17378902 0.63574356 -1.9956326 2.9089174 0.2769982 0.33385894 1.5524915 2.4513416 -0.72870636 -0.08427413 -0.28295395 1.1221453 -2.083211 -0.7063657 -0.13649757 1.3577554 -0.071687415 -1.2818625 -0.54523826 -1.2583286 0.09751503 0.28571692 1.0009212 -1.1665655 1.0954266 0.84639883 -1.1044524 1.847529 -0.31716996 -2.2972322 -2.5285316 -1.9899279 0.32547638 0.028735874 -1.4956976 -1.0139968 0.13638906 0.35485166 -1.4757693 0.23275514 -0.961782 -0.278073 -0.26721466 0.27962005 0.32606983 -1.0297769 0.5186565 1.8500086 -0.13375801 -1.7432983 -0.69047326 0.7661034 1.7592413 -1.5951227 -1.8566296 -0.16680303 1.9501432 0.3965739 3.973251 -0.5954266 -0.28208855 0.59005356 0.49638313 -1.1052326 1.3193085 0.19558366 0.78558266 0.23855917 -1.6705024 -0.7320905 -1.8993843 0.26805195 0.810091 -0.009557095 -1.6866578 -1.8593824 -1.3143836 -1.3046318 -0.5256383 -0.6681806 -0.48070768 1.6965638 0.81915456 -0.7810969 -0.7600105 1.5939003 1.7390429 0.76658285 1.027919 0.6979328 -1.0749419 1.9440156 0.41327187 0.59108704 1.2734259 -0.11707257 1.9507791 -0.0041623353 -0.79310507 0.8730801 1.2148031 1.3387215 0.77678925 1.007727 -0.28005788 -1.0965229 -1.7548809 0.7235722 -0.21557847 1.0318453 -1.7193176 0.5245894 -0.21136005 -1.2482337 -2.2108033 -1.0204954 0.63990015 -1.3099502 -1.2628889 0.58487535 -0.3697166 -1.2742783 -0.763251 1.1394179 0.260206 -1.0412796 0.34547734 1.4155531 -0.8312695
提 -1.5581828 -0.46698013 1.0701423 -0.3813728 0.0017261514 0.80425394 1.3822551 2.1162355 0.41731292 -1.313167 2.0366225 0.200677 0.9260383 -0.5953957 0.04221944 0.5152451 0.1658023 -0.2120486 2.7158356 -0.1532257 0.32786632 0.23902628 -0.8983022 0.33112305 1.8687915 2.6338823 0.93272215 -1.6687366 -0.68721795 -1.3925818 -0.9590047 2.1219513 -2.145444 0.5925362 -0.09189042 1.0053874 -1.4717987 -0.82864475 0.1886901 -0.49458972 0.07224353 -2.8003256 -0.10014989 1.0344102 0.9608272 2.7789075 -0.007939072 -1.0700043 -0.79165393 1.4274876 1.7588614 -1.9430692 -2.41512 -0.22056805 -0.6019369 -2.067752 1.3631886 -2.073682 -0.48790374 -1.0220952 0.57913905 1.6194034 0.15512495 -2.0886111 0.93692225 -0.39334568 -2.209546 -1.5430757 0.24302857 -2.2795045 -1.1392542 0.958002 -0.4867775 -0.9137058 0.99744266 -2.610861 -1.9759547 -0.5671075 1.7334832 1.1464622 1.0708898 -0.22357604 0.4115959 -2.6065488 2.4941034 0.7543831 2.0679288 -0.84599525 -0.5333867 1.3177543 -0.38939384 -0.8616815 -0.37835863 -0.85285056 -0.81813115 0.87690854 0.8092035 -0.6444849 0.13765113 1.8033862 1.2703522 0.83711344 -2.2953148 -0.6469302 -0.5078618 -1.1216471 0.53688455 -0.20697618 -1.2900206 0.303902 0.8715412 -0.2584612 0.91347766 1.8499099 -2.0323217 1.2621098 -1.5798483 0.81310713 -0.5517507 -2.1651788 1.145335 -1.3363578 0.3280029 -0.87074333 -0.7447651 -0.14558348 0.12881449 1.1329263 -1.3013827 0.6511913 -1.1482791 -0.12072187 -0.9411164 1.3918556 -1.4171913 0.6671156 -0.45666146 -0.67258555 -0.53292567 0.89944935 1.2495689 -1.2610587 -1.4511017 1.613903 0.6826908 -1.275992 -0.47383 0.27818263 1.1405417 1.1385347 -1.9732543 0.5088891 1.8134978 -1.3317438 -0.5307743 -1.4738653 -2.1283987 1.1178426 1.7948816 0.26977697 1.781872 -1.4415361 -0.99610347 1.142257 -1.2212772 0.554343 -1.3370541 0.7169986 1.1275392 -2.2075512 -1.160057 -1.2663183 0.7360781 -1.464241 0.3667321 0.065289386 0.6455957 -1.97405 -0.6632576 -1.4884219 0.25744036 0.93737096 0.44267893 0.48635337 -0.37386632 -0.41017613 -0.53804046 -1.894715 -0.6849578 -1.5860859 0.06093195 -1.5858448 -0.9336984 -0.21557866 -0.62174606 -1.6486983 -0.40907475 -0.85357016 0.47028095 1.9919271
论 -1.8265672 2.3447938 0.36940932 0.88161737 -1.017634 1.0672233 0.4799793 -0.7951545 0.42681837 -0.4720977 0.14721406 -0.49985185 1.341407 0.31844783 1.4403664 0.769254 -0.44302192 -0.84692484 -1.5556397 -0.77352047 0.51980996 3.023611 0.18657893 0.28921688 0.7197304 1.5149285 0.7141329 -1.1868844 0.35983503 -1.6328224 0.36909908 0.70570016 -0.92583 0.5404417 -0.7503116 1.6835635 -0.5517113 2.6875324 -1.1367539 0.16914038 1.2796639 0.30026856 -1.0744536 -1.0221864 -1.3186201 -0.324889 1.121329 0.33338624 -0.1902664 -0.583786 0.006780658 0.90021247 0.0017701647 -2.1045923 -0.6574642 -1.164683 -0.09110484 -0.55105036 0.13546692 -2.891774 0.15432705 -0.90797895 1.8654413 -1.2448 -1.3469149 1.0249257 -1.4918885 -0.057474174 0.21115862 -0.30171278 0.28088176 -0.79009473 0.18027593 1.9630464 -0.22188109 -1.3994393 -0.4482466 -0.3208868 -1.3465217 2.4704008 0.16692354 -0.8433305 0.021229805 -1.5948167 0.9014855 1.2522346 2.2149677 -2.8358803 -0.053122647 0.28213364 -1.1127571 -1.1927066 1.2332662 -1.204172 1.1327455 2.7413583 1.0291852 0.7852093 -0.72597474 0.29098797 -0.13922718 -1.5784348 -0.1252576 0.23568639 0.35250404 -1.3056597 -1.6935816 -1.126686 -1.0287743 0.9580372 0.6008315 -0.48569643 0.5976117 1.2357397 -1.8967612 1.1944003 -0.4028123 0.43402869 1.9620781 1.1053456 0.6567491 -1.0050501 -0.9337583 -0.27590328 1.3638074 -2.2756371 -0.33520436 1.3433642 -0.22367893 -0.0631121 0.68385077 1.0970236 -0.33602276 1.4926652 0.10641689 1.5474513 -1.3797952 1.4437412 -0.72504854 1.0954237 -0.14495376 1.7504079 -0.04205157 -0.3940483 -0.3693452 -0.3409815 0.55694455 1.2013494 -1.7507644 1.9915713 -1.849932 1.1692392 0.224772 0.2887951 0.030441076 -3.0180702 -0.47885698 -0.7633594 2.2290847 -0.45498258 0.019225761 1.1350051 2.4574087 0.49886426 -0.63940936 -1.5855339 -0.92739713 -0.56520945 -0.3605866 0.31537682 0.19761844 -0.59451264 0.76325756 -1.7734108 0.08978775 -0.22094782 0.0720253 -2.444042 0.75776154 -0.49188125 -0.02248796 -1.7465717 0.4228015 1.2184888 -0.9959928 -2.2780614 -0.35674483 0.24958938 -0.63809204 1.221883 0.16303803 -0.13457006 1.8175766 0.08451697 0.4502799 -2.411529 -1.9700924 1.4871628 0.9021906 -1.2528108
培 0.78826797 -1.4632045 1.3839622 -2.4826143 0.08075746 0.88802934 -0.15486732 -0.4376258 2.833202 -1.2491847 1.2218866 -0.37737045 -0.8952689 -2.981385 1.230027 0.715243 0.17967518 -0.9987795 2.800354 1.5495532 -2.969128 -0.8348473 0.15624133 -0.31609744 -0.30867457 -0.18363373 0.7647483 0.89342844 -0.71863633 0.19775976 -1.6353402 0.3085982 0.024811186 -0.63076437 2.7127132 -0.7242828 -2.2186623 -0.63462573 0.84528536 2.1502838 0.104496725 0.097439975 -2.5035188 -0.6332247 -1.2819964 -2.6860034 1.8859044 1.5011961 -2.179328 1.437141 -1.5086344 -0.10713407 -1.7232248 -0.5580138 0.9623117 0.16174151 0.28676483 -0.754024 2.6539414 -0.861954 -0.67700076 -0.5586691 -0.5987184 -0.61123544 -1.5070612 -0.12116628 -0.79471785 -2.1165278 1.4176497 -1.6514779 -0.25392848 0.31723776 -1.8103908 -0.8579803 -0.5760439 -0.31550178 -0.24537782 0.09602116 0.30870038 -0.49980846 0.15566373 0.8489457 1.5583986 1.2083185 -0.52958274 1.5320355 -1.1036229 -0.37543008 0.4455594 0.9234494 1.8541248 0.10651817 -0.90818536 -0.6788976 -0.0654492 0.46949202 2.082731 0.16448861 1.8622527 -2.37182 1.5642396 0.44361693 -0.52657217 0.4661614 0.66952777 -0.09926933 -0.85715723 0.41803178 -0.74723315 -1.0762985 0.8573199 2.5042226 -0.09659375 0.34442636 0.9931256 0.53714615 0.18805163 -0.9412135 -1.0295018 -1.2755488 -1.6210877 -3.260805 -0.7205961 0.5784476 -0.112494335 -1.3539146 0.29433608 1.496067 2.3871117 0.6175246 -1.9669577 -1.3747984 -0.26899964 -0.10557546 -1.1542407 0.13175921 0.013456301 -0.051310703 -0.7445853 -0.78672504 -1.1383352 0.03601842 -0.9475673 -0.57200444 -0.08256243 -1.8347508 0.90285164 0.6493269 -0.6476232 -0.25741836 -1.1893458 2.725027 -1.8663261 -0.5179727 0.10671674 -1.3818408 -1.146563 -0.112788275 -2.186424 -2.0353866 -0.9668177 -1.3464019 1.5640367 0.7740928 -1.2213974 0.35852492 3.8186116 0.790564 -0.08235134 1.5950046 0.74895996 3.2525222 -1.5186267 1.6121726 -1.1994716 -0.8829553 -2.015551 -0.9818072 -0.33244103 -1.4696944 0.61917335 0.78084016 0.019305184 1.4264597 1.2980195 -0.19024406 -1.1686753 0.75181603 1.7424879 -0.08698022 1.4092747 -0.3723748 -0.43824205 1.0923655 1.1510507 -1.1416636 -1.3548344 -1.577451 0.52258563 1.3810993
养 -1.6143922 -1.9528677 1.8584156 -1.5028416 1.3540688 2.768889 1.6830275 1.3219713 2.8628967 0.769526 -0.16608606 0.9104353 -1.9062767 -2.8972907 -0.98427993 -0.69830364 0.11149013 -0.23084414 2.0813596 1.6618073 -2.8242838 0.013943654 -0.6425716 1.1050932 -1.5744214 1.1295593 -0.25497797 1.4721087 0.4954899 -0.17035234 -0.20193072 0.38472274 -2.2533865 -0.733566 0.72937024 -1.7680675 -2.281873 -0.80532014 1.3271176 1.5976077 -0.4365894 0.0017214548 -1.7772502 -1.4468851 -1.4573756 -3.733918 2.7058008 1.0208974 -0.7577827 1.101452 -0.08885879 -0.6885423 -0.7241087 0.32185078 0.104540035 -0.18268909 -0.37631473 0.2455937 2.417132 -0.1404553 -0.81607306 -0.30157447 -0.4232005 -1.2545451 0.5272861 -1.3396024 1.4941138 -1.212329 0.63010406 -0.58099127 0.3199879 0.4663843 -0.2172563 -2.5641234 -0.20596491 -0.9005481 0.16962996 1.3132503 -0.9829078 0.5471756 -0.8789326 -0.17295647 0.5396398 1.3623587 0.23594932 -0.16987103 0.24780689 -1.1516398 -0.6551527 -0.031569198 0.2436587 -0.48003784 -0.25695473 -2.052448 0.8765822 -0.18224724 1.9042281 1.362878 3.5788078 -0.11832265 -1.3546587 0.0419653 -0.86889446 0.36118218 -0.89904 -0.07652786 -2.462495 -1.4993403 -0.60514945 0.16628383 0.6665836 1.1635394 -0.45695347 0.33561254 0.5558636 1.0332066 1.8996857 1.3926529 -2.528184 -0.9185568 0.38034043 -1.0987043 1.1085927 2.321166 1.1599756 -0.43363497 -1.2646356 -1.2434353 1.560218 2.2466698 0.37167037 0.5523116 0.51839924 -0.8272687 1.6180497 -1.0984303 -0.6154853 0.20255125 0.31907597 0.1809202 -0.4190363 0.9781545 -0.1591513 -0.69040966 -0.5951008 -0.29211456 -0.45594206 0.0048301127 0.8355948 0.23239473 -0.4734916 3.458201 -1.7106564 -1.0958165 0.551968 -0.77092224 -0.52795976 -0.88828653 -1.587557 0.28032073 -0.44141448 0.15467116 2.6611648 2.044134 0.2381999 -0.39733848 2.65899 0.66551256 2.25665 -0.055123385 -0.18850522 1.2684021 -1.5641416 0.6749414 -0.18901035 -0.042741995 -1.8210557 -1.6970961 1.0441622 -0.1888461 0.54662293 -0.8377713 1.9494599 1.0112154 0.07656587 2.3239412 0.41749847 1.3849227 -0.6662077 -0.52233356 0.61183745 0.25780556 0.8261902 0.2700464 -1.1286552 -0.42339385 0.36474735 -0.6015674 0.9227647 3.2785513
导 1.475041 1.5097208 -0.97888374 -0.94729733 -1.0717992 0.5350425 1.6814915 1.2766764 0.14771514 -0.4988628 0.6832603 -1.2061275 -0.31533396 -0.9872715 -0.05519384 1.4619806 0.49352312 -0.6930097 1.8392988 -0.13694419 2.903896 1.7276242 -2.4526687 -1.6436713 -1.5375814 2.0949278 -0.32794195 1.0766006 0.70436996 -0.3027689 -3.1149948 -0.2583438 -0.5937763 -0.35772562 -0.120836265 -0.6390071 -1.5373778 0.6252144 -0.16543569 -0.16207004 0.25884357 -1.1180949 0.9984761 0.345064 0.46204486 0.65883315 -0.900602 -1.7859346 -0.17590035 1.5121543 -0.15975426 -0.10029793 0.6869695 -1.4937342 -1.4432931 -0.35981947 -1.2091413 -0.1705498 0.7476488 -1.1997845 -0.32838202 -0.81558734 0.12376655 -0.57267755 0.7873287 0.25469288 -1.2591119 -1.4186193 2.426137 -0.92788696 -0.23227213 0.8167356 0.7935626 -0.99577004 -0.18106991 -1.6306915 0.5649115 0.2634086 2.5909293 0.2361323 -0.82300866 -0.6084025 1.4563978 -0.2526717 1.1077774 0.4830531 0.034661774 0.487656 -0.9881934 -0.3512698 -1.7199968 -0.26628354 -1.7424469 -0.4544741 -0.082291834 0.1290536 1.0961447 -0.08452623 0.6985088 1.2091628 -2.015009 -0.44440764 0.606345 -0.0866834 0.21497822 -0.68759346 0.18867117 1.4283004 1.1907327 1.341877 -2.3557718 -1.2946566 -0.14694503 0.2957226 -0.8879674 -0.051015563 -0.45075634 0.0690124 -1.9264168 0.9450808 -1.1697143 2.0342677 -1.9841291 0.68858355 -0.51371133 -1.5782415 -0.048626393 1.6972473 -0.27574605 -1.0423688 0.50978255 -0.48394686 1.303157 0.58936894 0.9312967 1.3224945 0.9993602 0.70377433 -3.238619 2.952853 -2.572498 -0.38088468 -0.14702672 1.0268568 0.8711332 0.73962706 -1.6366403 -0.07424521 -0.15189826 -0.72604567 -0.4755664 -0.18709062 -0.27117774 0.061392933 0.6032376 -1.2835002 0.54285926 1.2995955 0.41383904 1.2050116 0.27542248 -1.8952081 0.50619715 0.9380136 -1.4195224 1.5687914 -1.6287537 1.9141326 0.027698262 0.27536735 -0.70191807 1.4882426 -0.38453874 1.7585518 0.49365872 0.44360867 0.9372135 0.7566127 0.68872344 0.47343817 -2.15481 -1.4232534 0.69366926 -1.0915909 -2.0842092 1.4614316 0.4591678 -1.8721948 0.15934998 1.6146058 -0.06848982 -0.048143238 -0.29207695 -1.81566 1.2737714 1.0575833 1.1910385 -0.34329253 1.9542929 1.4390216
审 0.20163915 1.1477182 0.5385253 -0.5704927 0.56904316 0.08893536 -0.28840923 0.0060449988 0.27421287 -1.2156798 -0.7634237 -1.1377223 -1.2279263 0.20317347 1.0431229 0.19120635 -0.81697094 0.12713625 1.3991548 -2.4549792 1.7120199 1.8524348 0.60055983 -1.2090995 0.9947684 1.4794312 -1.2864133 -0.9860573 0.21678303 -1.4381675 -0.49679872 -1.4017056 -1.5563011 -1.6531199 -0.526851 -0.00063239614 0.61878115 1.3874589 0.6896771 -2.507641 -0.17877 1.0685847 -1.1439986 1.8321532 0.7102388 -0.3298373 -0.9342695 -1.3365178 1.6765666 1.6506189 -2.4096606 -2.7739968 0.8640945 0.26084656 -0.14910789 -0.08980264 -1.1720817 -1.4072186 0.9056337 -0.019622864 1.6464097 1.0622222 -0.5862343 0.28851402 0.66111755 -0.61443585 -3.687941 -0.35685906 0.8438944 -2.1434164 -0.088037096 0.14226604 -0.3696277 -0.24715514 -0.029944811 -2.8939784 -2.5094776 -0.57128674 2.0402918 -1.1862471 -0.1558147 -2.6649384 -1.1863616 -1.933885 0.36584792 0.26157448 0.16426827 0.037879385 -2.5139978 0.8150518 -0.69165313 -0.91240877 0.8107068 0.8040283 -1.2787404 -0.8493087 -2.8938673 1.1696994 -1.8983129 0.12665394 -1.0684863 -0.110739015 -1.7472701 0.04434155 2.3978245 -0.58453906 1.5535744 0.27171347 -2.268891 -0.19888978 -0.13296527 -0.6488374 1.1871425 0.0081851715 0.5867971 -1.9609461 0.70301324 -0.5981817 0.9326727 0.2825963 -0.64238995 0.056393143 -3.0992625 0.4225027 0.40820003 -1.4029946 1.2095652 -0.847647 -0.82130885 -0.2356244 -0.10617281 0.911724 0.041818492 0.64421165 0.0032882947 1.1341882 -1.6123432 1.5156467 -0.9932771 1.4885132 0.92438126 -0.27185753 0.37583843 -0.33041543 -0.14644334 1.5789456 -1.0065786 -0.6441734 -0.19269663 0.8307532 0.74720865 1.9279917 0.1018548 0.44536772 1.7191886 -0.6305484 0.47224858 0.69009936 -0.12155348 1.1245563 -1.1743098 -0.38798222 -0.35366133 0.25838378 0.34008908 1.163422 -1.6042037 0.110327944 -0.051632006 -1.1523248 1.5187501 -2.2052934 2.6267803 1.0140564 1.8875175 1.0378946 2.3445685 0.49045593 1.6241541 0.5858102 -1.5782723 1.8521085 3.2731907 -0.88740796 -0.3413295 -0.41690996 1.3067907 -0.18115585 -0.20212348 -0.12521157 1.7669548 -1.8493325 1.8729924 0.5451305 -0.6628366 -0.054627173 -0.037319858 0.5192518 -0.39643002 -0.14468195
文 0.4118598 0.124271005 -1.6773496 -0.0034065559 -1.049645 -0.37456864 -1.4966507 -0.14578228 -1.3671199 -1.1721244 0.5290536 -1.0232933 1.235036 1.2313815 2.151449 -0.5611503 1.2950674 1.2389556 1.4147983 0.7751154 1.1870053 1.3232886 -2.4808984 0.91535336 1.8247 0.5608775 -1.9452386 2.1630728 1.5513828 -1.4820106 0.5520633 0.34369582 -1.6542491 -1.8121748 -1.3779405 0.60741955 0.7646706 1.4854734 0.13359508 -0.6787685 -0.118897356 0.39495844 0.311761 -0.5543955 -1.7897195 1.000321 0.4366142 -0.6339436 0.18258537 -0.10439306 -0.82707596 0.1911634 -1.4796382 -2.9125624 -0.34686968 1.2107024 -0.44557142 -0.72066927 0.8409787 -0.882055 0.015617011 1.0311732 2.07718 -0.55878747 -0.24446963 1.8860317 -1.8827794 -0.07680776 1.507512 0.10686101 0.2680398 -0.61037606 0.032287393 2.5463955 1.7441747 -1.3807436 -1.1936487 1.561662 -0.8646923 1.0970843 0.86341846 0.13033664 -1.1447893 -0.6880647 2.549359 1.0555022 0.6635636 -1.0137745 0.44222057 -0.17641443 -1.6603017 -2.356725 1.7367647 1.1145835 0.78062814 1.3029592 2.0758915 -1.0884421 -1.3826281 0.6133053 1.240533 -0.15116298 0.45391288 0.93296224 -1.0540464 1.4210508 0.40663633 -1.4387108 0.009506509 0.31914872 -0.66130763 0.7050838 0.6473255 0.7131462 -0.260998 2.1848223 -0.960818 0.19218779 0.6116294 0.59886205 -0.12980741 0.8166732 -0.66939676 1.3423204 -1.3560132 0.026927257 -0.68732643 -1.7927607 0.07882345 0.34596995 0.18517242 0.708916 -0.1580933 -0.097070865 -0.85267025 1.8701645 -2.3721843 0.5499115 -0.47685763 0.0298139 -0.99560887 2.785459 0.7428916 1.1736367 -0.31829023 0.6104754 -1.1180248 0.94179106 -0.30598864 1.309382 -2.337847 -0.63812435 -1.6127548 -1.0097278 0.0662845 -0.07963129 1.7475122 -0.961484 2.8715518 0.60878676 0.9846218 -1.651397 1.2268529 0.83255494 -0.24528974 -1.5843717 1.048128 0.16072303 -1.4894358 0.0076023736 0.21062852 -0.19974403 1.6440929 -1.6673268 -1.5324496 -0.8493286 0.038458817 -0.67701364 1.0034455 -2.5918114 0.28336614 -0.30864936 1.0402046 0.48105493 -1.1412086 -1.1957304 -0.9856176 -0.78071654 -1.0976955 -0.6386438 0.65188247 -2.1139343 0.674709 0.7008747 -2.0178971 -2.3758779 -1.696204 1.5779506 -0.89408284 0.6190147
请 -0.22488147 0.25626853 -0.9434484 1.9961773 -0.61071396 1.020679 0.41164958 -0.12133662 1.3916051 -0.4468044 0.7235499 -0.8420784 -0.3132233 -0.9830799 0.36330986 -1.1679413 0.90440786 0.6661592 1.1838548 1.0473636 1.0199264 2.393187 -1.2508161 -0.27042574 2.4114375 -0.91152024 -0.33784646 0.5978138 -0.76413864 -0.076780714 -1.5789227 -1.6786685 1.3102446 1.0361108 -0.74485534 0.85282654 0.578075 1.0983468 0.9054914 3.1671946 0.8446529 0.6018014 -0.062476836 1.5768547 -0.09908573 -1.5568173 -1.9027966 0.56789404 0.5825184 -0.58551246 1.5138668 -0.7848598 -1.7895879 -0.38173124 -1.832172 -0.5934487 0.047813065 -0.5065076 -0.19931848 0.13229977 -0.55262285 0.75553596 2.508415 -0.89405113 -0.4944854 2.1348138 0.55571747 -1.0544038 2.785952 0.88782334 0.09156702 -0.68752605 -1.281858 -0.16224763 0.15755682 0.10031721 0.26186416 0.5757587 0.1375442 1.3090712 -1.6464859 1.0045044 -0.37312087 -2.0517683 0.32170948 2.3115444 -0.27579504 0.034051877 -0.1435353 0.5264664 -1.626541 -0.14250112 0.43271866 0.20315312 0.9557416 -1.0956594 1.5897985 -0.91608435 -2.0948668 -0.5118567 -1.282205 0.30233872 -0.69804806 2.9649734 -1.6596956 1.1256874 -1.1099126 -0.4887986 -0.593919 -0.08977175 1.8088369 1.0302687 1.2189453 0.9187514 0.08697064 -0.45688877 -0.35259715 -1.705933 0.594262 2.5866442 -0.6541903 -2.1714861 0.8072019 1.4912155 0.23739237 -0.0028856955 -0.46635884 1.6519319 1.5074711 0.13439134 0.1156239 -0.5953401 -0.9764281 -0.2253625 -0.5968339 -0.7454902 0.15283683 -0.43117985 0.5529298 -0.10093029 -0.7927388 0.52344275 -0.6735096 1.121126 -1.3822275 -0.90270495 -0.11537035 0.46690893 -0.3796421 0.634902 -0.37035903 1.6149834 -1.2642604 0.9868763 -1.9531511 -2.0606534 0.23775034 0.007952651 1.3537124 0.098312706 0.35247135 1.9163084 -1.1690373 2.0018163 1.1401328 0.099071935 0.6898602 0.6474469 1.036646 0.18450014 -0.33727625 -0.12604867 0.7498435 -0.022744076 -0.5166805 -1.905163 1.214528 1.9572968 0.883657 -0.3032508 -0.23657906 -1.9378017 1.8208395 0.2525921 -2.6485603 0.6961123 1.6166664 -2.4583163 -1.6056362 -0.3140569 2.202649 0.041433856 -0.32388365 -0.81710804 -1.0051659 -0.1153389 -0.12424787 0.6219114 -1.3646235 0.29515144
师 0.017013306 2.758999 1.2364347 0.5047591 -2.1472497 -0.29853004 1.1013887 0.5094331 -1.3529086 0.12795876 0.16670857 -1.5080545 0.14456506 0.04198614 0.42097744 0.2786385 -0.6689501 -0.15369427 2.2568357 -0.17803143 2.2154078 1.2741892 -4.214714 -0.24155122 -0.9655806 1.4101411 -1.7247578 1.6112562 0.23092502 0.36430615 -2.5023263 0.41485542 0.21960515 -1.1690685 -0.12186124 0.96967477 0.0810788 0.13676439 -1.45481 1.338919 0.9630203 -1.07766 0.90302813 -0.56877947 0.11607813 1.0909516 -1.0932753 0.39246497 -0.55808765 -0.22093643 -0.38963085 -0.09245324 0.54967844 0.4827196 0.88777447 0.06834141 -1.6790899 -0.16638324 1.3480908 -1.2142602 -0.252891 0.1820787 1.0253301 -0.20401953 -0.08118724 0.02448336 -2.0215945 -1.0736493 0.98037016 0.0035322497 -2.4929118 0.25496885 1.239065 -0.4321285 -0.3277822 -0.7974368 -1.6675798 -0.4463412 2.4975507 0.86651886 -1.3756948 -0.09449585 2.5700972 -0.7675391 -0.22732788 0.5581877 -0.70633674 0.57346016 0.48624772 1.7494811 -1.8629624 -2.1172988 -0.7640477 -1.5899146 0.23527768 -0.21203311 0.19684657 -0.05119632 -0.18913147 -0.115888685 -0.8023121 -1.5702649 0.62596405 -0.6156093 1.6295639 -1.4004384 -0.45452943 -0.33120444 0.293264 -0.72921324 -2.070019 -0.115265496 -1.4123262 1.3125265 0.5757269 1.845813 -0.8703999 0.3828735 -0.08458527 0.50446206 0.25819683 1.044544 0.097688764 -0.3240767 -0.8235355 -0.9351621 -1.5662262 1.0503818 -0.48159683 0.3840187 0.83419603 0.924131 -0.7242704 0.562147 1.1734768 -0.3307253 1.2766666 0.93475896 -2.2766674 1.4482394 -1.485994 1.1513176 2.3208852 0.14388976 1.5136758 -1.5724927 -1.2427009 1.9376101 -0.2324451 1.3372849 1.0224202 1.0843499 0.6583669 0.87551856 0.8728556 -0.5253966 0.87099564 2.9147546 0.5010524 -0.43732086 0.3547987 -1.1503633 -0.5865762 0.62189674 -1.2941177 2.1187634 -1.4762664 -0.1701471 0.78825265 1.0719852 0.23866203 0.98335665 -1.0865362 1.7988048 0.39902014 -0.6182483 2.1565547 0.9263787 -0.7012682 0.19208367 -0.21346946 -0.4515543 1.0992047 -2.496492 -1.6035093 1.9824142 0.34468505 -0.94282335 -1.4914666 1.3973366 0.98438853 -2.4304795 0.7896626 -1.0958266 0.3636756 1.1186582 1.9385957 -0.7301036 0.93642414 0.64909637
分 0.24922825 0.13537 1.1865271 -1.2181388 -1.6198586 0.26367974 0.2196655 0.82095724 -0.39700776 -0.18447188 0.62418604 -0.08232489 -0.64988035 1.1217632 0.13972574 0.23994695 -0.6725966 -0.14448354 -1.2056793 0.23380132 0.49259514 -1.1806242 -0.6084907 -1.9882598 -2.3351126 -0.48956704 1.8283758 0.60854596 1.6544712 -0.7100598 0.88683623 -1.6324898 -1.628344 0.5695337 1.9618016 -1.915294 0.06595541 1.3828623 0.7849179 1.2447047 -0.05475309 -1.5139906 2.0504155 -1.5035534 -1.349775 -1.4197365 1.9801763 1.7559956 1.6801718 2.0542128 -0.36198938 0.49552667 -2.720993 -0.22527367 1.515714 0.8363052 2.598806 1.2057474 0.59207296 -1.3000001 1.3169347 -0.9648779 -1.0947773 0.8775519 -0.19841212 -0.14564274 -1.9807347 -1.9093075 -0.41711926 0.40955406 -0.27357027 -0.7670189 -1.2719243 -1.6476384 0.83668154 -0.5534012 1.3276753 3.6880012 1.8101326 -1.062672 1.9251484 0.013023647 -2.2422678 -0.094157405 1.2060848 1.9630901 -1.4574441 -0.8587869 1.1453846 -0.45434663 -0.054312535 -1.2195302 -0.7141589 1.228217 0.3279461 0.009189812 1.9084244 -1.5669856 1.1807678 0.46355715 0.17130643 -0.54374796 0.29999483 1.4812566 0.28410453 -0.11395834 0.392969 1.7072475 2.3295515 0.38622123 1.6112878 0.8560861 1.0932152 0.69053525 0.2772231 -0.035885848 0.2739269 0.36468768 -0.3463442 -0.17224571 0.1793363 -2.25864 -0.691919 -1.2771279 -0.99687386 -0.0750612 -2.2493577 -0.10145223 1.8253509 2.163438 -0.067382425 0.99776924 -0.60913235 0.21182245 0.8107992 -1.3567319 1.6345571 0.1981937 -0.94897056 -1.8939831 0.5972722 -0.49838054 0.29013625 -1.5359737 -3.1017697 0.64679605 -0.4715587 -1.4091047 0.054074295 -0.17881727 -0.5409195 1.198304 -1.4809042 1.591297 -0.32397258 0.45424855 0.89787215 -0.1801778 -0.5312062 0.29029468 -1.0891597 -0.19853902 1.9988357 0.61063004 -0.9725843 -0.20793241 0.57608116 -0.74680424 1.7399502 -0.42196572 -0.34227934 -0.5216024 -0.6696593 0.5324415 0.1523653 0.081616335 -0.4174052 -1.3346977 -0.28460342 0.28179783 1.3158141 0.5460082 1.166998 -1.2267157 -0.8332578 0.5330089 0.64681125 1.6129705 0.5166643 -0.47182298 -0.8399512 -0.394723 2.2834864 -0.84483564 -0.76728827 -0.17094176 -1.4589739 -0.054534234 0.6130891 1.0375838
生 -1.3548063 0.73099965 -0.8276839 1.0620542 -0.2131548 2.7079315 1.8801796 -0.08831205 -2.772593 1.4161993 1.722163 1.0354134 0.48589545 -0.63748735 0.13542041 0.53442883 0.50383073 -0.9965137 -0.8917882 -2.0028281 2.2252946 0.10553528 1.3530709 -0.98149353 0.13726999 0.3695988 -0.77602494 0.92431366 1.6526004 0.75774777 -0.06883743 1.447307 1.6168958 -0.6932818 -2.253482 0.38159117 -1.6359825 0.9470816 1.2479789 0.9757127 1.5421563 -0.5356264 0.7560174 0.16068383 0.09323313 -0.6433908 1.3442953 1.2460535 1.4285642 2.129461 0.11495599 -0.5363907 -2.06644 0.77133614 -1.3503382 1.0055505 0.012038044 0.6272206 -0.27748245 -2.6216495 0.35361257 0.27434593 -1.4750707 -0.09244349 -0.85420984 0.899783 1.1758106 -1.5541247 0.3103532 0.4207107 0.24320829 -2.5923076 -0.9748109 0.109744266 0.8092434 -2.0916324 1.7485107 -0.009069339 0.5074857 2.1354036 -0.8116556 -0.17752878 0.057250664 -1.2556279 -0.27614182 -0.44104263 -2.8033557 -0.41163737 0.2746773 3.3187242 -0.077367246 -2.4264889 -0.116699256 -2.0556536 -1.5003784 -1.8458244 1.3432682 2.1513815 1.8576404 -1.0508376 0.19687526 -0.15513557 -1.3185261 1.1958079 0.9313943 -0.81197196 2.1028955 -0.8421734 1.0682108 0.08434656 2.2349539 -1.896508 1.4121585 0.9022195 -1.2583219 0.62810147 -0.27406114 -1.7890772 -0.95336753 2.4709187 -0.92425734 0.0020967186 -0.026720518 -0.18877877 -1.7080425 0.15897441 -1.1312387 -0.37729505 0.90742964 -1.5563232 1.8899609 -2.8483834 0.83163786 -1.617927 -1.6700089 -1.4638124 0.2882603 1.3801302 0.72874445 0.65360725 1.0499448 -0.18558283 0.18652545 -1.3249468 -1.3325611 1.0710535 -0.9924565 -0.46144336 -0.24378635 1.1545357 -3.1156094 -2.198723 0.29808134 -0.5575966 0.33067638 0.42779213 1.9943739 1.0627619 1.3958706 0.030225607 -0.00011742872 -0.6027746 -0.15205595 -0.3149251 -1.0899186 0.3871813 -3.45803 1.1852525 -0.21016906 -0.6880256 0.5809928 -0.37103915 2.3136458 -0.77530724 -0.5272196 0.27083284 -0.04139974 -0.40745017 2.093972 -0.63180345 -0.7782444 -0.5447899 2.2589402 0.09935607 0.5792185 -2.5495052 -0.9476536 -1.4634209 -0.7697596 1.3794535 0.9775454 -0.40285882 -0.02504671 -3.6348884 0.5011468 1.0088791 0.91145086 2.6651218 -1.1529543 -0.8233884
交 -0.5373126 0.24971075 0.1181547 -0.6963106 -2.4721854 0.9876518 2.1676004 0.31073362 1.2834677 1.2686443 -0.0032038242 0.79861414 2.3661528 -0.84078634 -0.05627385 3.002814 0.9552895 -1.3651346 2.282465 -0.2680254 0.6661187 0.7144031 0.056438483 1.0748402 2.748869 -0.09529942 -0.6011352 -0.9806644 2.1457777 -1.6056023 -0.7333242 0.5893697 0.32837585 -2.9687896 0.8507325 1.432623 1.4380682 1.7835401 0.9255954 0.5227865 -1.4202583 -0.25782493 -1.6635683 0.97181875 1.1644286 1.4096954 0.78190094 -1.5540223 -1.0766431 -0.0146515425 1.4376954 -0.6234823 -0.30674505 -0.40693906 0.7656411 -0.67017794 -0.5925737 -0.8791138 0.043198265 0.58700216 1.7125752 2.652261 -1.6351006 -1.3825457 1.2076638 0.40988576 -0.8839346 -0.9162651 2.0654173 -1.5071204 0.5192571 -0.9814503 1.347382 -0.34365752 0.358049 -1.9182808 -3.7112274 -0.12108674 -0.77711856 0.09162234 -0.6704452 0.19387281 -0.9532314 -1.2849193 -0.1289788 0.01696104 -0.6035178 -0.6572581 -2.0277379 0.31361216 -0.64793766 -2.2490919 0.29060933 -0.1624688 -0.9104194 -1.609065 -1.2165821 -0.11615147 1.7296486 0.9965683 -2.0190957 -1.6652272 -1.8878615 -2.6638486 2.7794704 0.11415513 -1.37249 0.34030074 -0.22382246 0.7999101 -1.0656878 -2.5429237 2.254483 1.3305386 -1.4625794 -0.65510505 -0.44678742 1.052845 -0.78556997 -1.987941 -0.4019729 -2.3594792 -0.4776041 0.92661685 0.6697339 -0.5649755 1.2919439 0.7091535 -0.931438 1.7939612 -1.8681523 0.96863306 -0.29130468 -0.58129793 1.078168 1.2745498 -0.35366908 -1.157216 -0.011950035 0.7913038 -1.9598551 -0.28351104 1.187391 -0.010760318 0.08669241 0.71855104 -0.77510625 2.5762913 -1.9865664 -0.9383486 -0.06621227 0.75723636 -0.4636931 -0.81057256 0.7190835 -2.8787982 2.0654533 2.1714728 2.4188762 -0.26808462 -0.037958838 -2.905116 2.7989292 0.45618936 -0.97049385 0.2051934 -0.5442262 1.8641627 -1.5804256 0.19715902 0.8006043 0.565267 -0.16597416 -1.358618 -2.2535748 -0.88288915 -0.1255268 -0.110484794 -0.9428416 0.4637891 -0.29859754 -0.8474244 -0.28969204 2.4231763 -1.2575861 -0.02581999 -1.2947317 -2.0273397 -0.53442943 0.46792153 -0.31855798 -0.64001393 -0.064454846 0.8168215 -0.59648746 0.12444598 2.403658 -0.7484012 0.19726229 -0.12724444
业 0.06673663 0.92048067 0.8115959 -0.08519606 -1.2904128 -1.9107102 0.6444308 2.3529718 -1.7654452 0.17056854 -1.2244986 -1.9221498 1.5877587 -2.2814374 -2.3409402 -1.4175308 0.49075863 -1.9451339 -0.2380967 -1.882679 1.5215307 -1.3325766 1.8827778 -2.9965615 -0.1589872 1.9830713 -1.5627347 1.1218996 0.8132008 -0.66196084 -0.08565105 0.42074877 1.6088394 -1.1714379 0.29129303 -2.198506 1.343945 0.78453517 -0.7565608 0.40324897 0.30016965 -1.1687267 -1.4695591 -0.1826175 -0.0800065 -0.4222201 0.6996781 -0.06692708 -0.28233406 -0.14081277 1.0115272 2.42647 -0.35287768 2.139978 -2.4610567 -0.36130643 -0.10118787 0.9230047 -0.9655644 3.599535 2.059159 -0.7998745 3.0862885 -0.06943361 -0.14849725 0.35317236 -2.4266782 0.9027003 0.8147379 -1.18242 1.1837769 -0.21364145 0.04495925 0.071765356 2.44834 0.6935091 -2.7801836 0.14700986 1.2250849 0.15115543 -1.4416871 0.38650346 -0.60502994 -0.47613552 -0.2831878 -0.10355488 0.3188641 -1.8108807 -1.9025064 0.7782004 1.3897208 0.7413312 0.9835221 -1.798082 0.12859994 -0.52680194 -0.42510486 -1.7757522 -2.9932091 -1.746582 -2.4784875 -0.31204405 -0.22405353 0.1464269 -1.1710443 -0.44391784 0.29961243 -1.0020218 1.477106 -0.4816651 1.3240886 1.5532578 0.16892758 0.25386816 -0.9316836 -3.4689925 -2.7507539 0.6675029 1.5341234 2.8592095 -0.4706149 -0.44186354 -0.05227119 -0.39526364 0.09281484 -1.804396 -1.8624568 1.6439985 -0.26084694 1.022383 -0.65049785 0.18124449 0.89136744 0.046173282 -0.80531204 -0.013460207 -1.6288801 -0.08419088 -0.7939283 0.57609856 -1.1881894 0.4271681 1.4342067 1.3723079 1.6538756 1.9784784 -0.50695837 -0.5235209 -0.39708957 -1.9806947 1.1619211 -1.0685238 1.3367273 -1.1403402 -1.629526 -1.904667 0.94924843 1.5709176 0.9064137 0.23664936 0.8915147 0.7003742 -1.2729747 0.374059 -1.1683636 -1.1726207 -2.0173588 0.9004217 0.6236058 0.30213475 -0.58751535 -0.59544796 0.6089984 1.8009834 -1.4414816 0.8135328 0.3441038 -0.24971604 1.7410187 1.684153 -0.18448408 -1.2442386 1.8453562 0.7006743 -0.6735003 2.1430001 -0.46274102 -2.827179 1.7744007 0.6672684 0.49088854 -2.6902292 -0.25515905 -0.10854186 -1.4352224 -1.0479213 -1.0067233 1.8202171 0.90148664 -0.7511472
方 0.5833373 -2.0456033 -0.48174813 -0.49749684 0.77551293 0.546906 2.0296335 0.6956299 1.8345734 -0.25793687 2.0355449 2.0165684 -0.448092 -1.091859 0.14593442 -0.37298965 1.8730245 -1.9065529 2.9601827 3.1572802 -1.6591486 0.8501334 -1.1405377 0.04485752 0.19279455 -0.6372451 -0.48043603 1.7823067 0.5455976 1.1140785 0.59197134 -0.94585395 -0.17520997 -0.5278359 -0.2861043 -0.19690502 -2.7179062 -1.8706132 1.993177 3.0868847 -0.37702248 -1.2164081 -0.1316741 -0.31561464 0.5318817 -2.3381534 0.10571351 -0.22010122 -0.0939149 2.205661 -1.9201447 -0.15654753 -0.7110624 1.9008425 0.5388297 -0.90193677 -1.2778931 0.8014084 -0.26425052 -0.25026003 -0.72455144 1.1825244 -0.39423424 -0.14756744 0.70958066 -1.4068348 2.5402749 -1.1226901 0.02490314 -0.7087047 0.19157523 -2.4657512 0.73005265 -1.0504043 -1.158862 -1.9210593 0.76094186 3.0632575 -0.47367567 -0.07762059 2.188645 0.08384505 -0.5133953 -1.134143 2.4455616 -0.6068098 -1.211848 -0.33936507 -0.12793462 -0.47643146 -1.3932239 -0.34285405 0.70890486 -0.79820865 -0.70074075 0.53622925 2.3015637 0.80275697 3.8117685 -1.7558113 -0.66200876 0.77910423 -2.349402 -0.47121742 0.032855198 0.4910664 -0.37784278 1.0159291 -1.6039675 -1.6724623 0.5981828 1.7540069 -0.36018106 0.73765516 0.09284822 0.08331577 -1.3577489 -0.5547517 -0.92986107 1.087891 0.8336241 -1.7045782 -0.6765443 0.3599124 -0.65329003 -1.4947023 3.336972 -0.053539924 1.4642239 -0.38293955 0.02362105 0.58875453 -2.2457511 0.5755766 -1.1696603 -1.6040884 0.4930706 -1.6044847 0.26862353 -1.0941495 -0.65684175 -0.40233123 0.71595913 -1.2307366 0.23710853 0.5305711 -0.6978074 0.39892343 -1.1096344 0.9075638 -0.01899273 4.3575993 -0.83139706 -0.8207567 0.06216806 -1.1941051 -1.6521715 -0.632615 -1.7624828 -1.1716933 -0.2845004 -2.367915 0.44994485 1.8042651 -0.82131064 0.44104147 1.5604558 -1.490754 3.0863185 -0.37342614 0.6898705 3.427928 -1.0284384 -0.7264664 0.06900714 -2.2799966 0.28675857 -2.2159405 -0.6176733 -0.62951136 2.3878207 -0.5568117 1.6164098 -1.0867366 0.9436052 0.9585235 -0.07582518 -0.5472553 0.7818647 1.2781547 0.13654624 -1.9297141 0.3414164 1.1380724 -2.2324407 -0.45547816 0.09463871 -1.4525064 1.8700644 0.44487032
程 0.033326443 -2.0211153 -1.3569113 -1.0430967 -0.38633752 0.8066107 -0.7558718 0.0785487 0.21260884 -0.016470652 2.1697721 -0.7844597 0.33932242 0.30115765 0.00022496091 -0.8795751 0.3036374 -0.26146114 0.5803561 1.8135009 -0.20357291 0.22053026 0.66282266 0.3382963 -1.7322185 -2.3262804 0.58779615 1.5926465 -0.59748644 1.9480553 -2.1665556 0.7658676 0.5661776 -0.67608166 1.2756677 -0.5206439 -0.7685433 -2.2040606 -0.017509632 1.2331963 -0.20856172 -1.694343 0.27607733 -2.200143 0.94192797 -0.22075516 0.3372462 0.37193033 0.25350994 -0.3072159 -1.4841843 -1.3553778 -0.9863646 -0.16079633 1.9328859 -0.40951464 2.4252703 -0.039118752 2.5740395 0.26572618 -0.49673215 -0.9018803 0.3726973 0.65546453 -0.923613 0.8631671 1.1655344 0.7796778 -2.135854 1.4550046 0.53928095 -0.07342771 -1.728795 -1.9917982 0.85931176 0.4470741 2.5111287 1.1443027 -0.97019804 -1.0576802 1.2888248 1.2694755 -0.83374256 -0.74263394 0.99246204 2.179372 0.69050056 -0.6320047 1.981427 2.078031 0.40241534 -0.90837324 0.32883742 -1.139115 -0.9983293 1.3718016 -0.104997344 -1.54094 0.82732534 0.7027338 1.1932716 -0.76495326 -0.17877959 0.46720764 -0.3725831 -0.24225685 -0.23611099 0.469122 2.3117526 -1.0060425 2.1399627 2.5649662 -0.1886775 0.30146146 0.23994139 0.73998785 -1.7506659 0.17362323 -1.2323881 -0.14275244 -0.3643928 -0.5662816 -0.7648978 0.96444684 1.6003431 -0.33633667 0.57003146 1.6694882 0.4898791 1.4425713 1.1817181 0.51122034 -0.2803998 0.16540538 0.9382325 -1.2304436 0.69519454 -1.0371406 -0.03410993 -2.863786 -0.20298697 0.46081483 -2.144731 -0.51087165 0.4782445 -1.1194152 0.7936107 -0.020971132 2.529066 0.071621865 0.86550975 1.19209 -2.4176152 -0.57364696 1.1674734 0.20452231 -0.45724937 -0.9633076 -0.05426717 0.4895698 -1.372006 1.2971069 0.7387864 -1.6805829 -0.36809647 1.0379701 0.96193284 0.087151624 2.2959132 -1.1248353 0.20696607 0.20117159 -0.349545 1.968898 -1.7386022 -0.13698769 1.3295515 -2.4529774 -0.66854745 -1.2904828 0.13522065 0.725167 0.4635194 1.0556984 0.4291467 2.222739 -0.49226254 -0.4438086 0.050381787 -0.8726672 -0.32775548 1.1370249 1.3167955 0.044797022 -0.40056047 -0.07175263 -0.71629864 2.2210817 -0.74785626 1.5144979
毕 1.69447 1.2254556 -1.5608375 0.61369824 -3.331509 -1.4587333 0.86459404 1.6041114 -0.03775739 2.3582063 0.6933407 -2.1564386 -0.88339806 -1.309256 -0.6094025 1.0569499 -0.90275574 0.6241985 -0.40579307 -0.3406898 0.4097397 -0.47198567 1.5085398 -0.55107594 -1.0512594 0.89457715 -1.7130891 0.61036247 0.90112954 -1.1271986 -1.3936157 -0.40021574 0.28510305 -1.1029886 0.00012178505 1.9458153 2.168335 1.3650198 -1.626611 1.2760195 -0.31356657 1.7015114 1.450092 1.9247782 2.377294 0.5688145 -0.6291926 0.76130366 1.314698 0.3438047 -0.42463723 1.5265905 -0.70338696 -0.07129171 -1.2362096 -1.9814368 -0.9436524 0.33755043 1.866773 1.8340453 -0.15422413 0.27944198 -0.6361754 0.04813845 -2.0319192 -0.34950376 -0.57352346 0.31908488 0.20346867 -0.92229044 1.7912676 0.5322748 -0.63828754 2.0953553 1.4141388 -1.0504351 -0.037153494 -1.8875006 2.5298195 2.1488683 -3.1502314 -0.39655977 1.2194333 -2.2756176 1.2177337 -0.14904477 1.1147058 -1.3017205 -1.3861833 1.870766 -2.5387216 -0.7542957 1.0634555 0.7579608 1.8154969 -0.34425 -0.25422072 2.6129467 -3.1095555 0.86712146 -1.2155808 -1.3446913 -0.85993314 -1.04021 -0.046267122 0.6664912 1.6732236 1.2805158 -0.03926675 -1.7505078 -0.48654172 -0.037958357 0.32735896 0.23743609 1.783316 -0.91950077 0.47836468 1.6865616 0.39689997 1.8042518 -2.9164867 -1.320534 0.9282253 -0.21644765 -0.12185888 0.24894403 -0.008689716 -0.8891611 -1.0558827 0.05308853 -0.37342876 -1.0676222 0.5220699 1.1568787 -2.3103347 0.5012973 -2.1426923 -0.76170933 -3.33944 1.083462 0.40752965 0.63635933 0.12640774 1.5213624 0.45979065 -0.5274764 -1.0580623 -2.8545477 -0.098739326 -0.053252526 -0.26460782 -0.9527376 0.24961759 -0.44518557 -1.1687559 -1.5917587 -0.9010565 1.612414 1.0035893 -3.2035167 0.5485462 -1.1581229 1.0405505 0.529241 -1.2627078 1.7246791 -0.24470435 0.26695123 -0.5834965 -0.13826412 -1.3183596 -0.42161843 3.6236093 -1.1262531 0.74991983 2.139311 1.1652224 1.1140331 -2.5591805 1.3790705 -1.1743534 -0.3410471 -1.6377218 0.4259862 -1.178943 -0.046786822 2.270526 -2.9400225 -1.2405236 -2.9435866 -1.0883771 -0.69700456 2.679703 -1.3539312 0.26345903 1.6875787 1.7299957 2.6029034 -0.8331483 1.6271338
院 -0.76745576 -0.059270136 -0.1744126 1.9467655 -2.1498466 1.4198154 -0.47727147 -0.39999536 0.02442803 0.12798421 -0.7669877 -0.43552673 0.16296427 1.1472801 -0.7374366 -0.288909 -1.5241199 1.4047678 0.26018667 -1.2840085 3.7831376 -1.0036207 0.356264 -0.6032972 -0.87849873 -0.73631674 1.9385666 -0.705883 0.87515676 1.307837 -1.5129625 -0.7440812 1.0226967 -0.71034557 -0.4496449 0.23416388 -1.4302429 2.0189672 -1.7718104 1.7646222 0.47787657 -1.5674889 2.7407806 -1.4679024 -0.5629685 0.26163924 1.2418377 -0.20005244 1.3035986 0.042773355 0.7695194 1.4227701 1.3837281 -2.6040516 -0.23444028 0.59061307 -0.4298261 -0.3121108 -0.08634692 -1.3025187 1.3803409 -1.5102532 1.0320157 -0.24985187 0.97504336 0.49376884 0.342295 0.26164925 1.5445901 -0.62566864 0.2894164 0.9568983 -0.18501452 -0.015592325 0.108441435 -2.6866322 0.5584922 1.9740317 1.4475808 -0.7064004 -0.7941159 0.793006 0.060754396 -0.23003615 -0.52346146 0.11864246 2.0986319 -0.94355255 -0.04201504 1.6787641 -0.45634484 -1.9349095 -0.062157422 0.34890655 -2.0724702 -0.456072 0.82098186 -3.8704815 -3.16684 1.8185307 1.2327938 1.1970011 -0.4936397 -1.2311362 1.1083342 1.8260982 1.4460554 -1.4660759 0.7674979 -0.41941512 0.44733927 -2.918102 1.5680625 0.23482625 -0.3463944 -0.35799128 0.37142637 0.6811075 1.380557 2.1218002 0.82548434 -1.3399819 -0.2951858 1.5931848 -0.13655554 2.4463701 -4.6715517 0.41345185 0.6470759 -1.7450935 -1.679149 -0.23724738 2.1007128 1.6611034 0.3378892 0.16336584 -1.5655658 0.90362763 -1.9838579 0.5839124 -1.6289278 -0.39096528 0.16811182 -0.61002773 -0.48503613 -0.30358154 -1.4873219 0.8629474 1.3843901 0.689408 -0.9012115 0.10436671 0.5581466 1.1573029 0.28788233 -1.1032821 1.2901762 -0.04334485 -0.67323303 -1.282986 -0.37406015 0.35440844 -2.6815252 0.79027224 -0.48251706 -0.36256975 -0.65739167 -0.08061635 0.824581 0.43061063 1.8286602 -1.0179671 1.4073718 0.42472944 -0.91978264 3.1070206 0.2655448 0.9820614 -0.7418033 -1.0021304 -0.12398335 -0.008105378 0.53567314 -1.2251263 -1.696052 -1.1031613 2.2504063 -0.08028312 -1.3885715 -0.2270497 1.4790027 -0.77628744 1.7626281 -1.8024603 -1.8959768 -0.9209871 -1.0240595 0.86559093 -0.969599 0.6124661
案 -2.225919 -2.0020468 0.4029034 -2.4579751 0.69120485 0.8375231 2.2068086 -0.2736918 3.1916957 -0.74616456 1.424114 1.8223672 -1.3144586 -1.3867584 1.7116798 -1.7155564 -0.065323405 -1.5575767 2.8770838 4.3296247 -1.9263922 1.110371 -1.594165 -0.10622356 0.65460074 1.2996683 -0.4719357 2.6401663 -0.9220285 -0.492299 0.06536343 1.1816992 -1.5518686 -0.35765728 -0.82707566 -2.1428862 -2.4471738 1.3879654 1.301654 2.0879207 -1.6006951 -0.47766718 0.2872759 -1.2246823 0.001212907 -2.364608 0.8281282 -0.14303678 -0.63486654 0.7975149 0.6318028 -0.3373457 -1.5710225 0.56176925 1.9351609 -0.44080472 -2.4339073 -0.5475058 -0.43615264 -1.587906 -1.7025408 1.4992117 0.007924325 -1.6602618 -0.5021965 0.81866544 0.62581503 -1.1443791 1.163539 -0.9513692 -0.3908817 -0.0024149092 0.2500654 -1.3658589 -0.032643236 0.25639206 -0.50065994 0.97818834 0.56046236 -0.13876773 1.4293773 0.43573478 -1.1774175 -0.8429935 1.0610988 -1.5131327 -0.8056863 2.4813907 -1.2671844 -1.476074 0.108078636 -0.5415201 -0.02363476 -1.9027919 -2.002248 0.07717796 0.9508785 0.06648896 2.3674536 -2.615024 -1.5733745 0.3060396 -0.63468605 -0.7351844 1.27731 -0.64902395 -1.735998 -0.71223795 0.51663214 0.29227304 -0.1599706 0.8325851 0.5293129 1.0475475 -0.22972867 0.6420138 1.5781871 -0.1133238 -0.54101557 -0.5075113 -0.3973149 -1.4746753 -2.4790711 0.53931975 1.2496837 -0.6985468 1.3057138 0.726628 1.0708135 -1.9901837 -1.0387414 -0.34602752 -2.7161314 0.32678676 -1.0544984 -1.1186259 1.3268439 -2.7015307 0.05686358 -0.044213936 -0.7310767 -0.03983498 -0.0123178335 -1.883611 -1.9132599 -1.4541929 1.091133 -2.1332388 -0.22120163 1.6165125 0.3418424 2.8672595 -1.0676869 -0.9417558 0.297653 -2.970684 -1.8896917 -1.3183998 -0.59811944 0.32120606 -0.43990362 -1.2577293 0.3482726 1.0819303 -1.0951738 -0.9436268 -0.7444796 -0.102016486 1.5255268 1.5406921 2.0524945 1.359492 -1.1743858 0.5863521 -0.9418372 -2.6924226 -0.47108674 -1.5845037 0.13422097 -1.7344284 2.4170785 1.7196941 0.43900567 -0.083701015 0.4137463 0.23086886 -2.6216834 2.0684428 0.05917761 -0.44703194 2.0459673 -0.8281465 0.100770526 0.46374902 -1.9380423 0.005275786 0.95384 -1.2232034 3.2383914 0.05378116
选 0.4625738 -1.4031408 -0.43990913 -1.2547837 2.2602599 1.163172 0.4641854 1.5625739 1.4692379 1.1593456 0.6308644 0.8764405 -1.8869689 -0.82791954 1.3881832 0.07944627 0.69974184 1.5059983 -0.092349485 1.5836518 -1.4690331 -1.6803782 2.2049015 0.53338575 -0.75674975 -0.42966866 -0.11612642 1.1877396 1.4476538 0.1280863 1.2630167 0.69437754 -0.56880116 0.9531499 2.0052958 -0.27782756 -1.6507189 0.2955302 -0.8382352 -0.88623667 -1.8382396 -1.6663544 -0.31600818 -0.29416314 -1.1877418 -1.5693344 2.5156069 2.1972497 0.5862183 0.38878614 0.91263795 0.792828 0.07435757 1.2897964 -0.67853534 2.4293036 1.884919 -0.601327 0.93202686 0.87751186 -1.040388 -2.2149544 -0.37741417 -1.4702092 0.4667464 -0.7569929 -1.7625188 0.35510802 -2.0212758 -0.30278555 1.272256 0.99678 -2.9420931 -2.0103095 1.1819688 -0.07242652 -1.0998819 -0.5828615 2.5132525 -1.3703122 -0.17585565 1.3871229 -1.3908085 0.5106777 -1.8028686 -1.0732316 -0.3501114 0.20611344 0.254515 -2.0462368 0.685593 -0.15470402 -0.29077327 1.0821118 -0.598102 0.3481085 0.42987505 -1.178982 -0.61796963 -0.4968839 -1.2111598 0.26255777 -0.51747537 0.46691462 -1.1627507 0.9152336 -1.0148581 0.8131805 2.880198 -0.15049066 2.6133509 0.50971454 0.5928973 1.8176881 0.41193005 0.027201524 1.9607779 0.029685788 0.16699558 -1.0918262 0.8228025 -2.973629 0.7477887 1.0234652 0.6487452 0.98797524 -0.28914115 -0.71441156 0.5364936 0.7419542 0.3300957 -0.7250902 -0.15656483 0.3466755 -0.1696379 -0.807923 0.92859477 -1.3101927 -1.6233761 -0.7113532 1.2567927 0.13824432 -2.812661 -0.49360368 1.6911021 -1.1363285 -0.28108445 0.31228822 -0.3569521 -1.2943517 -0.15591542 -0.3657135 -0.49439022 2.1940372 -0.35797337 -1.649856 0.0399011 -1.2346381 0.4162157 -1.2327317 0.09599869 -1.0041407 1.0143076 0.046435926 -1.1128731 -1.8221844 1.0400352 -0.07844304 2.1150556 0.1286889 0.9348966 -0.37050718 1.3086526 0.3221933 1.3073323 -1.4928025 -0.29032475 -2.298992 -1.3543893 -1.0402668 -0.28795055 2.0006912 2.297291 0.27004832 0.2802364 0.80956876 0.66051525 0.95276964 0.3741602 -0.3847737 0.64961684 -0.0011197 -1.1744124 0.19782601 1.9892613 0.28644317 -0.23055601 -1.1924481 -1.2265043 1.3612134
表 0.17494304 1.0073954 0.27583537 -0.33217716 -0.83406717 -1.1637176 0.7498155 0.86298627 0.71066904 -0.8573187 1.9861466 -0.67539454 0.56380343 -0.34504288 -1.2474545 0.8168587 1.373595 -1.8725402 -0.1617761 0.60864615 -0.81171805 1.543814 0.04713721 -2.0837805 -0.90094566 0.5179457 -0.54044104 3.4259021 2.3409228 -2.5744252 -0.83663535 -2.5478845 -1.2971253 1.7106283 -1.6119617 -0.6416935 -1.3559238 0.75581163 0.82976836 -1.2544622 -0.38081992 -1.0689774 -0.43014562 -0.6542003 1.3167275 -0.664378 3.1909525 -0.21957602 1.7392465 -0.5225919 -1.5857704 0.3314822 -0.9413141 1.1819828 0.15826654 1.7717404 -1.7808375 -2.4163294 -0.29333267 0.36117244 -0.36115518 -1.2002887 0.82030153 1.5475196 -2.9994955 0.5177155 -2.8530073 0.89058894 1.1566584 -1.1169323 1.7375278 -0.06109547 0.42048725 -0.4703947 0.26413336 -0.23217766 -3.7600732 -0.10327996 1.1351932 -0.35476887 2.026778 -2.000113 -0.47205818 1.2134042 1.6464313 -1.085335 2.505505 -2.816144 -0.94255024 -1.7617227 -3.001906 -0.6261452 -0.9283481 1.4718283 1.0781181 0.2578744 -1.0752546 -2.1838164 0.36312157 0.015483197 -1.717225 -0.39558306 -1.0767471 1.5954981 0.7384273 -0.7832952 0.15424886 1.7044655 0.81462884 0.46820146 -0.7306663 -0.54724884 1.2149411 1.9598839 1.2944845 -0.20255724 0.22381058 -0.84228456 -0.5254851 3.8228273 1.099553 1.0207391 -0.6297719 -0.34526393 2.1611218 1.235397 1.9485 1.4264058 0.28076193 0.7426111 0.09920463 0.25601956 1.0118091 -0.15703586 0.6642755 -0.05504954 -0.28523025 -1.2658631 -2.2432063 1.7635587 -0.2078082 0.55348796 -0.3427539 0.024049992 -0.15257177 -0.52765435 -2.406037 0.5874598 -0.38740674 -2.1933444 -0.43106455 -0.011622331 -0.0399516 1.017927 1.9362925 -0.8488823 -0.74121916 1.7718232 -1.1584882 -1.0276215 2.4765124 0.03914809 1.1242691 3.379023 -0.99328214 1.303236 0.36921448 -0.8738938 -2.0096836 2.8720422 1.1912993 -1.686156 -1.5074785 -1.2656577 1.4907641 0.559508 1.0276575 0.97690624 -0.35908097 0.56396705 -1.1599377 1.6698934 -0.5398681 -0.84219474 0.726388 0.40233597 0.8385695 -0.17053933 2.4012897 -0.6864899 1.5127109 -0.47196394 0.8357996 -0.9266478 -0.49992758 -1.0048016 -0.8368802 -1.5098394 0.5132328 -1.0155144
统 -1.6412281 0.26055276 -0.14632101 0.5596577 -0.18824096 0.3532965 -1.8751196 -0.26960853 -0.96502703 2.5351026 -0.19267389 0.34233585 0.9797902 0.1955828 0.7659798 -1.6560595 -0.080063075 -0.54681635 1.4026518 0.90971965 -0.78528404 1.0458364 -0.19618197 -0.3018176 0.43235022 1.5258708 -0.13516691 0.09835644 -0.9245639 -3.0350282 -1.5700667 0.5603026 -0.64963007 -1.3236852 1.8417026 -0.78603816 -1.2447064 0.48744383 0.9537286 0.9524941 -0.4768816 0.92218155 -1.190133 1.5197533 0.53050566 1.5024557 1.0311407 0.24428989 0.44126227 1.1251758 -0.59308577 -1.1721889 -1.5165846 0.6369219 -1.481381 -0.8753912 -0.010632818 -0.8648506 -1.8518485 -0.00045686678 0.35808834 0.004738918 -0.82281184 0.6935557 1.9540474 -0.8116858 -2.7982557 -1.910306 3.9241061 -1.7040462 0.024465078 -0.91295063 0.7655323 -1.2401668 0.36685234 -2.7833865 -1.3261555 0.27606967 2.0737543 -0.6230049 -1.8751924 0.30154294 -1.1787317 -3.618098 1.3158871 -1.3147905 -0.36206785 -0.026085956 -2.1420887 1.6747006 -0.63527256 -1.0870944 0.6645495 -0.44887674 -1.4425223 -0.15666096 1.1581943 -0.27612025 -1.0676019 0.39765453 -0.35146388 -1.089746 0.8599732 -0.6662462 1.9456342 1.8539954 0.5620466 -1.0743793 -1.4586757 -0.14584464 -1.4934335 -0.20051049 0.2797041 1.7094016 -1.1690043 0.7620111 -0.4469324 -0.94763637 0.4906769 -0.11778964 1.1278224 -0.64483553 -0.8291339 -1.3123988 -2.2523253 -1.595299 -2.063453 -0.24147688 0.19749358 0.5359448 -1.001288 1.9497308 1.9459741 -0.4842097 -0.71591866 1.3037056 -1.7265383 2.1355543 -2.7656217 0.4400634 -0.20963503 1.9878868 0.57611394 0.0107337795 -1.4052049 -2.085803 -1.8351604 0.21396607 -1.4339951 -0.5445844 2.212097 1.8356911 1.1321952 -0.34332892 -0.7685488 -1.1654339 1.6816112 1.4301522 -0.094494596 -1.0805509 -2.5828438 -0.93505406 -0.4900411 0.5656281 0.017501613 1.3451679 -1.1225256 1.6373199 1.6558783 -1.2605175 1.1242461 0.6491332 1.4607372 1.8533671 -0.4883619 0.4959813 2.3926833 -1.8124422 0.16612339 -0.6694872 0.027675265 -0.51929724 -0.6441807 0.13413027 -1.1435499 -0.5233552 1.7249062 1.0459409 -0.25684524 -1.8821702 0.13272117 -1.1025672 0.25693905 -1.1327552 1.211555 0.42329288 -0.24720907 1.9574754 3.04075 1.8041288
期 -3.3532147 -1.0300399 0.780783 0.4642558 -1.4904798 0.24480464 -0.37105513 1.0001441 -0.10208511 -0.053060815 -0.1107342 1.1957381 0.63283145 -0.7827081 1.0548333 4.222968 -0.5567586 -0.060327422 -0.21096103 -1.6691177 0.655988 0.6493482 -0.4206032 -2.80041 -1.3215792 0.992983 2.0189679 0.11569916 1.3001051 -1.4168607 -2.0669663 0.5050554 0.0670139 0.38536492 -1.0645736 1.4265423 -1.8218509 1.7492608 -1.5476004 -0.51867145 1.3736027 0.10694956 0.49074706 1.1208868 0.46714857 1.7774959 -1.2109892 0.21445401 -2.4317303 2.4299765 0.55552673 -1.1953088 0.5940345 -1.4628464 0.89184344 -0.25868246 0.25152925 -0.6256454 -1.0765201 -1.6225927 0.6294295 0.9547131 -0.8065978 1.808137 1.4153912 -2.073458 0.94728506 1.1061574 1.0478178 -0.62944156 0.39500958 -0.19709957 -2.4131815 0.47010577 -0.8040031 -0.21366066 -0.56890184 0.6638675 0.35448685 1.0964621 1.246192 0.7927939 -0.55167496 -2.4284992 1.5614467 -0.09483848 2.5327268 -1.0216688 -1.0705414 0.6364834 -1.8982073 -1.2286358 0.7775114 0.23011632 -1.8249404 -1.0552208 -1.513484 0.37120807 1.5387229 0.12489135 0.30537227 0.34781468 -3.91214 -0.1645868 -1.4953601 -0.5855294 -1.0545279 -1.054341 0.71908236 -0.13006134 -1.0996903 -0.709168 -0.42957562 1.7965744 0.7201221 -0.92316705 -0.47296858 -0.18478478 -0.4555716 2.0643308 0.75406194 -0.51912355 0.74681437 -0.33901742 -1.6787511 -2.0638695 -1.6799915 -0.59256095 1.1024839 1.6752121 -0.19764726 -2.5364807 -0.4539276 -1.0950856 -0.21722901 -0.40649545 -1.858098 0.3964483 -0.96806747 0.600671 -2.3168166 0.18247034 0.8416373 0.10364433 1.3821872 0.40898308 -1.3330185 0.73744696 -0.46825156 -0.070895515 0.6781713 1.2014217 0.29626364 0.07747111 -1.5253267 0.68980867 1.8178443 -0.5194375 -0.48406836 -1.9459275 0.32678458 -0.40894616 -0.6187049 1.2519941 2.0100987 -0.38674784 -1.6980424 1.4840529 1.1080782 -0.043867335 1.9528557 -1.7873102 -0.30099437 2.338284 -2.6116986 1.959275 -0.3024234 -0.6349619 1.1143601 -1.0760094 1.7391108 1.6648762 -1.9036455 0.062289443 0.15942222 -2.5098138 0.7865584 -0.19918296 -1.4288669 -0.5951224 0.40435302 -1.1508417 -0.11158236 -1.5071913 0.25943333 1.9394318 -1.1701838 -0.50023013 0.16489594 1.6921719
研 -0.2712475 0.038580634 -2.7151942 0.5405812 -2.5719528 -0.004470892 1.2112229 0.20525543 -1.7040421 1.5657544 1.6592367 -1.2624438 0.012867537 2.1276767 -0.1466924 -0.84591687 0.5409806 -0.5019048 -0.26372394 -0.027183665 1.4246752 0.88486886 0.34861577 1.4489772 -0.6461875 -0.4398148 -0.15361029 0.12010523 2.7879944 -1.0037688 1.9400607 0.3808709 1.7218227 -2.3985758 0.3780864 0.3569082 0.6918669 3.8920927 -0.6141882 -0.7808635 0.95338106 -1.6932914 -0.47181293 1.1509941 -2.9555953 -1.1803217 0.2968658 2.9489522 1.183463 -0.7555138 -2.1401968 -1.0316966 1.8927938 -2.2612243 0.6774477 0.38020748 0.46875945 2.6076696 1.3705176 -1.1781684 1.6270607 -2.3141735 1.1194447 -0.96037483 -0.29997665 -2.7954953 -0.44935057 1.0930606 -0.5398634 -0.61813366 0.10053344 -0.35545316 -1.5554036 0.015164338 0.5656522 -1.5338203 -0.9496366 -1.1065892 0.16249403 0.7548926 1.7710515 2.526675 -1.2725601 -0.9424447 -1.4620644 -1.3948646 0.93118125 -1.079227 -0.30208415 0.68882 -0.47558972 -0.23521267 1.4741806 1.1904017 0.45342344 -2.5123134 0.3743023 1.3068963 2.2530353 0.75587445 2.0397673 -0.5314333 0.039685965 -1.277225 -0.113552436 -0.75173 -2.1380954 -0.39114526 0.2793524 0.72272575 2.1853762 1.7286009 0.46919668 2.5157695 0.68063474 1.3421075 -3.445624 0.33595827 -2.2610714 0.56015956 2.0260718 -1.1047238 -1.5859084 -0.50492454 2.6687353 1.3683834 1.8479755 2.199069 0.5012886 1.9728305 0.19190477 -1.875827 1.2718781 -1.1161991 1.2683738 -0.13594297 -1.3032751 1.7278253 1.5269209 -0.20205322 0.49011216 -0.11833971 1.2035806 -1.1765802 2.2916632 -1.3551375 0.72526056 -0.95092356 -1.4493921 -0.03541477 1.0131031 1.7080091 -0.9153834 2.2256203 -0.6032706 -1.2545807 2.7562776 0.2740512 0.98873806 -0.085334726 1.0225576 1.7874423 -1.0758662 -0.17643368 -1.1250423 0.58696985 -1.4536301 -0.67099637 1.8859996 1.414267 0.3927013 -0.5261344 0.99750626 1.2754333 0.05437199 -0.41832718 0.7884703 1.2967495 0.24832438 0.8508766 -0.5258931 1.5606605 -2.340312 0.9263142 -2.6675467 -0.6825182 -1.1604993 -1.6754718 -0.31932992 1.2086678 -0.73180544 -0.14298883 2.4127254 -2.0811577 -0.6333508 1.3350645 -0.93116885 -1.3194112 0.5900311 -0.8995602
发 1.9314557 1.6627234 -1.4393111 -0.73138994 -2.8800628 2.44594 1.5143857 0.89393085 -1.238016 0.5180047 1.5025657 -1.864291 2.6516347 -0.66855216 -0.8046469 -3.3279066 -0.8953174 0.9675766 -2.7355676 0.73846215 0.67748684 0.8084549 0.82129174 0.24086729 1.4450412 -0.55628943 -0.055238184 1.5114732 2.0153487 -1.3393595 -1.6521261 -2.0798366 1.1316359 -1.8330681 -0.40814546 -1.4532831 -0.14546338 0.62857217 0.52962315 -0.87369955 -0.034078993 -0.5666551 2.1134357 2.346494 -0.30506322 2.0496793 1.0453444 1.5154369 -0.53986734 -0.95686084 -0.9521806 -1.247578 -0.72401977 -2.3083582 1.0027751 -1.0924227 -0.5047425 0.36779922 -1.2005711 0.49868247 -0.5761834 -0.5789632 -0.8718073 1.8587885 -2.1433342 -1.4304029 -0.96256816 -0.076230966 0.87206435 1.0775663 0.19130458 -0.9155677 0.80395097 -0.6241824 -0.7197661 -0.06320111 0.9262205 -0.3566073 -1.995209 -1.2878476 -0.94653636 -0.813917 -1.5584797 -2.3075988 -2.487718 -0.5013541 0.6483971 -3.0663412 -1.1599294 -1.1591393 -1.4901121 -1.0170965 0.47583586 0.031106722 2.5131917 0.34530428 0.7683434 0.5290246 -1.8318651 -1.9606038 -1.0891944 -1.5332866 1.0039645 2.4700031 0.36084437 -0.19315846 1.8664243 -0.20497575 -0.2637292 -3.223407 0.5919201 -0.6171087 -0.17858239 -0.96112716 1.313894 -0.7061392 -0.29039222 -1.5716357 -1.1952494 3.5387015 0.7261161 0.6856203 -2.3726554 -0.20101382 -2.471104 0.88432264 -2.0001862 0.17406943 0.44007483 0.3364979 0.65209705 1.3356681 1.2019994 0.03944624 -0.577413 0.73323125 0.11484356 -0.23026045 1.1141157 1.3761121 -0.86241174 0.014924428 1.0748785 -0.10523419 -0.56826806 0.27162164 -0.4273686 -0.30106404 0.46202046 -1.1066201 -1.2735034 0.047747422 2.11401 1.314254 0.013829904 -1.8868029 0.8709465 -1.0409112 1.7968088 0.8496969 -0.37067586 0.33493885 -0.24401434 -1.1156576 0.5808971 0.6522299 -1.4122182 -0.95827323 -1.127106 1.6930367 2.7812884 -1.2789418 1.6513616 1.4998989 0.9123065 -0.26159903 -0.17475666 -0.060956463 3.134747 -0.9683765 1.2686924 3.4869423 -0.14247786 0.5562102 -1.054076 2.166944 -0.17781144 -0.94995034 -1.1260555 -1.2244834 -1.2119638 -0.75221366 1.4879626 1.7082815 -0.8210524 0.26026064 -1.2475518 0.32643408 0.5650568 2.4291224
修 -2.4136353 -1.3736236 -0.6082735 -0.03784694 -2.0027964 0.7373389 1.4234368 -1.7812704 0.5933841 1.0038416 -0.9176058 0.66921955 0.9601225 -0.69895333 1.2660987 -0.020202216 1.5522999 -1.0002793 0.20635764 1.0013787 1.3386452 -0.064140916 -0.40935853 0.7188865 0.5114578 -3.4491067 0.5221382 -1.1260933 -0.6419502 0.25426552 -1.1791983 0.8238021 0.24609491 -0.67226297 1.2233845 -0.4411709 -0.21690716 0.43677536 0.6777605 3.3649905 0.38279235 -0.29065445 -0.068844505 -1.7508751 0.10445236 -1.6796981 -0.72567284 1.1693853 1.1602957 -1.5317277 -0.5619644 -0.56187934 -2.1639109 0.8140259 1.2784853 -0.8684409 -0.3847217 -0.51688105 1.7115881 0.32688093 -0.12413367 1.3590323 -2.0259373 0.86845165 0.88517344 0.2092457 0.77901924 0.2809814 -1.1091274 0.49982423 0.55426896 0.22702795 0.17423214 -1.146581 1.5935488 -1.5225638 1.3026125 1.539342 -1.5914024 0.48845464 -1.7439548 -1.1048672 0.86375546 -1.5370374 -0.4697267 0.9208565 -2.9042094 -0.9455973 0.10690416 -0.42782068 2.111655 -0.16225116 -0.83086044 -0.48381478 0.020674048 -0.983989 1.2427431 1.1902996 -0.38620237 1.2964569 0.40790075 1.6064132 -0.46321553 0.15695518 -0.6042044 -0.7963403 0.023880417 -0.07966334 -0.83420664 -1.2771921 1.023896 -0.6165372 2.315788 0.19439863 1.0157392 0.64223194 -1.2177724 0.36133048 0.31665707 0.8856319 0.6536816 -1.8059179 -0.964641 -0.0120024 -1.6073748 -0.39196593 -0.6395799 -1.0294763 1.5567005 0.9056548 -0.15300953 0.5945163 -2.5022583 2.4077966 0.46900547 -1.6363606 -0.74032325 -0.04732274 0.55362743 -1.672264 -0.5267855 2.1296806 1.7648666 0.8910858 -1.2065587 1.9578731 1.1977642 -2.660067 2.6002765 -0.35560527 -2.5937464 1.1268601 -0.6983569 -0.8270003 0.57406217 -1.6881802 -0.4586905 0.2787249 0.17611457 -0.049556807 -0.1211163 -1.283724 1.2026942 0.82049465 1.1741743 1.937835 -0.44875443 -0.31000373 2.935381 0.20760433 -1.7744312 0.046147183 0.4275936 -1.1837051 -1.042971 0.8857594 0.0070073195 -0.057198428 1.1485696 -1.6198634 1.3563968 -0.50922185 0.61315036 -2.3673623 0.14154916 -1.1328261 -0.91284627 -1.1961914 -0.76935095 0.90876365 -0.42709443 1.5634555 -0.47851303 0.06766979 0.7133198 -3.3073747 -1.1405371 -0.10674393 1.1251544 -0.35881546
系 1.2317138 -1.5390563 -1.2385246 -0.57008356 -0.3759817 -0.06265855 1.1470993 1.2556267 0.5552194 -1.756579 -2.0627553 -0.2718599 0.14174001 -0.6482599 0.048007537 0.6810381 -2.4885924 -0.8564785 1.9429454 0.7430446 2.3330867 2.2138991 -1.4334413 -0.9170131 -1.2029757 2.931085 1.2003087 0.19087274 -0.6925022 -0.31418908 -1.4297842 -0.03690781 -0.7354735 -0.4707384 0.5622176 1.1988703 -1.7461348 0.8395032 -0.44974247 1.4497963 1.2307659 0.8012295 0.16646095 0.7785258 1.2600763 1.0528747 1.7581679 -1.319505 0.3050745 -0.43234742 -0.7404546 1.4830838 -0.92608035 -0.8455398 1.5966291 -1.476406 0.6640718 -2.0041063 -0.08321735 -0.36467132 1.4459124 0.69405866 1.3670493 -0.57694536 0.63212055 -0.7637537 0.44710928 -1.1276255 2.580903 -3.2112255 -0.27108747 -0.23411416 -1.0374808 0.14757656 1.2156266 -2.316175 -0.9567 3.6123319 -0.37216085 0.39621967 -1.5442232 -0.63235074 0.59038675 -1.8929085 0.395611 0.18931869 -2.4352322 -0.3343708 -2.736329 -1.0620781 -1.4774076 -0.99991775 1.0040054 -2.0427823 -1.2144465 -1.0164413 0.9833664 -0.4935692 -0.07534351 1.6375384 0.35226408 -0.41136304 0.7387871 -1.7420435 1.5322798 -0.466879 -0.053467676 -0.28836176 -0.39671484 -0.6061829 0.98792005 -0.9366092 -3.2007072 0.6884783 -2.892853 1.5665835 -0.2443119 1.1222042 2.1344495 0.6166877 -0.26488793 -2.4897163 -2.429924 1.4261457 -1.410179 -2.4626904 -0.06689312 1.9304866 1.3283293 -0.040602352 -1.3202208 3.0183618 0.0079633 1.1183641 2.1936507 -0.06294675 -0.6848404 -0.27189782 -0.54922223 0.33595335 -0.5897928 -0.0056587965 1.7404332 1.1876755 -0.62572974 -2.7206879 -0.5717395 2.1238194 1.1532143 0.5533417 0.22029695 0.5966516 1.8163469 0.04639555 0.32643375 0.5703599 -1.9054437 0.86286056 1.2317542 -1.5007358 -1.5587105 -1.0862007 -2.136677 1.7318993 -2.174091 1.5347842 0.15888947 2.535829 1.2618072 -1.2497029 2.6309483 1.6900733 0.60232204 0.2726204 -1.7296795 2.0062284 1.5028359 -1.1406659 -0.39214602 0.109024964 0.77417123 0.2930151 0.03057753 1.035712 0.63024014 -1.0721253 0.76950496 0.88464475 -1.8869312 -1.9823998 2.0574145 -2.0021734 -1.071557 -0.3876785 -0.91176933 -0.24945186 1.2024667 0.78276104 3.3395941 1.8592125
会 -0.8154177 1.7722378 0.07341515 -0.3452061 -0.6874427 -0.23183352 -0.37605393 1.0935115 2.3566308 -0.4117488 -0.21321262 -0.21784563 0.037263073 -1.08779 1.7534139 2.039345 0.21276969 0.41551 -1.8506427 2.487927 -0.45746046 -0.21438223 0.15626284 -0.24622534 -0.8007918 0.72522354 -0.081598535 0.5614756 1.8602052 -0.9885178 -0.81242126 -0.20790285 -1.1258221 0.020781595 -0.28360674 0.81077266 1.7367777 0.37754756 -0.43081945 1.4553571 -0.5167868 0.5822713 -1.0619674 1.118058 1.444457 -2.0264642 -0.23250382 0.9774241 1.3256426 -2.696387 -0.16845866 -0.19804008 2.0207777 -0.7638801 -1.4151522 0.8787065 -0.9586529 -0.84382826 2.1204505 -1.4931318 1.5626351 -0.5492788 -1.7914978 0.8446716 0.48060015 -0.4834555 -2.48918 0.32473174 0.67839015 -1.4340534 0.59369075 -0.114042595 -2.2348557 0.24711712 -2.0965037 -0.64006656 -2.5559773 1.8444889 1.5388668 0.9168827 -1.1256194 -0.67387325 0.4142708 0.49707758 0.71561265 -1.1190097 0.00053474266 0.596876 1.5013515 0.22953495 -0.26094478 -2.8737862 2.0518823 0.05855709 0.113242604 -1.0845326 -0.3580845 0.24729328 0.19025922 -0.5757152 0.34987548 -1.4989941 -1.0936283 0.13587521 -0.22253597 0.062417503 2.896641 -1.149438 -0.8495165 0.95238924 -1.1883514 -2.1484375 3.2253153 0.42356154 2.6020055 -1.9342402 -0.20772468 0.5483981 -0.24931376 1.3294389 -0.011950852 -0.60720605 0.20105213 0.20161894 -1.4683698 -0.97828996 -0.38033897 -0.21255085 -0.0072917445 0.55384105 -0.47787273 -0.73547775 -0.20375735 -1.355267 -0.015383581 0.84159815 -0.00394631 2.652151 -2.7958808 0.18085395 1.4611248 -1.2622917 0.22552697 1.2848305 1.3528322 1.3850933 0.17924532 0.5317055 -1.8737607 0.42237735 -1.3202708 1.399015 0.16108231 -0.5433463 0.73248684 -0.6754034 1.6986527 3.5641031 -2.2866693 0.6123148 -2.220479 2.0683222 0.38828868 -0.25414744 -3.433611 0.55587345 -1.9268663 0.08126293 2.32115 0.63468546 -0.15704834 -2.2665982 1.0575876 0.09057631 -0.07116335 0.99962753 -0.18510507 0.720206 1.917782 1.2998972 0.3915678 1.4184468 -0.030256428 1.7406662 0.3778087 1.1485503 -2.8982337 -0.27781293 0.3733097 -0.12648244 -0.18829094 -2.4714224 1.3441418 -0.83130854 -0.34999117 -2.3380868 -1.7422138 -0.65225905 -1.1964294 0.7648934
前 -3.150097 1.2045076 -1.7607484 -0.0015953243 -2.8450336 -2.125353 -0.5651777 0.5353256 0.91541886 2.883493 0.38148305 0.34964493 1.2230309 2.0326946 0.6462074 1.4424973 -0.13497092 -1.9927369 -1.9649918 0.8633235 0.8216974 0.4091656 0.3296009 1.089008 -1.8886871 -0.20805383 0.9505195 0.3459631 -0.21822152 1.539722 -0.23472603 -0.35832253 0.47677308 0.17626154 0.8317275 0.8526953 1.4394516 -0.25377595 0.3218239 2.6057065 -0.9284799 -0.4733122 0.23608083 -1.9137917 0.03911623 0.40659645 -0.87529033 0.88147193 2.308608 -2.0589483 0.16962469 1.4417107 -0.81108934 0.21161467 0.029476851 0.04523774 0.17802025 -0.53139603 1.6703439 0.060371436 1.8061254 -0.13208106 -1.7685307 -0.009663547 2.6964025 1.0084451 -0.11317407 0.4884284 0.9840384 0.7098725 1.540684 -1.0142963 -1.1099323 0.9629738 1.8094983 0.36061007 -0.3225031 3.0632455 1.1197213 -0.052614655 -1.2013667 0.29063803 0.79458153 -0.41559374 -0.1902253 1.5726247 1.5946175 -0.36384284 1.2171 -0.08798522 -0.29461658 -1.2829723 -0.19560194 0.08850181 -1.6993114 0.97915566 -1.9179807 0.38987178 -2.4118392 1.0907446 0.1363689 1.6364764 -3.0254152 -2.9595718 -1.5738541 -0.3971832 3.0422165 -1.4145044 1.4015144 -0.87218666 -1.6770835 -0.9418806 1.2074544 -0.57927924 0.0749987 0.022492167 -2.3420844 0.25245938 0.4472426 1.9011041 1.3887299 -1.3572785 -0.6445642 1.4523371 0.8789449 -0.9681865 -0.9577106 0.0983994 1.0047495 1.277848 0.8381184 2.0739908 1.9034215 1.4127961 1.2631451 1.5363129 -0.4255702 2.5955155 -0.76663244 2.050168 -1.6703771 -1.0756923 -1.3218645 -0.17847088 -1.0759939 0.9868383 1.2164911 1.8962171 -0.72471344 0.528739 1.0098742 -0.6835681 1.8370584 0.6866171 -0.2039377 0.1728244 1.8263863 2.340699 1.6526712 0.4909805 2.2198164 -1.9922919 1.1498536 0.05379726 -1.1856873 3.203485 -0.9727763 -1.4854636 -0.6107678 1.5405194 -0.0827175 0.7520528 0.55511385 -2.1168756 -0.754957 1.4973187 0.3834773 1.6280336 2.0083754 2.3362234 -0.1508835 -1.0850087 -1.937077 0.5002617 -0.80256283 -1.1154736 -0.058392268 -0.20594183 -2.0577083 -0.83847064 1.9893839 -0.088243134 1.8807374 -0.9445613 -1.2646557 -2.431925 -0.35055426 0.6094096 0.195989 0.06549498
一 -1.5578859 0.23330244 -0.36673012 0.8302831 -0.6522981 -0.12801956 2.4725416 1.0755137 0.489446 -1.9437909 -1.5871025 -1.979201 0.19942355 -2.8039494 -0.13221689 2.6137433 -0.8748648 0.86394745 -0.93059117 -0.44332573 0.89347917 0.9973792 -0.20038041 -0.25915545 -0.93357915 -0.11186942 0.89012915 -0.03294973 0.83342 -2.5829718 0.019021709 -0.4273946 0.1823368 0.05546276 -2.1934347 0.9649546 3.7628515 3.3170717 -0.62741023 -0.483522 2.761069 0.88935685 1.8993077 1.6339898 0.7343802 1.8366894 0.9445414 -0.78375083 -0.010777352 -0.18765545 -0.90846103 2.163316 -0.06256172 -0.12000913 -0.3593359 -0.1832555 -1.0771884 -2.495357 0.18273921 1.1487877 -0.17133984 2.7212276 0.03288785 -0.3161576 0.3972486 -1.2430478 1.6976874 0.10958072 -0.13133086 -1.3511052 -2.6443815 1.0941577 -0.28494638 1.0061449 -0.6333296 -0.5587664 -0.83165985 1.2242527 -0.045529597 0.7077948 0.9907726 0.814638 0.46102083 -2.1152365 2.056954 -1.2239865 2.2298858 -2.1605232 -2.1450317 -0.38580704 -0.13180898 -0.85729945 0.6834963 0.40751463 0.08355101 0.45425257 -0.26987925 0.026987549 -0.33301294 0.9586735 -0.56096345 1.2304784 -0.18932036 0.7127883 1.1275878 1.0168738 -1.9680675 -1.7539326 -0.4851292 -0.44194993 1.7328804 -3.3624306 1.0610528 2.5869749 -0.54973066 -2.6943717 -0.46565503 1.291775 0.85208863 1.8769917 -1.791293 -0.7806155 1.2575082 -0.46827322 -3.4571755 -0.5815191 -0.70943815 0.5471713 0.25410515 0.55398685 1.4350743 -1.1020253 1.5511068 0.9138456 -1.7687129 0.957655 -0.6381136 0.45654193 -0.42899978 0.73380846 1.6657972 0.32062355 1.687264 -0.85931414 -1.0083655 2.2853422 0.6960576 -0.77873594 0.40508804 2.1793857 0.18942466 -0.09037029 -1.2199223 -0.10086029 1.1269963 0.9835839 0.35964522 -2.9243956 0.8094589 0.5040202 -0.42102066 1.3908933 -0.7875418 -1.5876906 0.48201653 -1.8355396 -0.82493454 1.3098882 -1.9190035 0.9339273 0.9874935 -1.3209122 2.2484744 2.3328116 -0.7835514 -0.07005205 -0.19398992 1.0480914 0.2601541 1.7735281 -0.12947276 1.4610548 -0.71440107 -0.12869345 -1.3829703 -1.8479946 -1.4112725 -1.4789178 0.5651333 0.47084445 -0.8404411 -2.5337353 -1.6527209 0.7255879 -0.72724617 0.655938 -2.685401 -0.04066044 -1.7254522 2.7202733
答 -0.8517866 -0.39476803 -1.9978992 1.2862477 -0.99511135 -1.5267698 0.3396753 0.4233401 0.8670181 -1.878361 -0.24099995 -2.490189 -2.4391584 0.54228693 -0.6261819 -0.0019566503 0.8923248 -0.7734617 -0.48977044 2.130015 -1.0630975 0.034066673 -3.095125 0.13153197 2.618937 0.24392612 -0.7008381 0.8990548 0.15169509 -0.6052454 -0.5786555 0.62444854 -2.6313252 -0.5286831 -3.045426 0.081217654 0.7101872 1.0190123 2.2536457 -2.0130308 1.4925226 1.3486174 2.2033596 0.107617594 -0.1158732 1.5858718 0.4904365 0.2485344 -2.0384085 2.0587318 1.9895598 -0.15453495 1.2737164 -1.5187671 -2.2225738 -1.7539148 1.5661781 1.2256302 -0.65280133 -0.022490181 -0.30290332 1.6497854 -1.5240183 -1.0717098 0.8236745 1.8215573 -2.2001414 -1.1856 2.7085748 -0.70661163 -1.5802598 -1.3293905 -0.44707814 0.22060488 1.2927773 -1.5290067 -1.0227158 -0.18834995 1.5119262 -0.053153664 -0.4810393 0.12414669 1.5117862 -0.3319945 -0.36978626 3.4484801 -0.4478743 -2.529919 0.17775469 -0.12347164 0.8802402 -1.5337278 -0.4655417 1.0040721 0.76244634 0.2913757 1.7456387 0.20113234 -0.85677934 0.26946124 -2.4461539 0.24397965 -0.23343863 1.5748736 -0.91756505 -1.1999166 -0.95241475 0.32299536 0.60959625 -0.7772183 -0.5295319 -1.4406414 -0.4644464 2.5611925 -1.7766789 1.3400645 -0.15606079 -1.6242205 -0.76454663 1.1799889 -0.52762747 -1.099233 -0.7309047 -0.4536851 0.69026 1.2242169 0.150292 1.7451717 -0.9255842 -2.2324722 -2.3618808 0.03912165 -0.66299176 1.7085559 -0.008715097 0.29722282 0.46851912 -1.4702904 0.03551428 0.48214197 -0.13706502 0.9694258 1.0363154 -0.10862939 -0.1550768 -0.824048 -0.40938932 -0.38943768 -0.20420948 -1.1288388 -0.4745537 0.9901031 -2.4302523 -0.40769136 0.36978954 -2.8240361 3.0593693 -0.13657355 -1.5729884 -0.19547692 2.078511 -1.7792536 2.2532394 1.9949161 -2.745861 -1.2762194 1.0605459 1.125598 0.7089094 1.22683 1.2151616 -2.2049093 -0.38767183 -0.70499486 0.8182407 0.6559223 -0.4274073 -1.6108302 1.3697451 -0.6272855 -0.16265869 0.45972002 1.2158763 -0.009589857 -0.9348843 -0.7162433 -1.2648879 -0.52715605 0.23844445 -0.09895782 1.2293721 -0.18590619 -0.01578856 0.03426839 0.6378931 1.761229 -0.7246646 0.36687422 -0.28099757 0.4808357
时 -1.1358474 3.052922 -0.63973355 0.92652833 -1.0364076 0.4741268 -2.5359 -0.66591465 -1.4456383 1.3377506 -0.44451812 0.35244465 1.3267683 -1.6168509 1.699395 -0.9977171 0.5744192 0.05966109 -0.64607906 1.1174419 -0.017968912 -1.0736413 -1.1359365 0.42480356 -3.4920557 1.5737975 -0.53808314 -0.030363502 -1.0769973 0.20944363 1.4849018 -0.0608344 -2.1520264 -1.8079648 -0.17759342 2.8971252 0.98686147 -0.1250696 -2.0702968 -1.6411465 -0.24439374 2.1185691 -0.99509084 -1.687352 0.6357824 -1.7947825 -0.45981655 -0.46242508 -1.2453253 -0.728682 -1.1902202 0.4609619 0.44810754 -0.14531177 0.92848873 1.1990224 -0.10470237 0.7550856 0.23834915 0.5636112 1.9177692 0.8539622 0.7082388 0.56336004 0.5337002 -1.5834737 0.22924517 0.19457726 2.974662 -0.7327606 -0.24829413 -0.067397155 -0.8635536 0.941747 0.3206214 1.2589561 -0.59052604 1.5763305 2.6391292 -1.7375221 -0.4082451 -0.029810764 -2.7062166 1.2047004 1.2769009 -0.06575282 1.088508 0.07813889 -0.51125115 -0.061734058 -2.2117224 -0.98497146 1.492561 1.3956627 -1.2003596 -0.6939706 -0.3150218 -0.894865 -0.76551 -0.87986887 1.4150931 -1.7442826 -0.7700591 0.24467191 1.943826 1.0770487 1.6236367 -1.7063555 -1.809012 0.7852199 1.0963066 -2.3082387 0.874607 2.2248225 -0.8640598 -0.11235617 0.78100306 1.3577433 -1.2891777 2.4821644 -0.9897416 0.2076285 -2.8388972 -1.1436421 -1.0339426 0.69950134 1.3619083 0.3904964 1.2173595 -2.0654147 1.4282316 1.3859986 1.3025888 -0.9813505 2.198933 0.6505525 0.89299834 0.5736312 -2.463207 -0.2663034 0.06831051 -0.13932343 -1.5869092 -0.47625336 -0.6198647 1.884519 -0.35125777 -0.10566748 0.2648368 -0.8243779 0.3468934 0.28717178 1.0977882 0.21581706 -0.79151595 -0.34116274 0.77048135 -0.70197535 -1.7321054 -1.1549892 -2.5378838 0.4171538 -0.50096303 0.8836683 -0.79387 0.6876764 0.041662265 0.53124595 -0.127648 0.00012899401 -0.51753867 -0.9930008 1.3336666 -0.85007805 -0.93156123 1.6060549 1.7679907 0.33499324 1.9714975 1.3109263 -0.17770784 -1.325849 -0.5176411 -0.25365618 -1.0839235 -0.2170614 0.43416306 0.23753569 -0.34611505 2.759666 -0.051814888 -0.8965979 -0.122365095 -0.42667177 -1.4409767 -1.4917036 -0.7607366 1.8054532 0.96872747 0.3382883
告 -1.3982776 -0.5805437 0.8224903 1.3277504 3.0166428 0.73068064 -1.7519943 -2.1554363 -1.5715448 2.2876334 -0.46454006 -0.6740243 1.5903811 -1.7888472 1.0251485 -0.42173922 -0.68418276 -0.66980565 1.8280902 -1.3517944 2.3964899 1.3913283 -3.0875359 -0.24028349 -2.5830529 0.57701117 0.9235046 -0.95434135 -2.4323556 -1.1074892 -1.1582026 -0.55932415 0.053883668 -0.5180798 -3.7172158 1.4419478 -0.93188 -1.8591013 -0.026551891 1.4877336 0.38586995 -0.4301541 -0.7698478 3.0248706 0.2211442 0.16669464 -0.46537286 -1.5600696 -0.9312133 0.87773937 0.28245077 -0.18712635 2.608719 -1.439275 -0.5718861 2.0165987 1.1953534 -3.378503 0.7796724 -1.342607 -2.2054164 1.9482278 1.9806408 -0.56197274 1.1567065 0.2844462 -0.6821117 1.0785496 0.78560024 -1.9303815 -0.78350407 -2.0595407 -0.7652867 0.91419 0.10158554 -0.67486066 -0.16551802 -0.8173178 1.1633462 -1.351725 -1.8112165 -0.37922707 -0.12077873 -2.4477074 0.5843525 1.7307947 -1.8894103 -0.21726893 3.0195293 3.3454494 -1.3004278 0.17722121 0.37984997 -2.2522092 0.22876768 -0.7323298 -0.16416307 -3.3521895 1.2902057 2.116817 -0.50503784 -1.6723193 0.8407956 -0.8513976 -0.16140567 -0.5413099 0.83591276 0.0008793819 0.23920989 0.85030043 -0.9029256 0.53372943 -0.25562486 -0.99467653 -1.1062931 0.47082648 -1.5965351 -1.1128365 -0.057382174 1.0994139 0.42364627 3.4019742 -0.7088078 2.0651882 2.6785557 1.2231646 1.0512164 1.8862238 -2.8170278 0.8060734 -1.1605463 -0.9779464 0.60566026 -2.4035392 -1.0063454 0.27449417 2.0263567 1.7271299 0.3560408 0.23104124 -2.096879 0.52586985 0.41515106 1.7966976 0.90999055 0.38987496 2.369789 0.6280831 -1.0529613 0.044950195 -0.13206406 0.037758067 1.7381748 0.08569556 -0.04714959 -1.8263369 -0.35604593 2.368378 -0.53106046 1.2704158 -2.1096141 -1.3311536 -2.205908 1.5421541 0.53885823 0.21683276 -0.43492484 2.038455 -0.17814182 -1.1573924 2.4184973 1.2954336 -0.14218111 2.1935785 -1.6203991 2.251624 -0.6408532 -0.5375129 1.0956423 -0.66832024 0.20289831 0.6880395 1.2563658 1.5739701 0.0011663693 -1.90659 1.5554832 2.0843549 -2.5962114 0.36762798 -0.093311414 0.39529428 0.35655954 -0.914218 0.9271248 -0.64556456 0.8582632 1.9759992 0.5078967 3.4206166
报 -1.8068694 -0.7877051 0.30147067 2.5637302 3.4977834 1.8961543 -0.8066875 -0.14851864 -2.0585573 2.0038743 -1.6423981 1.8091025 0.28945485 -0.23385201 1.2413416 0.13719535 -0.87939143 -0.14245369 3.8667574 -0.5382273 0.117450215 1.7285713 -2.743158 -0.5546024 -1.0778745 0.037512828 -0.7226474 -1.5747976 -0.91364497 0.20626536 -1.7392353 0.35055587 2.1606033 -1.0400276 -2.1339753 1.1012267 -1.8184997 -2.241703 2.1719198 0.680637 1.9494851 0.049026154 -0.7846353 1.7077296 0.39396045 1.3017055 -2.2451577 -0.63517916 -0.92075497 -0.60364866 0.17315666 2.4955516 0.9261093 -0.5608128 0.25071424 0.25480545 1.6942929 -0.85936856 1.3552572 -1.6400625 -2.3445234 3.122295 2.6137614 -0.38418317 1.5298867 -1.0925932 -1.0125598 0.87191415 2.6369746 -1.7926464 0.09714635 -0.9233402 -0.78184044 2.0247095 -0.09730442 -1.6306767 1.077985 -1.0622288 -0.4742494 -2.6613903 -1.4502927 0.99601555 0.892978 -3.059974 1.5343837 0.42739567 -0.7868813 1.255955 1.7636046 1.744074 -0.8541748 0.039363682 -1.1287376 -1.3925766 -0.16018075 -0.4389156 -0.15355082 -3.348187 0.85135144 1.0111839 0.39425823 -0.6986837 0.66068614 0.046657555 0.510196 -0.12933889 0.13326037 0.16812576 1.433074 0.48387033 -3.2691917 -1.3369534 -1.873913 -0.40282544 -0.18526046 0.048707675 -0.8547614 -1.6994425 0.75354546 0.43904662 1.2413945 2.775168 0.40876374 1.5027344 1.5655882 -0.55567586 2.3788915 2.298248 -2.370462 0.97685254 1.8224378 -2.3933506 2.9484954 -2.350822 -1.7049698 1.676119 1.613034 1.2187728 0.8665402 -0.41875473 -2.5304334 1.2526575 -0.21368045 0.98781824 0.55623424 0.87870073 1.3286055 -1.3063865 1.5971318 -1.9141343 0.50977945 1.0101378 -0.04912022 0.42172876 -0.29988316 -1.9044626 -0.13651547 1.939176 0.34172788 -0.46290538 -0.7940324 1.6455636 -2.134133 3.4946592 -1.4489595 -0.03750235 -1.039646 2.8379984 -0.40862635 -0.59502167 1.5692365 -1.5536722 -2.6281488 0.5851405 -2.256244 0.44773328 0.343103 -1.1204364 0.06474719 -0.16349417 0.8251012 0.48465997 2.2268794 2.4916909 -0.087865375 -0.08722446 0.08337222 1.0761831 -0.89497024 -0.055796903 0.54491043 -0.6982201 1.6603786 -0.8501802 2.1295953 -0.21644022 0.5706045 1.552808 0.8238018 -0.23249204
辩 -0.27885363 1.7615153 -2.2394137 0.017057292 0.34968743 -0.47249544 1.971237 0.80467093 1.3912376 -2.180141 -0.3173122 0.34482294 -2.6426165 0.5740732 -1.9082723 -0.546065 1.9610355 -1.5029911 0.9551858 -0.2746132 -0.98880434 0.040262673 -3.035698 0.15677993 2.9586499 -0.697222 0.61769897 1.0675339 0.416268 -1.5555637 -1.6336449 1.2696036 -2.1590292 -0.10393324 -2.8011298 0.72839063 0.9590342 2.0585904 2.9153974 -0.32040218 0.93991166 1.5536643 1.0112115 -1.5134974 0.20969914 0.42429683 0.6825703 1.0898844 -0.699955 1.4208901 1.122474 1.0015445 0.19313522 -0.08551729 -0.62314415 -0.7461923 1.8184998 0.8468004 -0.7259514 -2.0679328 -0.8144378 1.9195565 -0.32560652 -1.5111982 0.46410713 1.3732042 -0.055067353 -0.82503223 1.2915918 -1.1030319 -2.5891519 -1.2856874 -2.0118134 0.20226122 1.6592615 -0.5794647 -2.5104265 -0.7941668 0.78977466 0.41162026 0.3317964 0.94676584 0.36546806 -0.53396994 0.98608273 3.7219117 0.73907596 -3.66444 -1.0009669 1.5468605 0.10942539 -0.6437974 -0.51071113 0.26699758 1.8075569 0.8823478 0.55146253 -0.101418585 -1.3311983 0.32118818 -2.7946117 0.22250645 0.3087973 0.0421538 -1.2524791 -2.1290936 -0.341444 -0.22778927 -0.8381055 1.4731804 0.3170579 -0.4892659 -0.35933304 0.74715537 -0.2163087 0.32681933 0.8298477 -0.78856605 -0.49380946 1.6592653 1.0445791 -1.1590059 -1.8857323 -0.12615523 0.5994639 1.081225 0.11955785 -0.38540566 -0.29963762 -2.0485325 -1.3098546 -0.74768263 -0.53136045 0.89632225 -0.9542182 0.976921 -0.20038135 0.117952526 -1.7996612 0.8894505 1.7720584 1.7665976 0.23780935 -1.3303298 0.78711814 -0.029544799 -1.6827009 -1.4350994 -1.075979 -2.6649685 0.2616159 0.569757 -3.3867624 0.43760583 -1.2122858 -2.921033 2.3250237 -0.04024866 -0.33487678 -0.26806408 2.219567 -1.2262775 0.8701945 0.9754208 -0.7691318 0.4770698 1.0251001 0.6438733 -0.2540582 0.4491705 0.22151104 -1.2126566 0.052707598 0.36059225 1.1357366 1.5429503 0.64964753 0.014506015 1.1256164 -1.4964894 0.13732706 -0.47546014 0.19630368 1.3547263 -2.0089476 0.3420123 -0.9197844 -0.80461144 0.059234038 -0.48799905 0.91578746 -1.5181303 -0.743775 0.8291768 0.3698685 0.47794205 -0.35744444 -0.55596423 1.644054 0.22878605
计 -0.9279704 -1.3546807 2.2110362 -1.1705425 1.7560847 0.92034906 -0.83656436 1.3963945 1.3512466 0.0123003 0.61553824 0.91250855 -1.0247593 -1.918808 -1.2554473 1.6322079 -0.16905917 1.1353219 -2.3307903 3.157131 -1.1151038 0.5609681 -0.40342212 1.735099 -1.1786352 1.7449039 0.035547167 -0.5560401 0.16709493 1.3653226 -1.2396255 0.5101133 -0.5471831 -1.9552053 0.9481818 1.4132982 -1.8784368 0.33730018 -1.1398004 -0.031205716 -0.9322968 0.6861516 0.37078166 -0.39629588 -0.81761 -2.4850662 1.5003738 -0.049263023 1.5211253 2.0637069 -0.17483966 0.562455 -1.8547546 0.0962973 0.6648791 1.5864156 2.027784 -0.5516986 -0.14140177 -1.4703516 -0.3775717 -1.7517314 0.22652899 -1.1509528 0.9239847 -1.5479012 1.4593545 -1.5599264 1.5283144 1.5103472 -0.8988447 0.22212864 -0.030568687 0.21167527 -0.12821782 0.32929614 2.8043168 0.008651742 0.17607461 -1.7106059 4.827772 1.2437897 -0.09546604 -1.0568565 -0.49102074 -0.28481805 -1.6427794 2.02472 -0.047429807 1.6491401 -0.8983336 0.011071847 0.2536067 -0.22078753 0.074625485 0.1328724 0.9369124 -0.60255533 0.837602 -3.6521397 -1.4851459 0.29697776 0.22090471 -0.25233677 0.79427797 -0.8735114 -1.4592282 2.2307856 1.3509188 0.79096884 1.1338134 2.67762 1.8903203 1.2390015 -0.74623805 -0.21821827 1.1544652 1.6954526 0.7144454 -1.5750418 0.9177692 -2.4228368 0.46650705 -1.2823535 0.69107556 1.2418609 -2.3476124 -0.9650775 1.0489765 -1.906751 -1.1968874 -0.7763769 -2.7921476 0.16059436 1.5168278 -0.17912693 -0.32150748 -2.8394973 0.1965085 -2.4221249 0.57570106 -0.12135386 -0.42077753 -2.3365965 1.4086809 -2.1469343 1.7323573 0.15108721 -0.57946914 0.57351404 -3.0693088 1.6190082 -2.4006045 1.2716813 1.8822554 -0.5549229 -0.08681872 0.84739566 -0.2585412 -0.24838185 1.190444 -1.4484105 0.78936255 0.61195093 0.6688518 0.45379084 0.76501364 -1.6813705 1.2621611 -0.5879847 0.0067941183 -1.289345 -0.5312392 2.6156836 -1.2812276 -0.10608682 -1.3294241 -2.002154 -0.19140327 0.6855493 0.6170445 -1.3361576 -0.30408585 -0.8490716 0.4775637 1.1284237 0.7212041 0.83793974 0.5495426 -0.74379945 -0.95527416 -2.2977479 1.291361 -1.414811 0.8422497 -1.3177404 -0.06464971 0.10315507 -2.1120393 3.6862562
专 0.38362217 2.0109396 0.94085765 -1.4124421 0.4568925 0.2120456 -1.408391 0.664305 -0.099777475 -1.262892 0.54809475 -0.16805732 -0.86052537 1.8830137 -0.15146217 -0.42330742 -2.5388026 -0.6592173 -1.3197546 -0.54588807 -2.852598 -0.57415855 -3.2052307 0.9383239 -0.6046592 1.2748252 -0.7103173 -1.2759243 1.876203 0.43594342 -1.0800567 -2.6048853 0.5949484 2.0892992 -0.7561034 -0.15041512 1.5709053 -0.11380707 0.28876105 -2.5732741 -1.6192503 1.8269303 -0.6295445 -0.7711255 -0.160046 0.43307862 -0.9376901 2.795798 2.0679154 -1.219148 -2.6149652 -0.27816167 2.3261049 -0.8842975 -0.20263207 1.5904301 0.96994233 0.5924308 1.049687 -1.4902918 -3.6500776 0.9329688 -0.9122986 -1.5852863 -0.4468492 -0.52313846 -2.2355795 0.589915 1.5468048 2.16355 1.4934092 -1.2678992 -1.475133 -0.7816785 -1.1662859 -0.9988264 -0.88166845 -0.7647208 -0.37921804 2.074696 1.0476967 -1.4945282 -0.07771216 1.5683609 2.1754565 -1.3102252 -0.29805842 -1.421913 0.4010249 0.7645491 -4.084098 -0.8616752 1.0044643 -1.7674251 2.1804163 -0.09375769 0.8530591 0.672332 0.23035674 2.034982 1.1997708 0.7258508 -0.78268284 -0.63044065 -0.31023142 -1.4301169 1.6146742 -1.2237494 -0.116440475 -1.1789671 2.362885 2.3863845 -0.22765538 2.2734153 1.0726837 -0.35554516 -0.7479725 0.743816 -1.5411451 -1.8903817 -0.89213413 2.3666894 -1.0002115 0.55469155 -2.0462627 -1.5511752 1.1797507 -1.3861724 1.4193299 1.4736595 1.7391678 0.97796947 2.0913596 0.55328256 -1.5103791 -1.4033505 -0.85599375 0.07643524 0.19717474 0.40903226 -0.49605146 -0.76929915 0.029098917 -0.43982092 -1.7928811 0.48369712 0.8014321 -0.123257555 -1.5581343 1.3368945 -3.2780192 0.10926649 2.2288148 1.5644041 2.5370972 -2.960801 0.050368357 0.20451814 -3.4698021 -3.6043525 0.326055 -0.06620455 0.23620193 -0.1975034 0.35816753 -0.411739 0.05284853 -3.2560828 -0.96758384 0.54694366 1.0407354 -2.5919313 -0.43164507 -1.3477538 -0.27528784 0.06347523 0.19408469 2.715779 -0.61126405 0.70852727 0.1578234 1.0935088 -1.6703299 1.0574441 -1.4609265 0.6775505 -1.956106 1.4595431 -0.06356247 1.4431752 -0.9015007 0.50829923 -0.5035325 0.80215037 1.5197589 -0.3029508 -0.6966947 1.7301114 -3.0092127 2.8559546
成 0.42892972 0.16027458 2.0790517 -1.5596212 0.35139814 1.4441068 0.98251283 0.34519425 2.2219806 -2.3600407 1.5208756 -1.608396 -0.4988515 1.552597 -2.3616002 3.0419917 -0.7033124 1.7163914 -0.5825006 0.7688589 -2.9792569 -0.82503635 -0.049840905 2.0475614 0.28104675 1.5379105 1.9065106 -0.7515662 -0.5180833 1.541948 -0.83269835 0.47054684 0.9765616 1.487828 -0.6407122 0.92091715 1.1315144 0.0886959 2.0263915 -1.0755166 0.43851092 -0.3092966 -1.767054 -1.3640748 0.9455027 0.30211797 0.98032105 -0.36828575 0.3129482 -0.26249388 -0.17765063 -1.0917522 0.41148677 0.7015329 -1.5486051 1.0991669 -2.7243721 0.98305595 -0.31047994 -2.4288006 0.6693957 -1.7443328 0.665063 2.2349973 1.2450153 1.866706 4.115891 -1.3723297 -0.81185675 0.6232359 -0.2745731 -0.5745641 2.3690157 -1.3502113 -1.4316491 3.1848974 -0.8041515 -0.67951065 -0.4608961 -1.4691364 1.007589 -0.75057745 -0.36383796 -1.717889 -0.9452803 1.3797129 1.3161551 0.25732452 0.6366808 0.28916767 1.1808019 1.8514683 1.2984302 -0.5975188 -1.2310538 -0.78156865 1.1698056 -1.0488999 -0.76127213 -0.43343568 1.5212611 -0.63026625 -1.0746818 1.5147352 -0.06308976 0.2040389 0.18909344 -3.6043696 1.5261602 1.0535734 -2.013095 0.219076 1.4842175 0.47453535 -1.2344729 2.855673 -1.6918753 -0.13176067 0.84397596 -0.28299198 -0.6682925 -1.2689062 1.0924042 -0.16484682 -0.7658668 0.05855046 0.10949262 -0.69632024 1.0634885 1.7380757 -0.808593 -1.1697286 -0.8648964 2.411384 -2.2015872 0.8896065 -2.725188 -1.1531291 1.8949382 1.0455728 0.4260206 -0.7853697 1.8171846 -0.54838794 -1.1202874 1.5252094 -0.7446362 0.37697047 -0.78766656 1.6342881 0.9590713 -0.5165868 -0.79358584 -1.3940884 1.6727138 0.11776901 1.4976715 0.29977283 -1.6838208 -0.99487686 -1.5138917 3.1631026 -0.60457206 -0.910413 1.285482 -2.8342166 -0.436611 -0.57955414 0.14550409 -0.9889137 1.7632518 -1.5668441 0.7751527 0.106235616 1.3661296 2.2450173 -1.018463 -1.1870732 0.2706224 0.11522267 0.5078299 -1.0756841 0.5234764 0.6027313 -1.9596325 -0.27524933 -1.4602563 -0.36711484 1.8149712 -2.26096 1.800568 0.8656347 1.0011463 -0.055470895 -0.67237806 -0.9196791 -0.6728645 1.1357713 2.129341 -1.258979
校 0.75164115 0.46255895 1.8392501 0.35504803 0.17090926 1.1195313 -0.6123833 0.0948833 -0.054369144 -0.35359564 -1.5908983 -2.7088602 -1.1879921 -1.1793535 1.5209161 1.0231628 -1.8175194 2.038833 0.92760044 2.0459301 -0.9122167 -2.6409743 1.6576922 -0.40098226 -1.3022445 1.8262242 0.97638184 -0.7417052 1.341478 0.25521186 1.1084161 -2.1171489 1.0357634 1.4498776 0.20427942 0.59020424 1.8256491 -1.9080726 -2.560589 1.9540303 -1.8131862 1.9347115 -1.065973 -0.5349179 -0.61996406 -0.46877995 0.10120796 0.23487794 1.7095585 -1.7178261 0.053968366 0.98277223 2.5003605 -0.04122354 -1.498001 -0.02121787 -0.8102984 0.070406996 2.0415225 0.7340227 0.114914194 -1.7967204 1.2077647 -2.1229985 -2.8219864 -2.4260466 -1.6196587 -1.016755 -0.9991275 0.9547591 -0.22475803 -0.3207804 -0.08585769 0.4955857 -2.0468237 -0.9750817 -1.5109935 1.9416463 -0.6321806 -0.946487 -0.2348968 -0.29901987 -1.7947669 -0.7655596 -2.2061687 -0.43965054 1.905433 -0.12701195 -1.8824167 0.18111695 0.96333617 -2.485084 2.0203998 -0.24386597 1.0067289 0.16038023 0.80673665 -2.1773486 -1.5635817 -1.4522082 -1.7613586 -0.7683909 -2.4381144 -1.8179321 -0.3569041 2.2678087 0.76073754 -0.66203326 -0.399011 0.43304735 2.042145 -0.8902279 1.6557552 1.4539566 2.594208 -1.1275753 -0.21144581 2.4563854 2.1668499 -0.2807025 2.2227569 0.3644599 0.110791706 0.5483683 -1.9641442 1.1902221 -1.2592425 0.48334587 1.3416824 -1.5389155 -0.5829721 -0.20061016 -0.032567866 3.625386 -0.41936034 1.1994002 1.515935 3.2845109 0.99548626 -0.5807368 1.051529 1.2261848 -1.8851199 0.7254325 -1.2053299 2.4682412 0.18526624 2.0614944 1.9209561 -0.25102594 -0.8576353 0.42535356 1.9214358 0.021248719 -0.5956746 2.0684366 2.0517797 0.08903388 -0.27666098 2.5231488 -2.8413262 1.7406688 -2.5202966 -2.895389 -1.0233644 0.56088907 -1.3943819 -0.4535869 -1.626576 -0.41891694 -2.5142524 0.09909422 3.1077783 0.217931 -0.7527073 -1.3659797 0.19262731 1.1167206 0.38347918 1.6196457 0.16328353 1.6696604 0.32285124 0.28025168 0.7000253 0.027684204 -1.064341 -0.5216016 0.5162519 0.8949239 0.92855376 -2.1465824 1.7129536 0.37404025 0.0034820568 0.54472375 0.8076157 -0.27015972 -0.4029348 0.014547899
可 -1.2741499 -0.9805814 1.6297607 0.849786 -0.3293582 0.48924202 1.0321013 0.18606628 1.0471807 -0.37558222 1.2149693 1.7014693 1.0739608 -1.3563685 0.42919526 2.509977 -0.44238794 0.66984993 1.0923951 0.493956 -1.2185078 -0.010006295 -1.4602157 1.1280875 0.64824045 -0.68552643 0.35433263 -0.42594895 2.4009056 0.2775793 -0.8628669 0.55988246 0.15299568 -0.7552757 2.2090876 0.22976908 2.343292 1.7150813 1.4462327 -0.8851041 -0.33601564 -2.5595155 0.9081984 1.0027833 1.1829951 -0.17410569 -2.1303663 2.2773573 1.080326 0.21781571 0.3802373 0.68407714 0.2977099 1.5682806 -1.0759956 -0.6448132 -1.7471867 -2.1138284 -0.2995038 0.29949665 -1.2246011 1.9387993 -2.3807259 -0.5931624 -0.928535 -1.4086189 -0.48098257 -1.1608417 1.7004268 -0.1370436 -0.10969777 0.50936383 -1.3142438 -2.2186456 -2.0947645 -0.6189246 0.089069076 -1.6893642 2.736113 -0.35222077 3.2260046 1.569735 0.43529716 -0.9486352 2.9657905 -1.2322937 0.71551853 0.66169727 -0.71930265 1.9113722 -1.8038298 0.4176754 -2.7869842 -0.37021527 -1.3407592 -0.9919269 1.0632905 -0.54348975 2.5130222 -1.1332759 -1.3920074 -0.6994579 -1.1211764 -0.077991985 1.4851098 0.1763933 1.9220537 -0.9360878 1.0091724 1.2175899 2.4439094 -0.7964837 1.5739665 2.762047 -1.6706296 0.66608644 0.49012423 0.9073677 -1.0565616 -0.46578094 -1.0103493 -1.1673745 -1.2240881 0.6719222 0.35418108 -1.2883291 0.8441982 0.51571965 -0.23717134 2.30086 0.26572362 -1.9719229 -1.0887815 -0.5432473 -1.8276297 -0.34327945 -0.7410723 -0.53655034 1.630214 -0.74617416 0.26078072 1.3590268 0.365241 0.35872468 -0.22717342 -0.431484 0.52078766 -0.17683762 -0.24430242 0.63256896 1.1033497 0.49152866 0.69280833 -0.42600763 0.4561826 -0.27472037 0.18205611 0.469101 -0.76843625 -1.1680363 -1.370103 1.074193 2.1988816 0.30908594 -1.6410861 -1.5582076 -2.5609574 2.8498466 2.5434449 -0.44590095 2.4022465 -0.29747158 -1.8780891 1.6762741 -0.37270948 -0.062795244 1.0399404 2.816686 0.23282583 -0.46951723 0.5678685 -0.03385063 0.2428936 0.009429821 -0.5713906 0.47469342 -0.8564247 -0.110879146 -1.223602 1.066709 -0.20229705 0.40387085 0.25117645 -2.8390338 1.7106296 1.5093076 1.2820692 0.9816771 1.8326541 3.091246
术 -1.9781777 -0.35894242 1.4873158 0.18208449 0.21486503 0.20633726 0.8165129 -1.719857 0.98691344 0.803254 0.8356543 0.7899816 -0.4069297 -0.9100057 0.7097186 -0.93452406 1.221315 -0.7110632 1.6177408 0.20252107 -2.352537 -0.13657609 -1.1772293 -0.86454844 -2.3464437 -0.4203851 1.239685 1.7525975 -0.03480636 0.48419657 0.8273493 3.185332 -2.277046 1.9646244 -1.9083873 -3.2273288 0.6064014 -0.8545091 -1.2266341 3.2822726 1.7754967 0.4114165 -0.21563841 -1.3291477 0.9411074 -0.31421596 -1.8014277 -0.72907525 1.5498058 -0.22260596 -2.1511567 2.0353813 0.056337476 0.46243152 -0.92811596 -1.5568581 -0.9612636 -0.2937756 1.2494376 -1.2336009 -0.59595853 -0.7389703 -1.1503534 -0.79201704 -0.24443392 1.0384512 2.943697 -1.8159635 -1.678667 1.3823202 -0.029923083 0.3589257 -1.3008826 -0.7385693 -1.9115789 -1.3047653 2.4310179 2.3324535 2.5345566 0.2561035 1.0789498 -0.462018 2.3988795 -1.1680286 1.3496357 -0.6542412 -1.8792169 -2.4088562 0.71259856 -0.2666943 -2.355435 -0.8303913 1.6114898 -2.608808 -1.6526088 -1.2903992 0.5249403 -0.320798 1.5213832 0.69722617 1.189816 0.71446383 -1.7126001 0.5999205 0.21650593 1.9694263 -1.6553086 -0.23439124 2.0796692 0.38322592 0.16461274 0.16762732 1.6795377 0.21984097 0.38473377 1.0682068 -3.4460635 -0.079212576 1.8740652 -0.9437429 -1.4612443 -2.6116168 -0.6814613 2.1368709 -1.2489282 0.27023184 0.63250685 1.814309 0.5337782 0.29537246 -1.6150513 0.4853715 -0.48948842 1.0004338 -0.08705023 0.958054 -0.9729903 0.08524505 -0.24370103 -0.19318523 1.5417957 1.0831673 -1.3596411 -1.8903867 -1.9094201 -0.6590651 0.6079343 0.0465594 -0.6244733 -2.49027 -0.6127234 0.54606026 -1.4729629 -1.1667831 -0.3769364 -0.5665835 0.6682578 2.1055934 1.3494058 -1.7201182 1.4747669 0.71372527 1.8323414 -0.024399605 1.0700133 0.762578 2.6702092 -0.071605735 2.3561337 -0.50299376 -2.128422 -0.48740506 0.72938144 1.1701437 -0.83916324 -0.594735 0.15033254 -1.4155759 -0.022952177 -0.47596207 1.5404001 2.0703657 -0.24342467 1.025527 2.541366 -0.2546829 -1.4471909 0.5785128 0.900082 -1.6232424 1.4242103 2.1817732 -0.6910248 -0.69137585 1.5081218 -0.6172238 0.3418046 0.9399839 0.5754142 0.53329253
间 1.155739 2.6542678 1.4874718 1.400765 0.48809284 1.1987867 -2.3728073 0.35464892 0.3374276 2.5563195 -1.1650289 -1.6636674 1.65495 -0.5918628 1.7813994 -1.0999916 -0.36719885 1.8096385 -0.51432335 1.5989122 0.24766156 -0.5842188 -0.4767579 -0.06368615 -1.9177704 1.42576 -0.19570562 -0.118883684 -2.3042445 -0.9359213 1.7440809 -2.0337636 0.2674188 -0.7714595 -0.19521417 -0.28196064 1.1736733 0.53249985 0.32915673 -1.9503601 -0.04722542 0.6919178 -0.5423659 0.47924903 0.016786251 -0.42824358 0.30405068 1.0555397 1.8663819 -0.9926054 -2.3673785 -0.39953813 0.5614287 -2.3813403 0.0029926496 0.09955159 0.45720482 -0.11254183 0.5402461 -0.12945767 1.0262544 -0.5165001 0.6737948 0.30822006 0.68742317 -1.9391737 0.8404589 -0.6096217 1.3551992 -0.7055555 0.05893878 -0.21125712 1.2382529 1.6845517 -1.0954643 -0.5298516 -0.4361272 0.05020273 1.8970907 -1.1011184 -1.9005921 2.2252095 -1.5708693 -0.78497314 2.9246373 -1.0779034 1.9312335 1.0323305 -0.22180219 -0.5517758 -0.6511493 -2.2332542 2.2334688 1.8809474 1.593302 0.21852933 -0.8287192 -0.2798885 -3.8893945 -0.2559529 1.6323628 -0.06272703 -0.60731083 -1.4339978 1.4299066 1.9276612 -0.5574149 0.06569618 -0.4247935 -0.20636834 0.79897934 -1.4962803 1.7372037 2.0829394 0.4814549 -0.6936129 0.7580754 0.21884586 -0.8363628 2.251144 0.08447533 0.116498925 -0.60740966 -1.0438437 0.12433201 -0.7859649 1.1886016 -0.6123551 -1.8606925 -0.39366812 2.313679 0.91778094 0.66324687 -1.0884508 1.2781066 2.4463117 0.4420313 2.6219375 0.31950465 1.1206455 -1.572431 -0.44186354 -0.22448973 0.8943498 0.045997895 2.0780516 0.68905956 0.043334603 -0.6858826 0.42637652 -1.784968 -0.5636697 3.0143874 1.2957304 -0.22945583 0.59341896 -1.112905 -0.19367807 -1.0450835 -1.2083989 -1.5199988 2.0980308 -1.638518 0.36036375 0.7991543 -0.4487461 -0.6804449 0.6556816 -0.6860318 0.36038998 0.96134114 0.25876865 0.5144361 1.1417522 -2.501257 -0.36394042 2.2890034 -0.6135564 -1.1794124 1.0639119 1.9631547 -1.8595622 0.40379405 0.99295723 -1.4954515 -1.321112 1.0586994 -2.613747 0.105009355 -0.2223442 0.5806683 -2.2822213 -0.021501187 -0.5594742 -1.4001642 -1.474987 2.5063283 0.07810737 -0.4338644 0.19684039
教 -0.29224864 0.17310902 -1.1186088 -1.9055034 -0.5012235 0.038601957 -1.6245271 2.5904052 -1.5364517 -2.2274926 -2.9689798 -1.6986874 0.6219586 0.30586833 -3.4802918 -0.24521425 -0.04889509 0.001173 -2.3548675 -2.2947516 1.9357537 -1.7398572 2.2899854 -0.8516259 0.043993324 1.2597294 2.6633534 0.5966675 2.7817698 1.2787145 2.3339925 -1.1185049 1.1178302 0.030969534 1.2948226 0.025183495 -0.9071068 0.2941875 -2.0180407 -1.2399983 -1.9079229 -1.2065766 1.7508148 0.22023574 -1.1863668 1.8812169 -1.0603235 3.0890927 -0.8611113 0.29923216 -0.09987338 -0.16288397 1.0213628 1.0670682 -0.84436256 1.390311 1.197546 1.2354093 0.70064944 -0.14238302 -0.054862887 -1.5880029 -0.7875419 0.79806554 -0.29183346 -0.539857 -1.7742116 -0.7171836 -0.68774796 2.847047 0.59973395 1.6774266 -1.3157122 0.62047523 0.12453566 -1.2921388 0.46537822 -0.35203323 0.45114154 1.4192652 1.6475506 1.818382 1.2287029 -3.1543903 0.74659896 -0.1813346 0.059713483 0.31994236 -0.7893847 0.9322981 0.79039747 0.16826865 0.3507187 -0.079841346 -0.3789605 0.17763178 -1.6879283 -0.7176433 2.3976886 2.2889178 1.6608965 1.6816006 0.91106904 0.5098961 -3.2314882 1.2010245 -0.6677356 -2.431818 0.95892686 2.2348015 2.4765697 0.4340935 0.11517516 0.93701386 -0.54794693 -0.28036866 0.2002048 2.1709785 -0.23256147 -0.69339913 0.74153674 0.3427578 -0.2137289 0.2983414 1.4533986 1.4635044 2.7393403 0.16825521 1.8243921 0.12650344 1.7479441 -1.752841 0.5732611 1.0601988 -0.4753118 -1.61842 1.8087263 1.5480807 0.6915211 -0.97789663 0.23279542 -0.16202556 -0.7928152 -0.21309395 0.3481338 -0.77574486 1.7152103 2.0162132 -1.6116138 -2.3761935 -1.8669996 0.21951644 0.9454101 0.49660748 -1.0545015 0.8161206 2.3433352 -1.1847001 0.54847693 -1.140538 2.1135821 2.113661 0.20280938 1.4269403 0.7096479 -0.65351146 -2.1422517 1.232333 -0.046650067 -1.6735287 -0.87439096 0.3174768 -1.0320668 1.7366198 0.19807206 -0.13629827 -0.27287626 -0.08130121 -1.1421655 0.40359226 0.47417063 0.7994462 -0.21360031 -0.027195673 0.5206897 -1.2048781 1.6133661 -1.6124234 0.6871052 0.19224387 -2.4219766 2.6102555 1.233982 1.1926435 1.6181191 0.33349538 -0.40550613 -0.38820922 -0.99740314 -1.019685
究 -0.39801997 -1.7502867 -1.032557 0.1513283 -3.6806605 3.5291831 2.0726287 -0.03754908 -0.3123749 1.5947992 0.99063605 -2.4045842 -0.80592644 -0.7566926 -1.1832948 1.7438056 1.5101702 0.91461676 -2.4361835 0.09781222 -0.44897112 0.95904434 2.5000799 0.8555001 0.16288236 -1.1273078 1.5155411 3.053303 3.3035526 -1.9570224 2.3956983 0.038541585 1.1880001 -0.7711901 0.24582283 1.030667 2.206832 3.2574694 1.8118231 0.18646453 0.64863074 -1.3310281 2.2811759 -0.7449651 -3.164321 0.24825624 -1.5249355 2.319424 -1.0769056 -0.593348 -2.4280283 -0.682106 2.3874602 -0.32626894 0.33877012 1.0446299 1.3731171 2.3741698 0.098567195 -1.4657861 -1.1305687 1.0472032 -2.8237853 1.7545907 1.3612955 -0.40255982 -0.28384224 -0.33298337 0.9304443 -0.013817845 -0.6580702 -0.9181386 -0.42761782 -1.6523862 -0.75479025 -1.4001106 0.24152814 -0.3690787 1.7634231 0.13891539 1.0443579 0.17208597 -0.268483 -0.43555167 -0.073753715 0.55679286 -1.0498258 0.43231526 0.16739829 1.5756133 0.061085902 -1.0786278 -1.5365436 -2.22932 -0.88157475 0.19540137 1.0652014 -1.3979675 0.09655764 -1.5921717 -0.7871379 -1.418304 -0.29773897 1.9015884 -0.21514097 0.08025512 1.4680347 0.12015534 0.011315807 -1.6466562 -0.578414 -2.5397284 3.3924885 -0.8098252 0.29965207 1.2206782 -2.0278041 -0.7493249 0.52634877 -1.18627 -0.16279194 -2.5266948 -0.84652054 -0.18954857 3.152028 1.6178461 1.194206 0.09583453 0.11594601 -0.37881315 1.8398583 -3.3765101 2.5520942 -0.42223492 0.7373695 -1.936243 1.5411186 -2.1396248 -0.23302828 1.6383396 1.0436795 -0.3179011 1.0058408 -0.8814893 1.5161858 0.6815658 1.0251276 -1.0356631 0.39136648 -1.1038154 1.2563219 2.0106342 0.87729037 -0.71128106 -2.1110625 1.4029073 1.3080872 0.57337517 -0.39303195 -1.1587034 1.9611583 0.46880472 0.23659837 0.84471893 -1.9673483 0.8739046 -1.7646654 1.0445205 0.32699716 1.7506264 1.6294911 0.8128256 1.8130163 2.5781622 0.071012184 3.6002955 4.178235 0.96145284 1.5166073 -0.42469743 1.9578481 1.767179 0.04886428 -0.29916757 -2.566272 -0.04499958 0.9673239 -0.1447102 -0.38090464 -0.30713984 -0.033185147 1.0505385 0.60926056 -1.4380149 -1.1889939 2.4074888 0.008205409 -0.5294323 0.39648697 -1.563609
